/*!
 * The following copyright notice may not be removed under any circumstances.
 * 
 * Copyright:
 *  The digitally encoded machine readable software for producing the Typefaces
 * licensed to you is copyrighted (c) 1989, 1995 Adobe Systems. All Rights
 * Reserved. This software is the property of Adobe Systems Incorporated and its
 * licensors, and may not be reproduced, used,  displayed, modified, disclosed or
 * transferred without the express  written approval of Adobe.  The digitally
 * encoded machine readable outline data for producing the Typefaces licensed to
 * you is copyrighted (c) 1981 Linotype-Hell AG and/or its subsidiaries. All
 * Rights Reserved. This data is the property of Linotype-Hell AG and/or its
 * subsidiaries and may not be reproduced, used, displayed, modified, disclosed or
 *  transferred without the express written approval of Linotype-Hell AG  and/or
 * its subsidiaries.
 */
Cufon.registerFont({"w":536,"face":{"font-family":"VAG Rounded","font-weight":100,"font-stretch":"normal","units-per-em":"1000","panose-1":"2 0 2 3 0 0 0 0 0 0","ascent":"800","descent":"-200","x-height":"6","cap-height":"6","bbox":"-29 -788 800 288","underline-thickness":"50","underline-position":"-100","stemh":"66","stemv":"72","unicode-range":"U+0020-U+007E"},"glyphs":{" ":{"w":240},"!":{"d":"93,-40v0,-24,22,-46,46,-46v24,0,46,22,46,46v0,25,-22,46,-46,46v-24,0,-46,-21,-46,-46xm103,-248r0,-424v0,-30,13,-46,36,-46v23,0,36,16,36,46r0,424v0,30,-13,46,-36,46v-23,0,-36,-16,-36,-46","w":278},"\"":{"d":"60,-548r0,-132v0,-23,15,-38,33,-38v18,0,33,15,33,38r0,132v0,23,-15,38,-33,38v-18,0,-33,-15,-33,-38xm189,-548r0,-132v0,-23,15,-38,33,-38v18,0,33,15,33,38r0,132v0,23,-15,38,-33,38v-18,0,-33,-15,-33,-38","w":315},"#":{"d":"182,-216r-26,186v4,42,-62,48,-60,8v4,-65,18,-130,25,-194v-41,-1,-102,9,-102,-30v0,-42,68,-27,111,-30r23,-160v-41,-2,-103,10,-103,-30v0,-41,68,-28,111,-30r26,-186v-4,-42,62,-48,60,-8v-4,65,-18,130,-25,194r132,0r26,-186v-4,-42,62,-48,60,-8v-4,65,-18,130,-25,194v41,1,102,-9,102,30v0,42,-68,27,-111,30r-23,160v41,2,103,-10,103,30v0,41,-68,28,-111,30r-26,186v4,42,-62,48,-60,8v4,-65,18,-130,25,-194r-132,0xm324,-276r22,-160r-133,0r-22,160r133,0"},"$":{"d":"245,-343r0,281v76,-13,126,-83,126,-153v0,-76,-58,-104,-126,-128xm209,-433r0,-217v-71,10,-104,52,-104,105v0,61,46,90,104,112xm209,-60r0,-296v-87,-30,-176,-64,-176,-183v0,-104,80,-167,176,-177v2,-25,-9,-67,18,-67v26,0,16,40,18,65v76,2,156,40,156,79v0,16,-9,33,-30,33v-28,0,-45,-44,-126,-46r0,234v93,35,198,70,198,195v0,122,-81,216,-198,227v-2,25,9,67,-18,67v-26,0,-16,-40,-18,-65v-115,-2,-189,-47,-189,-88v0,-12,10,-30,32,-30v39,0,55,52,157,52","w":463},"%":{"d":"194,-372v-82,0,-154,-69,-154,-169v0,-108,75,-177,154,-177v79,0,154,69,154,177v0,100,-72,169,-154,169xm194,-420v66,0,94,-64,94,-121v0,-74,-35,-129,-94,-129v-59,0,-94,55,-94,129v0,57,28,121,94,121xm547,6v-82,0,-154,-69,-154,-169v0,-108,75,-177,154,-177v79,0,154,69,154,177v0,100,-72,169,-154,169xm547,-42v66,0,94,-64,94,-121v0,-74,-35,-129,-94,-129v-59,0,-94,55,-94,129v0,57,28,121,94,121xm215,-38r260,-665v4,-31,58,-33,59,-2v0,8,-3,16,-9,31r-260,665v-4,31,-58,33,-59,2v0,-8,3,-16,9,-31","w":741},"&":{"d":"314,-423r176,203v36,-39,78,-140,109,-140v20,0,32,13,32,32v0,13,-20,60,-99,159r92,103v32,28,14,69,-20,69v-12,0,-18,-5,-33,-23r-80,-92v-53,64,-130,118,-217,118v-147,0,-233,-87,-233,-214v0,-100,68,-172,170,-231v-63,-69,-82,-102,-82,-145v0,-75,53,-134,157,-134v85,0,158,44,158,130v0,80,-69,128,-130,165xm372,-584v0,-45,-37,-74,-90,-74v-39,0,-81,16,-81,74v0,34,39,76,69,110v77,-44,102,-70,102,-110xm445,-165r-194,-223v-80,40,-132,105,-132,177v0,91,61,151,152,151v54,0,124,-30,174,-105","w":667},"(":{"d":"133,-614v-36,190,-35,378,0,568v13,70,29,83,28,102v-1,15,-11,24,-29,24v-23,0,-37,-21,-48,-64v-58,-223,-58,-469,0,-692v11,-43,25,-64,48,-64v18,0,28,9,29,24v1,19,-15,32,-28,102","w":204},")":{"d":"71,-46v36,-190,35,-378,0,-568v-13,-70,-29,-83,-28,-102v1,-15,11,-24,29,-24v23,0,37,21,48,64v58,223,58,469,0,692v-11,43,-25,64,-48,64v-18,0,-28,-9,-29,-24v-1,-19,15,-32,28,-102","w":204},"*":{"d":"160,-540r-91,-41v-39,-11,-39,-58,2,-59v40,10,74,50,107,71r-14,-116v0,-19,11,-33,30,-33v19,0,30,14,30,33v0,13,-10,90,-14,116v33,-22,67,-60,107,-71v20,0,31,9,31,29v0,11,-10,21,-29,30r-91,41r91,41v39,11,39,58,-2,59v-40,-10,-74,-50,-107,-71r14,116v0,19,-11,33,-30,33v-19,0,-30,-14,-30,-33v0,-13,10,-90,14,-116v-33,22,-67,60,-107,71v-20,0,-31,-9,-31,-29v0,-11,10,-21,29,-30","w":388},"+":{"d":"267,-286r0,-182v0,-23,15,-38,33,-38v18,0,33,15,33,38r0,182r182,0v23,0,38,15,38,33v0,18,-15,33,-38,33r-182,0r0,182v0,23,-15,38,-33,38v-18,0,-33,-15,-33,-38r0,-182r-182,0v-23,0,-38,-15,-38,-33v0,-18,15,-33,38,-33r182,0","w":600},",":{"d":"32,91v11,-58,47,-103,65,-156v12,-34,75,-20,69,10v-11,58,-47,103,-65,156v-12,34,-75,20,-69,-10","w":240},"-":{"d":"79,-299r194,0v23,0,38,15,38,33v0,18,-15,33,-38,33r-194,0v-23,0,-38,-15,-38,-33v0,-18,15,-33,38,-33","w":352},".":{"d":"74,-40v0,-25,21,-46,46,-46v25,0,46,21,46,46v0,25,-21,46,-46,46v-25,0,-46,-21,-46,-46","w":240},"\/":{"d":"47,-47r255,-645v5,-34,65,-34,65,0v0,7,-3,17,-7,27r-255,645v-5,34,-65,34,-65,0v0,-7,3,-17,7,-27","w":407},"0":{"d":"268,6v-100,0,-227,-91,-227,-362v0,-271,127,-362,227,-362v100,0,227,91,227,362v0,271,-127,362,-227,362xm268,-652v-101,0,-149,126,-149,296v0,170,48,296,149,296v101,0,149,-126,149,-296v0,-170,-48,-296,-149,-296"},"1":{"d":"176,-646v-48,-3,-129,15,-129,-33v0,-56,107,-33,163,-33v23,0,38,15,38,33r0,639v0,30,-13,46,-36,46v-23,0,-36,-16,-36,-46r0,-606","w":352},"2":{"d":"165,-66r274,0v23,0,38,15,38,33v0,18,-15,33,-38,33r-333,0v-53,-6,-44,-37,-19,-72r231,-319v43,-59,61,-107,61,-139v0,-88,-44,-122,-114,-122v-85,0,-134,57,-134,164v0,24,-15,36,-35,36v-23,0,-37,-12,-37,-48v0,-122,84,-218,209,-218v113,0,189,68,189,182v0,48,-18,96,-68,164"},"3":{"d":"351,-535v0,-40,-21,-117,-101,-117v-62,0,-98,40,-98,112v0,20,-16,36,-36,36v-20,0,-36,-16,-36,-36v0,-94,68,-178,170,-178v104,0,179,76,179,179v0,70,-31,126,-81,159v70,23,120,90,120,169v0,125,-94,217,-218,217v-129,0,-199,-106,-199,-156v0,-46,49,-57,66,-15v8,21,37,105,133,105v85,0,140,-61,140,-138v0,-102,-65,-128,-101,-134v-69,-11,-71,-23,-71,-40v0,-17,9,-30,42,-35v57,-8,91,-54,91,-128"},"4":{"d":"355,-40r0,-151r-286,0v-62,-7,-35,-46,-10,-88r237,-394v14,-24,37,-45,72,-45v37,0,59,23,59,59r0,402v37,-3,77,0,77,33v0,32,-40,36,-77,33r0,151v0,30,-13,46,-36,46v-23,0,-36,-16,-36,-46xm355,-257r0,-401r-2,0r-230,401r232,0"},"5":{"d":"118,-388r42,-278v5,-29,13,-46,43,-46r214,0v23,0,38,15,38,33v0,18,-15,33,-38,33r-189,0r-32,206v137,-60,272,46,272,194v0,153,-92,252,-221,252v-114,0,-197,-79,-197,-109v0,-12,11,-36,35,-36v30,0,55,79,161,79v90,0,144,-78,144,-177v0,-93,-54,-154,-141,-154v-51,0,-72,30,-104,30v-13,0,-29,-11,-27,-27"},"6":{"d":"271,6v-156,0,-210,-141,-210,-237v0,-189,115,-357,238,-477v28,-27,70,-27,70,18v0,32,-91,59,-191,259v31,-16,67,-28,105,-28v118,0,192,89,192,228v0,110,-63,237,-204,237xm265,-60v72,0,132,-55,132,-165v0,-104,-51,-174,-130,-174v-86,0,-128,62,-128,174v0,81,39,165,126,165"},"7":{"d":"440,-646r-265,626v-10,24,-25,26,-37,26v-38,0,-37,-29,-21,-66r248,-586r-298,0v-23,0,-38,-15,-38,-33v0,-18,15,-33,38,-33r350,0v50,-1,35,36,23,66","w":481},"8":{"d":"268,-364v-84,0,-129,72,-129,148v0,72,43,156,129,156v170,0,173,-304,0,-304xm268,6v-134,0,-207,-103,-207,-216v0,-91,50,-160,122,-185v-54,-33,-94,-89,-94,-158v0,-86,75,-165,179,-165v104,0,179,79,179,165v0,71,-43,123,-94,160v76,20,122,94,122,183v0,113,-73,216,-207,216xm268,-430v73,0,107,-51,107,-114v0,-61,-45,-108,-107,-108v-65,0,-107,47,-107,106v0,65,34,116,107,116"},"9":{"d":"265,-718v156,0,210,141,210,237v0,189,-115,357,-238,477v-28,27,-70,27,-70,-18v0,-32,91,-59,191,-259v-31,16,-67,28,-105,28v-118,0,-192,-89,-192,-228v0,-110,63,-237,204,-237xm271,-652v-72,0,-132,55,-132,165v0,104,51,174,130,174v86,0,128,-62,128,-174v0,-81,-39,-165,-126,-165"},":":{"d":"74,-378v0,-25,21,-46,46,-46v25,0,46,21,46,46v0,25,-21,46,-46,46v-25,0,-46,-21,-46,-46xm74,-40v0,-25,21,-46,46,-46v25,0,46,21,46,46v0,25,-21,46,-46,46v-25,0,-46,-21,-46,-46","w":240},";":{"d":"32,91v11,-58,47,-103,65,-156v12,-34,75,-20,69,10v-11,58,-47,103,-65,156v-12,34,-75,20,-69,-10xm166,-378v0,24,-22,46,-46,46v-24,0,-46,-22,-46,-46v0,-24,22,-46,46,-46v24,0,46,22,46,46","w":240},"<":{"d":"138,-253r394,192v22,11,31,19,31,36v0,34,-33,35,-60,22r-439,-215v-39,-23,-40,-50,0,-70r439,-215v23,-16,60,-10,60,16v0,21,-13,33,-34,43","w":600},"=":{"d":"85,-386r430,0v23,0,38,15,38,33v0,18,-15,33,-38,33r-430,0v-23,0,-38,-15,-38,-33v0,-18,15,-33,38,-33xm85,-186r430,0v23,0,38,15,38,33v0,18,-15,33,-38,33r-430,0v-23,0,-38,-15,-38,-33v0,-18,15,-33,38,-33","w":600},">":{"d":"462,-253r-391,-191v-21,-10,-34,-22,-34,-43v1,-26,35,-28,60,-16r439,215v39,23,40,50,0,70r-439,215v-26,16,-59,12,-60,-22v0,-17,9,-25,31,-36","w":600},"?":{"d":"211,-200v-60,0,-36,-114,-36,-173v0,-26,4,-35,39,-42v85,-17,125,-63,125,-125v-1,-139,-209,-147,-240,-33v-2,59,-72,50,-72,3v0,-88,90,-148,191,-148v117,0,199,72,199,176v0,122,-81,168,-170,190v-5,55,20,152,-36,152xm165,-40v0,-25,21,-46,46,-46v25,0,46,21,46,46v0,25,-21,46,-46,46v-25,0,-46,-21,-46,-46","w":444},"@":{"d":"262,-297v0,54,29,92,81,92v89,0,156,-139,156,-206v0,-55,-25,-89,-81,-89v-90,0,-156,118,-156,203xm530,-488v8,-23,20,-64,48,-60v28,4,33,17,23,47v-30,92,-82,176,-82,278v0,18,10,30,27,30v80,0,156,-119,156,-222v0,-154,-130,-249,-290,-249v-181,0,-314,140,-314,311v0,172,142,305,306,305v203,0,250,-117,285,-117v15,0,22,10,22,22v0,32,-126,149,-303,149v-205,0,-370,-161,-370,-364v0,-200,170,-360,373,-360v196,0,351,123,351,298v0,167,-151,281,-235,281v-47,0,-69,-25,-82,-63v-25,31,-56,63,-121,63v-91,0,-140,-69,-140,-153v0,-132,93,-274,228,-274v46,0,94,24,118,78","w":800},"A":{"d":"133,-155r-47,128v-9,18,-15,33,-40,33v-36,-1,-35,-30,-25,-58r229,-614v9,-23,20,-52,56,-52v36,0,47,29,56,52r229,614v12,27,11,57,-25,58v-25,0,-33,-15,-40,-33r-47,-128r-346,0xm455,-221r-148,-403r-2,0r-148,403r298,0","w":612},"B":{"d":"66,-38r0,-636v0,-25,12,-38,44,-38r129,0v155,0,206,98,206,178v0,86,-44,122,-101,151v98,16,156,78,156,179v0,107,-69,204,-226,204r-164,0v-32,0,-44,-13,-44,-38xm138,-646r0,239r105,0v74,0,130,-52,130,-124v0,-58,-44,-115,-128,-115r-107,0xm138,-347r0,281r128,0v101,0,162,-48,162,-140v0,-83,-65,-141,-163,-141r-127,0","w":537},"C":{"d":"350,-718v120,0,216,72,216,107v0,25,-17,38,-32,38v-30,0,-67,-79,-185,-79v-150,0,-231,161,-231,306v0,147,72,286,244,286v125,0,163,-70,189,-70v18,0,30,11,30,36v0,31,-92,100,-223,100v-218,0,-318,-162,-318,-352v0,-187,100,-372,310,-372","w":593},"D":{"d":"66,-38r0,-636v0,-25,12,-38,44,-38r178,0v216,0,302,195,302,361v0,219,-135,351,-308,351r-172,0v-32,0,-44,-13,-44,-38xm138,-646r0,580r140,0v173,0,234,-131,234,-298v0,-136,-60,-282,-230,-282r-144,0","w":630},"E":{"d":"138,-322r0,256r218,0v23,0,38,15,38,33v0,18,-15,33,-38,33r-246,0v-32,0,-44,-13,-44,-38r0,-636v0,-25,12,-38,44,-38r236,0v23,0,38,15,38,33v0,18,-15,33,-38,33r-207,0r0,258r198,0v23,0,38,15,38,33v0,18,-15,33,-38,33r-199,0","w":444},"F":{"d":"138,-322r0,282v0,30,-13,46,-36,46v-23,0,-36,-16,-36,-46r0,-636v0,-20,16,-36,36,-36r253,0v23,0,38,15,38,33v0,18,-15,33,-38,33r-217,0r0,258r192,0v23,0,38,15,38,33v0,18,-15,33,-38,33r-192,0","w":407},"G":{"d":"444,-401r137,0v50,0,61,26,61,55v0,276,-134,352,-290,352v-222,0,-312,-179,-312,-362v0,-177,100,-362,310,-362v140,0,243,79,243,109v0,26,-17,38,-35,38v-33,0,-82,-81,-204,-81v-166,0,-236,159,-236,296v0,161,77,296,240,296v155,0,212,-132,212,-275r-126,0v-23,0,-38,-15,-38,-33v0,-18,15,-33,38,-33","w":667},"H":{"d":"138,-332r0,292v0,30,-13,46,-36,46v-23,0,-36,-16,-36,-46r0,-632v0,-30,13,-46,36,-46v23,0,36,16,36,46r0,274r391,0r0,-274v0,-30,13,-46,36,-46v23,0,36,16,36,46r0,632v0,30,-13,46,-36,46v-23,0,-36,-16,-36,-46r0,-292r-391,0","w":667},"I":{"d":"138,-672r0,632v0,30,-13,46,-36,46v-23,0,-36,-16,-36,-46r0,-632v0,-30,13,-46,36,-46v23,0,36,16,36,46","w":204},"J":{"d":"286,-672r0,508v0,104,-61,170,-157,170v-84,0,-146,-44,-146,-71v0,-20,12,-32,28,-32v26,0,41,43,115,43v71,0,88,-49,88,-110r0,-508v0,-30,13,-46,36,-46v23,0,36,16,36,46","w":352},"K":{"d":"138,-345r0,305v0,30,-13,46,-36,46v-23,0,-36,-16,-36,-46r0,-632v0,-30,13,-46,36,-46v23,0,36,16,36,46r0,265r319,-287v22,-31,72,-32,75,6v0,11,-2,19,-16,31r-312,280r336,320v25,22,21,63,-16,63v-16,0,-29,-10,-43,-24","w":556},"L":{"d":"138,-672r0,606r188,0v23,0,38,15,38,33v0,18,-15,33,-38,33r-224,0v-20,0,-36,-16,-36,-36r0,-636v0,-30,13,-46,36,-46v23,0,36,16,36,46","w":370},"M":{"d":"417,-119r162,-552v13,-67,114,-64,126,9r95,635v0,27,-19,33,-34,33v-26,0,-34,-17,-38,-43r-89,-603r-2,0r-178,598v-11,62,-64,62,-79,11r-183,-607r-2,0r-89,601v-4,26,-12,43,-38,43v-15,0,-38,-6,-34,-33r95,-635v12,-75,109,-74,128,-9r158,552r2,0","w":834},"N":{"d":"138,-586r0,546v0,30,-13,46,-36,46v-23,0,-36,-16,-36,-46r0,-636v-1,-55,57,-47,78,-16r382,559r2,0r0,-539v0,-30,13,-46,36,-46v23,0,36,16,36,46r0,634v1,60,-51,50,-73,18r-387,-566r-2,0","w":666},"O":{"d":"40,-356v0,-181,101,-362,302,-362v201,0,302,181,302,362v0,181,-101,362,-302,362v-201,0,-302,-181,-302,-362xm342,-60v167,0,224,-162,224,-296v0,-134,-57,-296,-224,-296v-167,0,-224,162,-224,296v0,134,57,296,224,296","w":684},"P":{"d":"138,-272r0,232v0,30,-13,46,-36,46v-23,0,-36,-16,-36,-46r0,-634v0,-24,11,-38,45,-38r171,0v162,0,220,126,220,214v0,118,-74,226,-238,226r-126,0xm138,-646r0,308r132,0v114,0,160,-82,160,-154v0,-72,-46,-154,-160,-154r-132,0","w":519},"Q":{"d":"585,-130r74,77v26,22,16,57,-16,59v-12,0,-20,-4,-31,-16r-66,-70v-49,53,-117,86,-204,86v-201,0,-302,-181,-302,-362v0,-181,101,-362,302,-362v286,0,374,367,243,588xm500,-128v-24,-31,-66,-55,-79,-95v1,-29,41,-39,64,-14r49,52v72,-186,34,-473,-192,-473v-167,0,-224,162,-224,302v0,140,57,302,224,302v72,0,124,-30,158,-74","w":684},"R":{"d":"138,-316r0,276v0,30,-13,46,-36,46v-23,0,-36,-16,-36,-46r0,-634v0,-24,11,-38,45,-38r157,0v140,0,215,94,215,193v0,114,-76,201,-190,201r-66,0r246,263v26,19,13,62,-18,61v-12,0,-21,-4,-32,-16xm138,-646r0,268r125,0v94,0,148,-44,148,-128v0,-93,-51,-140,-148,-140r-125,0","w":519},"S":{"d":"54,-114v43,15,69,54,152,54v100,0,164,-80,164,-155v0,-171,-338,-105,-338,-321v0,-115,98,-182,206,-182v78,0,162,44,162,78v0,22,-17,38,-30,38v-37,0,-61,-50,-137,-50v-75,0,-129,52,-129,111v0,157,338,93,338,321v0,129,-89,226,-226,226v-118,0,-196,-46,-196,-85v0,-19,15,-35,34,-35","w":462},"T":{"d":"249,-646r0,606v0,30,-13,46,-36,46v-23,0,-36,-16,-36,-46r0,-606r-138,0v-23,0,-38,-15,-38,-33v0,-18,15,-33,38,-33r348,0v23,0,38,15,38,33v0,18,-15,33,-38,33r-138,0","w":426},"U":{"d":"66,-242r0,-430v0,-30,13,-46,36,-46v23,0,36,16,36,46r0,421v0,131,95,191,195,191v100,0,195,-60,195,-191r0,-421v0,-30,13,-46,36,-46v23,0,36,16,36,46r0,430v0,164,-129,248,-267,248v-138,0,-267,-84,-267,-248","w":666},"V":{"d":"279,-113r196,-575v6,-42,72,-38,71,4v0,8,-4,23,-14,50r-211,596v-7,20,-18,44,-43,44v-25,0,-36,-24,-43,-44r-211,-596v-10,-27,-14,-42,-14,-50v0,-20,14,-34,36,-34v18,0,29,11,35,30r196,575r2,0","w":556},"W":{"d":"198,-78r172,-606v5,-17,14,-34,38,-34v24,0,33,17,38,34r172,606r2,0r96,-604v5,-29,22,-36,39,-36v51,0,32,42,21,104r-105,580v-12,53,-92,54,-107,0r-155,-571r-2,0r-159,571v-12,55,-98,53,-107,0r-113,-654v4,-42,64,-42,72,6r96,604r2,0","w":816},"X":{"d":"297,-439r174,-253v13,-36,72,-33,72,2v0,10,-4,18,-14,33r-192,275r231,327v24,28,16,61,-20,61v-18,0,-26,-8,-38,-26r-213,-304r-213,304v-13,36,-72,33,-72,-2v0,-10,4,-18,14,-33r231,-327r-192,-275v-24,-28,-16,-61,20,-61v18,0,26,8,38,26","w":594},"Y":{"d":"241,-407r174,-290v12,-31,67,-26,66,7v0,9,-4,20,-22,50r-182,303r0,297v0,30,-13,46,-36,46v-23,0,-36,-16,-36,-46r0,-297r-182,-303v-18,-30,-22,-41,-22,-50v-2,-33,49,-36,66,-7","w":482},"Z":{"d":"118,-66r372,0v23,0,38,15,38,33v0,18,-15,33,-38,33r-402,0v-79,-8,-68,-46,-31,-102r357,-544r-334,0v-23,0,-38,-15,-38,-33v0,-18,15,-33,38,-33r401,0v45,3,38,36,20,63","w":556},"[":{"d":"74,22r0,-704v0,-46,59,-35,104,-36v24,0,31,18,31,30v0,12,-7,30,-31,30r-32,0r0,656r32,0v24,0,31,18,31,30v0,12,-7,30,-31,30v-45,-1,-104,10,-104,-36","w":222},"\\":{"d":"105,-692r255,645v13,26,9,52,-24,53v-19,0,-27,-9,-34,-26r-255,-645v-13,-26,-9,-52,24,-53v19,0,27,9,34,26","w":407},"]":{"d":"148,-682r0,704v0,46,-59,35,-104,36v-24,0,-31,-18,-31,-30v0,-12,7,-30,31,-30r32,0r0,-656r-32,0v-24,0,-31,-18,-31,-30v0,-12,7,-30,31,-30v45,1,104,-10,104,36","w":222},"^":{"d":"57,-316r211,-380v19,-32,46,-32,64,0r211,380v20,26,5,56,-24,54v-20,-1,-29,-13,-41,-35r-178,-323r-178,323v-12,22,-21,34,-41,35v-29,2,-40,-26,-24,-54","w":600},"_":{"d":"500,125r-500,0v-16,0,-29,-9,-29,-25v0,-16,13,-25,29,-25r500,0v16,0,29,9,29,25v0,16,-13,25,-29,25","w":500},"a":{"d":"418,-459v-2,-39,1,-79,36,-79v23,0,36,16,36,46r0,452v0,30,-13,46,-36,46v-35,0,-38,-40,-36,-79r-3,0v-32,52,-85,79,-147,79v-153,0,-229,-122,-229,-272v0,-134,73,-272,227,-272v62,0,108,26,149,79r3,0xm117,-266v0,97,39,212,151,212v112,0,150,-115,150,-212v0,-97,-38,-212,-150,-212v-109,0,-151,115,-151,212","w":556},"b":{"d":"66,-40r0,-686v0,-30,13,-46,36,-46v23,0,36,16,36,46r0,267r3,0v41,-53,87,-79,149,-79v154,0,227,138,227,272v0,150,-76,272,-229,272v-62,0,-115,-27,-147,-79r-3,0v2,39,-1,79,-36,79v-23,0,-36,-16,-36,-46xm137,-266v0,97,39,212,151,212v112,0,151,-115,151,-212v0,-97,-39,-212,-151,-212v-112,0,-151,115,-151,212","w":556},"c":{"d":"268,-60v65,0,88,-28,108,-28v13,0,30,12,30,29v0,44,-67,65,-138,65v-312,0,-297,-544,9,-544v68,0,132,26,132,56v0,23,-12,40,-40,40v-19,0,-36,-30,-101,-30v-210,0,-190,412,0,412","w":444},"d":{"d":"418,-459r0,-267v0,-30,13,-46,36,-46v23,0,36,16,36,46r0,686v0,30,-13,46,-36,46v-35,0,-38,-40,-36,-79r-3,0v-32,52,-85,79,-147,79v-153,0,-229,-122,-229,-272v0,-134,73,-272,227,-272v62,0,108,26,149,79r3,0xm117,-266v0,97,39,212,151,212v112,0,150,-115,150,-212v0,-97,-38,-212,-150,-212v-109,0,-151,115,-151,212","w":556},"e":{"d":"446,-234r-329,0v3,93,66,180,158,180v114,0,144,-82,178,-82v20,0,34,7,34,35v0,32,-83,107,-207,107v-170,0,-241,-138,-241,-272v0,-134,79,-272,229,-272v150,0,227,126,227,260v0,19,-6,44,-49,44xm117,-294r300,0v-3,-89,-53,-184,-150,-184v-97,0,-147,95,-150,184","w":519},"f":{"d":"156,-472r0,432v0,30,-13,46,-36,46v-23,0,-36,-16,-36,-46r0,-432r-47,0v-24,0,-31,-18,-31,-30v0,-12,7,-30,31,-30r47,0r0,-137v3,-87,52,-103,132,-103v34,0,49,15,49,33v0,30,-35,33,-71,33v-23,0,-38,15,-38,33r0,141r64,0v24,0,31,18,31,30v0,12,-7,30,-31,30r-64,0","w":241},"g":{"d":"418,-460v-2,-39,1,-78,36,-78v23,0,36,16,36,46r0,467v0,165,-115,241,-232,241v-106,0,-204,-60,-204,-96v0,-21,11,-37,36,-37v29,0,77,67,161,67v85,0,167,-49,167,-169v0,-18,4,-42,-2,-56v-31,54,-84,81,-148,81v-153,0,-229,-122,-229,-272v0,-134,73,-272,227,-272v65,0,118,38,152,78xm117,-266v0,97,39,212,151,212v97,0,151,-87,151,-161r0,-102v0,-75,-54,-161,-151,-161v-112,0,-151,115,-151,212","w":556},"h":{"d":"138,-333r0,293v0,30,-13,46,-36,46v-23,0,-36,-16,-36,-46r0,-686v0,-30,13,-46,36,-46v23,0,36,16,36,46r0,260r2,0v27,-39,71,-72,139,-72v94,0,191,63,191,190r0,308v0,30,-13,46,-36,46v-23,0,-36,-16,-36,-46r0,-310v0,-74,-50,-122,-130,-122v-67,0,-130,48,-130,139"},"i":{"d":"138,-492r0,452v0,30,-13,46,-36,46v-23,0,-36,-16,-36,-46r0,-452v0,-30,13,-46,36,-46v23,0,36,16,36,46xm53,-669v0,-27,22,-49,49,-49v27,0,49,22,49,49v0,27,-22,49,-49,49v-27,0,-49,-22,-49,-49","w":204},"j":{"d":"138,-491r0,661v0,30,-13,46,-36,46v-23,0,-36,-16,-36,-46r0,-661v0,-31,13,-47,36,-47v23,0,36,16,36,47xm53,-669v0,-27,22,-49,49,-49v27,0,49,22,49,49v0,27,-22,49,-49,49v-27,0,-49,-22,-49,-49","w":204},"k":{"d":"138,-254r0,214v0,30,-13,46,-36,46v-23,0,-36,-16,-36,-46r0,-686v0,-30,13,-46,36,-46v23,0,36,16,36,46r0,382r215,-174v18,-15,27,-20,37,-20v36,1,39,53,9,68r-216,167r239,233v19,18,27,30,27,46v0,17,-14,30,-29,30v-22,0,-35,-11,-64,-40","w":444},"l":{"d":"138,-726r0,686v0,30,-13,46,-36,46v-23,0,-36,-16,-36,-46r0,-686v0,-30,13,-46,36,-46v23,0,36,16,36,46","w":204},"m":{"d":"452,-333r0,293v0,30,-13,46,-36,46v-23,0,-36,-16,-36,-46r0,-293v0,-117,-64,-139,-120,-139v-58,0,-122,48,-122,139r0,293v0,30,-13,46,-36,46v-23,0,-36,-16,-36,-46r0,-452v0,-30,13,-46,36,-46v35,0,35,40,38,72v27,-39,71,-72,139,-72v62,0,116,35,140,93v90,-156,347,-111,347,97r0,308v0,30,-13,46,-36,46v-23,0,-36,-16,-36,-46r0,-293v0,-117,-64,-139,-120,-139v-58,0,-122,48,-122,139","w":832},"n":{"d":"138,-333r0,293v0,30,-13,46,-36,46v-23,0,-36,-16,-36,-46r0,-452v0,-30,13,-46,36,-46v35,0,35,40,38,72v27,-39,71,-72,139,-72v94,0,191,63,191,190r0,308v0,30,-13,46,-36,46v-23,0,-36,-16,-36,-46r0,-310v0,-74,-50,-122,-130,-122v-67,0,-130,48,-130,139"},"o":{"d":"117,-266v0,97,39,212,151,212v112,0,151,-115,151,-212v0,-97,-39,-212,-151,-212v-112,0,-151,115,-151,212xm497,-266v0,150,-76,272,-229,272v-153,0,-229,-122,-229,-272v0,-134,73,-272,229,-272v157,0,229,138,229,272"},"p":{"d":"66,170r0,-662v0,-30,13,-46,36,-46v35,0,38,40,36,79r3,0v32,-52,85,-79,147,-79v153,0,229,122,229,272v0,134,-73,272,-227,272v-62,0,-108,-26,-149,-79r-3,0r0,243v0,30,-13,46,-36,46v-23,0,-36,-16,-36,-46xm137,-266v0,97,39,212,151,212v112,0,151,-115,151,-212v0,-97,-39,-212,-151,-212v-112,0,-151,115,-151,212","w":556},"q":{"d":"39,-266v0,-150,76,-272,229,-272v62,0,115,27,147,79r3,0v-2,-39,1,-79,36,-79v23,0,36,16,36,46r0,662v0,30,-13,46,-36,46v-23,0,-36,-16,-36,-46r0,-243r-3,0v-41,53,-87,79,-149,79v-154,0,-227,-138,-227,-272xm419,-266v0,-97,-39,-212,-151,-212v-112,0,-151,115,-151,212v0,97,39,212,151,212v112,0,151,-115,151,-212","w":556},"r":{"d":"138,-299r0,259v0,30,-13,46,-36,46v-23,0,-36,-16,-36,-46r0,-452v0,-30,13,-46,36,-46v44,0,32,59,38,96v26,-59,72,-96,117,-96v34,0,48,19,48,39v0,20,-14,31,-49,39v-40,9,-118,43,-118,161","w":315},"s":{"d":"211,-538v104,0,190,44,188,82v0,16,-6,35,-36,35v-28,0,-65,-57,-137,-57v-50,0,-104,24,-104,75v0,24,14,47,49,63v96,43,241,64,242,192v0,94,-84,154,-196,154v-116,0,-192,-67,-192,-101v0,-11,16,-35,34,-35v34,0,67,76,161,76v69,0,115,-41,115,-91v0,-47,-36,-64,-74,-82v-84,-41,-216,-52,-217,-171v0,-87,86,-140,167,-140","w":444},"t":{"d":"156,-472r0,432v0,30,-13,46,-36,46v-23,0,-36,-16,-36,-46r0,-432r-47,0v-24,0,-31,-18,-31,-30v0,-12,7,-30,31,-30r47,0v6,-58,-22,-164,36,-164v58,0,30,107,36,164r47,0v24,0,31,18,31,30v0,12,-7,30,-31,30r-47,0","w":240},"u":{"d":"66,-175r0,-317v0,-30,13,-46,36,-46v23,0,36,16,36,46r0,299v0,91,49,139,130,139v81,0,130,-48,130,-139r0,-299v0,-30,13,-46,36,-46v23,0,36,16,36,46r0,317v0,115,-88,181,-202,181v-114,0,-202,-66,-202,-181"},"v":{"d":"214,-119r129,-386v6,-43,71,-42,71,0v0,6,-1,13,-4,21r-160,463v-16,38,-61,38,-74,0r-160,-463v-11,-26,1,-53,29,-54v20,0,31,12,38,33r129,386r2,0","w":426},"w":{"d":"206,-110r123,-395v11,-44,69,-43,82,0r123,395r2,0r124,-395v5,-43,74,-42,74,0v0,6,-2,14,-6,27r-152,452v-10,29,-31,32,-40,32v-19,0,-33,-9,-44,-45r-121,-387r-2,0r-125,400v-18,47,-66,43,-80,0r-152,-452v-13,-32,-5,-60,28,-60v22,0,33,12,40,33r124,395r2,0","w":740},"x":{"d":"231,-230r-150,211v-19,36,-68,32,-71,-8v0,-9,2,-16,13,-30r166,-227r-144,-191v-25,-26,-12,-63,19,-63v15,0,26,7,39,25r128,175r128,-175v19,-36,68,-32,71,8v0,9,-2,16,-13,30r-144,191r166,227v25,26,12,63,-19,63v-15,0,-26,-7,-39,-25","w":462},"y":{"d":"179,-14r-163,-470v-11,-26,1,-53,29,-54v20,0,31,12,38,33r129,386r2,0r129,-386v6,-43,71,-42,71,0v0,6,-1,13,-4,21r-230,664v-5,46,-70,45,-72,6v15,-74,49,-133,71,-200","w":426},"z":{"d":"388,-461r-267,395r258,0v23,0,38,15,38,33v0,18,-15,33,-38,33r-309,0v-61,-5,-45,-41,-26,-71r267,-395r-234,0v-23,0,-38,-15,-38,-33v0,-18,15,-33,38,-33r287,0v55,-1,43,42,24,71","w":444},"{":{"d":"29,-357v84,0,64,-159,66,-253v1,-98,47,-108,127,-108v24,0,32,16,32,27v0,18,-24,32,-53,27v-61,9,-40,120,-40,187v0,103,-63,137,-79,148v18,6,79,46,79,146r0,110v0,46,9,77,61,77v24,0,32,16,32,27v4,21,-31,27,-61,27v-59,0,-98,-23,-98,-108v0,-95,18,-253,-66,-253v-13,0,-25,-12,-25,-27v0,-15,12,-27,25,-27","w":258},"|":{"d":"78,250r0,-1000v0,-23,15,-38,33,-38v18,0,33,15,33,38r0,1000v0,23,-15,38,-33,38v-18,0,-33,-15,-33,-38","w":222},"}":{"d":"97,-477r0,-110v0,-46,-9,-77,-61,-77v-24,0,-32,-16,-32,-27v-4,-21,31,-27,61,-27v59,0,98,23,98,108v0,95,-18,253,66,253v13,0,25,12,25,27v0,15,-12,27,-25,27v-84,0,-64,159,-66,253v-1,98,-47,108,-127,108v-24,0,-32,-16,-32,-27v0,-18,24,-32,53,-27v61,-9,40,-120,40,-187v0,-103,63,-137,79,-148v-18,-6,-79,-46,-79,-146","w":258},"~":{"d":"204,-326v75,-1,126,75,196,75v60,0,55,-71,100,-75v16,-2,31,9,31,31v0,50,-60,110,-135,110v-75,1,-125,-75,-196,-75v-60,0,-55,71,-100,75v-16,2,-31,-9,-31,-31v0,-50,60,-110,135,-110","w":600},"'":{"d":"60,-548r0,-132v0,-23,15,-38,33,-38v18,0,33,15,33,38r0,132v0,23,-15,38,-33,38v-18,0,-33,-15,-33,-38","w":186},"`":{"d":"184,-602v-58,-12,-110,-41,-164,-59v-28,-10,-28,-23,-28,-33v1,-26,23,-40,54,-28r138,53v28,10,28,23,28,33v0,15,-11,34,-28,34","w":204},"\u00a0":{"w":240}}});
