/*!
 * The following copyright notice may not be removed under any circumstances.
 * 
 * Copyright:
 *  The digitally encoded machine readable software for producing the Typefaces
 * licensed to you is copyrighted (c) 1989, 1995 Adobe Systems. All Rights
 * Reserved. This software is the property of Adobe Systems Incorporated and its
 * licensors, and may not be reproduced, used,  displayed, modified, disclosed or
 * transferred without the express  written approval of Adobe.  The digitally
 * encoded machine readable outline data for producing the Typefaces licensed to
 * you is copyrighted (c) 1981 Linotype-Hell AG and/or its subsidiaries. All
 * Rights Reserved. This data is the property of Linotype-Hell AG and/or its
 * subsidiaries and may not be reproduced, used, displayed, modified, disclosed or
 *  transferred without the express written approval of Linotype-Hell AG  and/or
 * its subsidiaries.
 */
Cufon.registerFont({"w":204,"face":{"font-family":"VAGRounded-Thin","font-weight":100,"font-stretch":"normal","units-per-em":"1000","panose-1":"2 0 2 3 0 0 0 0 0 0","ascent":"800","descent":"-200","x-height":"6","cap-height":"6","bbox":"-109.552 -922 1053 288","underline-thickness":"50","underline-position":"-100","stemh":"66","stemv":"72","unicode-range":"U+0020-U+FB02"},"glyphs":{" ":{"w":240},"!":{"d":"93,-40v0,-24,22,-46,46,-46v24,0,46,22,46,46v0,25,-22,46,-46,46v-24,0,-46,-21,-46,-46xm103,-248r0,-424v0,-30,13,-46,36,-46v23,0,36,16,36,46r0,424v0,30,-13,46,-36,46v-23,0,-36,-16,-36,-46","w":278},"\"":{"d":"60,-548r0,-132v0,-23,15,-38,33,-38v18,0,33,15,33,38r0,132v0,23,-15,38,-33,38v-18,0,-33,-15,-33,-38xm189,-548r0,-132v0,-23,15,-38,33,-38v18,0,33,15,33,38r0,132v0,23,-15,38,-33,38v-18,0,-33,-15,-33,-38","w":315},"#":{"d":"182,-216r-26,186v4,42,-62,48,-60,8v4,-65,18,-130,25,-194v-41,-1,-102,9,-102,-30v0,-42,68,-27,111,-30r23,-160v-41,-2,-103,10,-103,-30v0,-41,68,-28,111,-30r26,-186v-4,-42,62,-48,60,-8v-4,65,-18,130,-25,194r132,0r26,-186v-4,-42,62,-48,60,-8v-4,65,-18,130,-25,194v41,1,102,-9,102,30v0,42,-68,27,-111,30r-23,160v41,2,103,-10,103,30v0,41,-68,28,-111,30r-26,186v4,42,-62,48,-60,8v4,-65,18,-130,25,-194r-132,0xm324,-276r22,-160r-133,0r-22,160r133,0","w":536},"$":{"d":"245,-343r0,281v76,-13,126,-83,126,-153v0,-76,-58,-104,-126,-128xm209,-433r0,-217v-71,10,-104,52,-104,105v0,61,46,90,104,112xm209,-60r0,-296v-87,-30,-176,-64,-176,-183v0,-104,80,-167,176,-177v2,-25,-9,-67,18,-67v26,0,16,40,18,65v76,2,156,40,156,79v0,16,-9,33,-30,33v-28,0,-45,-44,-126,-46r0,234v93,35,198,70,198,195v0,122,-81,216,-198,227v-2,25,9,67,-18,67v-26,0,-16,-40,-18,-65v-115,-2,-189,-47,-189,-88v0,-12,10,-30,32,-30v39,0,55,52,157,52","w":463},"%":{"d":"194,-372v-82,0,-154,-69,-154,-169v0,-108,75,-177,154,-177v79,0,154,69,154,177v0,100,-72,169,-154,169xm194,-420v66,0,94,-64,94,-121v0,-74,-35,-129,-94,-129v-59,0,-94,55,-94,129v0,57,28,121,94,121xm547,6v-82,0,-154,-69,-154,-169v0,-108,75,-177,154,-177v79,0,154,69,154,177v0,100,-72,169,-154,169xm547,-42v66,0,94,-64,94,-121v0,-74,-35,-129,-94,-129v-59,0,-94,55,-94,129v0,57,28,121,94,121xm215,-38r260,-665v4,-31,58,-33,59,-2v0,8,-3,16,-9,31r-260,665v-4,31,-58,33,-59,2v0,-8,3,-16,9,-31","w":741},"&":{"d":"314,-423r176,203v36,-39,78,-140,109,-140v20,0,32,13,32,32v0,13,-20,60,-99,159r92,103v32,28,14,69,-20,69v-12,0,-18,-5,-33,-23r-80,-92v-53,64,-130,118,-217,118v-147,0,-233,-87,-233,-214v0,-100,68,-172,170,-231v-63,-69,-82,-102,-82,-145v0,-75,53,-134,157,-134v85,0,158,44,158,130v0,80,-69,128,-130,165xm372,-584v0,-45,-37,-74,-90,-74v-39,0,-81,16,-81,74v0,34,39,76,69,110v77,-44,102,-70,102,-110xm445,-165r-194,-223v-80,40,-132,105,-132,177v0,91,61,151,152,151v54,0,124,-30,174,-105","w":667},"\u2019":{"d":"26,-541v11,-58,47,-103,65,-156v12,-34,75,-20,69,10v-11,58,-47,103,-65,156v-12,34,-75,20,-69,-10","w":186},"(":{"d":"133,-614v-36,190,-35,378,0,568v13,70,29,83,28,102v-1,15,-11,24,-29,24v-23,0,-37,-21,-48,-64v-58,-223,-58,-469,0,-692v11,-43,25,-64,48,-64v18,0,28,9,29,24v1,19,-15,32,-28,102"},")":{"d":"71,-46v36,-190,35,-378,0,-568v-13,-70,-29,-83,-28,-102v1,-15,11,-24,29,-24v23,0,37,21,48,64v58,223,58,469,0,692v-11,43,-25,64,-48,64v-18,0,-28,-9,-29,-24v-1,-19,15,-32,28,-102"},"*":{"d":"160,-540r-91,-41v-39,-11,-39,-58,2,-59v40,10,74,50,107,71r-14,-116v0,-19,11,-33,30,-33v19,0,30,14,30,33v0,13,-10,90,-14,116v33,-22,67,-60,107,-71v20,0,31,9,31,29v0,11,-10,21,-29,30r-91,41r91,41v39,11,39,58,-2,59v-40,-10,-74,-50,-107,-71r14,116v0,19,-11,33,-30,33v-19,0,-30,-14,-30,-33v0,-13,10,-90,14,-116v-33,22,-67,60,-107,71v-20,0,-31,-9,-31,-29v0,-11,10,-21,29,-30","w":388},"+":{"d":"267,-286r0,-182v0,-23,15,-38,33,-38v18,0,33,15,33,38r0,182r182,0v23,0,38,15,38,33v0,18,-15,33,-38,33r-182,0r0,182v0,23,-15,38,-33,38v-18,0,-33,-15,-33,-38r0,-182r-182,0v-23,0,-38,-15,-38,-33v0,-18,15,-33,38,-33r182,0","w":600},",":{"d":"32,91v11,-58,47,-103,65,-156v12,-34,75,-20,69,10v-11,58,-47,103,-65,156v-12,34,-75,20,-69,-10","w":240},"-":{"d":"79,-299r194,0v23,0,38,15,38,33v0,18,-15,33,-38,33r-194,0v-23,0,-38,-15,-38,-33v0,-18,15,-33,38,-33","w":352},".":{"d":"74,-40v0,-25,21,-46,46,-46v25,0,46,21,46,46v0,25,-21,46,-46,46v-25,0,-46,-21,-46,-46","w":240},"\/":{"d":"47,-47r255,-645v5,-34,65,-34,65,0v0,7,-3,17,-7,27r-255,645v-5,34,-65,34,-65,0v0,-7,3,-17,7,-27","w":407},"0":{"d":"268,6v-100,0,-227,-91,-227,-362v0,-271,127,-362,227,-362v100,0,227,91,227,362v0,271,-127,362,-227,362xm268,-652v-101,0,-149,126,-149,296v0,170,48,296,149,296v101,0,149,-126,149,-296v0,-170,-48,-296,-149,-296","w":536},"1":{"d":"176,-646v-48,-3,-129,15,-129,-33v0,-56,107,-33,163,-33v23,0,38,15,38,33r0,639v0,30,-13,46,-36,46v-23,0,-36,-16,-36,-46r0,-606","w":352},"2":{"d":"165,-66r274,0v23,0,38,15,38,33v0,18,-15,33,-38,33r-333,0v-53,-6,-44,-37,-19,-72r231,-319v43,-59,61,-107,61,-139v0,-88,-44,-122,-114,-122v-85,0,-134,57,-134,164v0,24,-15,36,-35,36v-23,0,-37,-12,-37,-48v0,-122,84,-218,209,-218v113,0,189,68,189,182v0,48,-18,96,-68,164","w":536},"3":{"d":"351,-535v0,-40,-21,-117,-101,-117v-62,0,-98,40,-98,112v0,20,-16,36,-36,36v-20,0,-36,-16,-36,-36v0,-94,68,-178,170,-178v104,0,179,76,179,179v0,70,-31,126,-81,159v70,23,120,90,120,169v0,125,-94,217,-218,217v-129,0,-199,-106,-199,-156v0,-46,49,-57,66,-15v8,21,37,105,133,105v85,0,140,-61,140,-138v0,-102,-65,-128,-101,-134v-69,-11,-71,-23,-71,-40v0,-17,9,-30,42,-35v57,-8,91,-54,91,-128","w":536},"4":{"d":"355,-40r0,-151r-286,0v-62,-7,-35,-46,-10,-88r237,-394v14,-24,37,-45,72,-45v37,0,59,23,59,59r0,402v37,-3,77,0,77,33v0,32,-40,36,-77,33r0,151v0,30,-13,46,-36,46v-23,0,-36,-16,-36,-46xm355,-257r0,-401r-2,0r-230,401r232,0","w":536},"5":{"d":"118,-388r42,-278v5,-29,13,-46,43,-46r214,0v23,0,38,15,38,33v0,18,-15,33,-38,33r-189,0r-32,206v137,-60,272,46,272,194v0,153,-92,252,-221,252v-114,0,-197,-79,-197,-109v0,-12,11,-36,35,-36v30,0,55,79,161,79v90,0,144,-78,144,-177v0,-93,-54,-154,-141,-154v-51,0,-72,30,-104,30v-13,0,-29,-11,-27,-27","w":536},"6":{"d":"271,6v-156,0,-210,-141,-210,-237v0,-189,115,-357,238,-477v28,-27,70,-27,70,18v0,32,-91,59,-191,259v31,-16,67,-28,105,-28v118,0,192,89,192,228v0,110,-63,237,-204,237xm265,-60v72,0,132,-55,132,-165v0,-104,-51,-174,-130,-174v-86,0,-128,62,-128,174v0,81,39,165,126,165","w":536},"7":{"d":"440,-646r-265,626v-10,24,-25,26,-37,26v-38,0,-37,-29,-21,-66r248,-586r-298,0v-23,0,-38,-15,-38,-33v0,-18,15,-33,38,-33r350,0v50,-1,35,36,23,66","w":481},"8":{"d":"268,-364v-84,0,-129,72,-129,148v0,72,43,156,129,156v170,0,173,-304,0,-304xm268,6v-134,0,-207,-103,-207,-216v0,-91,50,-160,122,-185v-54,-33,-94,-89,-94,-158v0,-86,75,-165,179,-165v104,0,179,79,179,165v0,71,-43,123,-94,160v76,20,122,94,122,183v0,113,-73,216,-207,216xm268,-430v73,0,107,-51,107,-114v0,-61,-45,-108,-107,-108v-65,0,-107,47,-107,106v0,65,34,116,107,116","w":536},"9":{"d":"265,-718v156,0,210,141,210,237v0,189,-115,357,-238,477v-28,27,-70,27,-70,-18v0,-32,91,-59,191,-259v-31,16,-67,28,-105,28v-118,0,-192,-89,-192,-228v0,-110,63,-237,204,-237xm271,-652v-72,0,-132,55,-132,165v0,104,51,174,130,174v86,0,128,-62,128,-174v0,-81,-39,-165,-126,-165","w":536},":":{"d":"74,-378v0,-25,21,-46,46,-46v25,0,46,21,46,46v0,25,-21,46,-46,46v-25,0,-46,-21,-46,-46xm74,-40v0,-25,21,-46,46,-46v25,0,46,21,46,46v0,25,-21,46,-46,46v-25,0,-46,-21,-46,-46","w":240},";":{"d":"32,91v11,-58,47,-103,65,-156v12,-34,75,-20,69,10v-11,58,-47,103,-65,156v-12,34,-75,20,-69,-10xm166,-378v0,24,-22,46,-46,46v-24,0,-46,-22,-46,-46v0,-24,22,-46,46,-46v24,0,46,22,46,46","w":240},"<":{"d":"138,-253r394,192v22,11,31,19,31,36v0,34,-33,35,-60,22r-439,-215v-39,-23,-40,-50,0,-70r439,-215v23,-16,60,-10,60,16v0,21,-13,33,-34,43","w":600},"=":{"d":"85,-386r430,0v23,0,38,15,38,33v0,18,-15,33,-38,33r-430,0v-23,0,-38,-15,-38,-33v0,-18,15,-33,38,-33xm85,-186r430,0v23,0,38,15,38,33v0,18,-15,33,-38,33r-430,0v-23,0,-38,-15,-38,-33v0,-18,15,-33,38,-33","w":600},">":{"d":"462,-253r-391,-191v-21,-10,-34,-22,-34,-43v1,-26,35,-28,60,-16r439,215v39,23,40,50,0,70r-439,215v-26,16,-59,12,-60,-22v0,-17,9,-25,31,-36","w":600},"?":{"d":"211,-200v-60,0,-36,-114,-36,-173v0,-26,4,-35,39,-42v85,-17,125,-63,125,-125v-1,-139,-209,-147,-240,-33v-2,59,-72,50,-72,3v0,-88,90,-148,191,-148v117,0,199,72,199,176v0,122,-81,168,-170,190v-5,55,20,152,-36,152xm165,-40v0,-25,21,-46,46,-46v25,0,46,21,46,46v0,25,-21,46,-46,46v-25,0,-46,-21,-46,-46","w":444},"@":{"d":"262,-297v0,54,29,92,81,92v89,0,156,-139,156,-206v0,-55,-25,-89,-81,-89v-90,0,-156,118,-156,203xm530,-488v8,-23,20,-64,48,-60v28,4,33,17,23,47v-30,92,-82,176,-82,278v0,18,10,30,27,30v80,0,156,-119,156,-222v0,-154,-130,-249,-290,-249v-181,0,-314,140,-314,311v0,172,142,305,306,305v203,0,250,-117,285,-117v15,0,22,10,22,22v0,32,-126,149,-303,149v-205,0,-370,-161,-370,-364v0,-200,170,-360,373,-360v196,0,351,123,351,298v0,167,-151,281,-235,281v-47,0,-69,-25,-82,-63v-25,31,-56,63,-121,63v-91,0,-140,-69,-140,-153v0,-132,93,-274,228,-274v46,0,94,24,118,78","w":800},"A":{"d":"133,-155r-47,128v-9,18,-15,33,-40,33v-36,-1,-35,-30,-25,-58r229,-614v9,-23,20,-52,56,-52v36,0,47,29,56,52r229,614v12,27,11,57,-25,58v-25,0,-33,-15,-40,-33r-47,-128r-346,0xm455,-221r-148,-403r-2,0r-148,403r298,0","w":612},"B":{"d":"66,-38r0,-636v0,-25,12,-38,44,-38r129,0v155,0,206,98,206,178v0,86,-44,122,-101,151v98,16,156,78,156,179v0,107,-69,204,-226,204r-164,0v-32,0,-44,-13,-44,-38xm138,-646r0,239r105,0v74,0,130,-52,130,-124v0,-58,-44,-115,-128,-115r-107,0xm138,-347r0,281r128,0v101,0,162,-48,162,-140v0,-83,-65,-141,-163,-141r-127,0","w":537},"C":{"d":"350,-718v120,0,216,72,216,107v0,25,-17,38,-32,38v-30,0,-67,-79,-185,-79v-150,0,-231,161,-231,306v0,147,72,286,244,286v125,0,163,-70,189,-70v18,0,30,11,30,36v0,31,-92,100,-223,100v-218,0,-318,-162,-318,-352v0,-187,100,-372,310,-372","w":593},"D":{"d":"66,-38r0,-636v0,-25,12,-38,44,-38r178,0v216,0,302,195,302,361v0,219,-135,351,-308,351r-172,0v-32,0,-44,-13,-44,-38xm138,-646r0,580r140,0v173,0,234,-131,234,-298v0,-136,-60,-282,-230,-282r-144,0","w":630},"E":{"d":"138,-322r0,256r218,0v23,0,38,15,38,33v0,18,-15,33,-38,33r-246,0v-32,0,-44,-13,-44,-38r0,-636v0,-25,12,-38,44,-38r236,0v23,0,38,15,38,33v0,18,-15,33,-38,33r-207,0r0,258r198,0v23,0,38,15,38,33v0,18,-15,33,-38,33r-199,0","w":444},"F":{"d":"138,-322r0,282v0,30,-13,46,-36,46v-23,0,-36,-16,-36,-46r0,-636v0,-20,16,-36,36,-36r253,0v23,0,38,15,38,33v0,18,-15,33,-38,33r-217,0r0,258r192,0v23,0,38,15,38,33v0,18,-15,33,-38,33r-192,0","w":407},"G":{"d":"444,-401r137,0v50,0,61,26,61,55v0,276,-134,352,-290,352v-222,0,-312,-179,-312,-362v0,-177,100,-362,310,-362v140,0,243,79,243,109v0,26,-17,38,-35,38v-33,0,-82,-81,-204,-81v-166,0,-236,159,-236,296v0,161,77,296,240,296v155,0,212,-132,212,-275r-126,0v-23,0,-38,-15,-38,-33v0,-18,15,-33,38,-33","w":667},"H":{"d":"138,-332r0,292v0,30,-13,46,-36,46v-23,0,-36,-16,-36,-46r0,-632v0,-30,13,-46,36,-46v23,0,36,16,36,46r0,274r391,0r0,-274v0,-30,13,-46,36,-46v23,0,36,16,36,46r0,632v0,30,-13,46,-36,46v-23,0,-36,-16,-36,-46r0,-292r-391,0","w":667},"I":{"d":"138,-672r0,632v0,30,-13,46,-36,46v-23,0,-36,-16,-36,-46r0,-632v0,-30,13,-46,36,-46v23,0,36,16,36,46"},"J":{"d":"286,-672r0,508v0,104,-61,170,-157,170v-84,0,-146,-44,-146,-71v0,-20,12,-32,28,-32v26,0,41,43,115,43v71,0,88,-49,88,-110r0,-508v0,-30,13,-46,36,-46v23,0,36,16,36,46","w":352},"K":{"d":"138,-345r0,305v0,30,-13,46,-36,46v-23,0,-36,-16,-36,-46r0,-632v0,-30,13,-46,36,-46v23,0,36,16,36,46r0,265r319,-287v22,-31,72,-32,75,6v0,11,-2,19,-16,31r-312,280r336,320v25,22,21,63,-16,63v-16,0,-29,-10,-43,-24","w":556},"L":{"d":"138,-672r0,606r188,0v23,0,38,15,38,33v0,18,-15,33,-38,33r-224,0v-20,0,-36,-16,-36,-36r0,-636v0,-30,13,-46,36,-46v23,0,36,16,36,46","w":370},"M":{"d":"417,-119r162,-552v13,-67,114,-64,126,9r95,635v0,27,-19,33,-34,33v-26,0,-34,-17,-38,-43r-89,-603r-2,0r-178,598v-11,62,-64,62,-79,11r-183,-607r-2,0r-89,601v-4,26,-12,43,-38,43v-15,0,-38,-6,-34,-33r95,-635v12,-75,109,-74,128,-9r158,552r2,0","w":834},"N":{"d":"138,-586r0,546v0,30,-13,46,-36,46v-23,0,-36,-16,-36,-46r0,-636v-1,-55,57,-47,78,-16r382,559r2,0r0,-539v0,-30,13,-46,36,-46v23,0,36,16,36,46r0,634v1,60,-51,50,-73,18r-387,-566r-2,0","w":666},"O":{"d":"40,-356v0,-181,101,-362,302,-362v201,0,302,181,302,362v0,181,-101,362,-302,362v-201,0,-302,-181,-302,-362xm342,-60v167,0,224,-162,224,-296v0,-134,-57,-296,-224,-296v-167,0,-224,162,-224,296v0,134,57,296,224,296","w":684},"P":{"d":"138,-272r0,232v0,30,-13,46,-36,46v-23,0,-36,-16,-36,-46r0,-634v0,-24,11,-38,45,-38r171,0v162,0,220,126,220,214v0,118,-74,226,-238,226r-126,0xm138,-646r0,308r132,0v114,0,160,-82,160,-154v0,-72,-46,-154,-160,-154r-132,0","w":519},"Q":{"d":"585,-130r74,77v26,22,16,57,-16,59v-12,0,-20,-4,-31,-16r-66,-70v-49,53,-117,86,-204,86v-201,0,-302,-181,-302,-362v0,-181,101,-362,302,-362v286,0,374,367,243,588xm500,-128v-24,-31,-66,-55,-79,-95v1,-29,41,-39,64,-14r49,52v72,-186,34,-473,-192,-473v-167,0,-224,162,-224,302v0,140,57,302,224,302v72,0,124,-30,158,-74","w":684},"R":{"d":"138,-316r0,276v0,30,-13,46,-36,46v-23,0,-36,-16,-36,-46r0,-634v0,-24,11,-38,45,-38r157,0v140,0,215,94,215,193v0,114,-76,201,-190,201r-66,0r246,263v26,19,13,62,-18,61v-12,0,-21,-4,-32,-16xm138,-646r0,268r125,0v94,0,148,-44,148,-128v0,-93,-51,-140,-148,-140r-125,0","w":519},"S":{"d":"54,-114v43,15,69,54,152,54v100,0,164,-80,164,-155v0,-171,-338,-105,-338,-321v0,-115,98,-182,206,-182v78,0,162,44,162,78v0,22,-17,38,-30,38v-37,0,-61,-50,-137,-50v-75,0,-129,52,-129,111v0,157,338,93,338,321v0,129,-89,226,-226,226v-118,0,-196,-46,-196,-85v0,-19,15,-35,34,-35","w":462},"T":{"d":"249,-646r0,606v0,30,-13,46,-36,46v-23,0,-36,-16,-36,-46r0,-606r-138,0v-23,0,-38,-15,-38,-33v0,-18,15,-33,38,-33r348,0v23,0,38,15,38,33v0,18,-15,33,-38,33r-138,0","w":426},"U":{"d":"66,-242r0,-430v0,-30,13,-46,36,-46v23,0,36,16,36,46r0,421v0,131,95,191,195,191v100,0,195,-60,195,-191r0,-421v0,-30,13,-46,36,-46v23,0,36,16,36,46r0,430v0,164,-129,248,-267,248v-138,0,-267,-84,-267,-248","w":666},"V":{"d":"279,-113r196,-575v6,-42,72,-38,71,4v0,8,-4,23,-14,50r-211,596v-7,20,-18,44,-43,44v-25,0,-36,-24,-43,-44r-211,-596v-10,-27,-14,-42,-14,-50v0,-20,14,-34,36,-34v18,0,29,11,35,30r196,575r2,0","w":556},"W":{"d":"198,-78r172,-606v5,-17,14,-34,38,-34v24,0,33,17,38,34r172,606r2,0r96,-604v5,-29,22,-36,39,-36v51,0,32,42,21,104r-105,580v-12,53,-92,54,-107,0r-155,-571r-2,0r-159,571v-12,55,-98,53,-107,0r-113,-654v4,-42,64,-42,72,6r96,604r2,0","w":816},"X":{"d":"297,-439r174,-253v13,-36,72,-33,72,2v0,10,-4,18,-14,33r-192,275r231,327v24,28,16,61,-20,61v-18,0,-26,-8,-38,-26r-213,-304r-213,304v-13,36,-72,33,-72,-2v0,-10,4,-18,14,-33r231,-327r-192,-275v-24,-28,-16,-61,20,-61v18,0,26,8,38,26","w":594},"Y":{"d":"241,-407r174,-290v12,-31,67,-26,66,7v0,9,-4,20,-22,50r-182,303r0,297v0,30,-13,46,-36,46v-23,0,-36,-16,-36,-46r0,-297r-182,-303v-18,-30,-22,-41,-22,-50v-2,-33,49,-36,66,-7","w":482},"Z":{"d":"118,-66r372,0v23,0,38,15,38,33v0,18,-15,33,-38,33r-402,0v-79,-8,-68,-46,-31,-102r357,-544r-334,0v-23,0,-38,-15,-38,-33v0,-18,15,-33,38,-33r401,0v45,3,38,36,20,63","w":556},"[":{"d":"74,22r0,-704v0,-46,59,-35,104,-36v24,0,31,18,31,30v0,12,-7,30,-31,30r-32,0r0,656r32,0v24,0,31,18,31,30v0,12,-7,30,-31,30v-45,-1,-104,10,-104,-36","w":222},"\\":{"d":"105,-692r255,645v13,26,9,52,-24,53v-19,0,-27,-9,-34,-26r-255,-645v-13,-26,-9,-52,24,-53v19,0,27,9,34,26","w":407},"]":{"d":"148,-682r0,704v0,46,-59,35,-104,36v-24,0,-31,-18,-31,-30v0,-12,7,-30,31,-30r32,0r0,-656r-32,0v-24,0,-31,-18,-31,-30v0,-12,7,-30,31,-30v45,1,104,-10,104,36","w":222},"^":{"d":"57,-316r211,-380v19,-32,46,-32,64,0r211,380v20,26,5,56,-24,54v-20,-1,-29,-13,-41,-35r-178,-323r-178,323v-12,22,-21,34,-41,35v-29,2,-40,-26,-24,-54","w":600},"_":{"d":"500,125r-500,0v-16,0,-29,-9,-29,-25v0,-16,13,-25,29,-25r500,0v16,0,29,9,29,25v0,16,-13,25,-29,25","w":500},"\u2018":{"d":"26,-541v11,-58,47,-103,65,-156v12,-34,75,-20,69,10v-11,58,-47,103,-65,156v-12,34,-75,20,-69,-10","w":186},"a":{"d":"418,-459v-2,-39,1,-79,36,-79v23,0,36,16,36,46r0,452v0,30,-13,46,-36,46v-35,0,-38,-40,-36,-79r-3,0v-32,52,-85,79,-147,79v-153,0,-229,-122,-229,-272v0,-134,73,-272,227,-272v62,0,108,26,149,79r3,0xm117,-266v0,97,39,212,151,212v112,0,150,-115,150,-212v0,-97,-38,-212,-150,-212v-109,0,-151,115,-151,212","w":556},"b":{"d":"66,-40r0,-686v0,-30,13,-46,36,-46v23,0,36,16,36,46r0,267r3,0v41,-53,87,-79,149,-79v154,0,227,138,227,272v0,150,-76,272,-229,272v-62,0,-115,-27,-147,-79r-3,0v2,39,-1,79,-36,79v-23,0,-36,-16,-36,-46xm137,-266v0,97,39,212,151,212v112,0,151,-115,151,-212v0,-97,-39,-212,-151,-212v-112,0,-151,115,-151,212","w":556},"c":{"d":"268,-60v65,0,88,-28,108,-28v13,0,30,12,30,29v0,44,-67,65,-138,65v-312,0,-297,-544,9,-544v68,0,132,26,132,56v0,23,-12,40,-40,40v-19,0,-36,-30,-101,-30v-210,0,-190,412,0,412","w":444},"d":{"d":"418,-459r0,-267v0,-30,13,-46,36,-46v23,0,36,16,36,46r0,686v0,30,-13,46,-36,46v-35,0,-38,-40,-36,-79r-3,0v-32,52,-85,79,-147,79v-153,0,-229,-122,-229,-272v0,-134,73,-272,227,-272v62,0,108,26,149,79r3,0xm117,-266v0,97,39,212,151,212v112,0,150,-115,150,-212v0,-97,-38,-212,-150,-212v-109,0,-151,115,-151,212","w":556},"e":{"d":"446,-234r-329,0v3,93,66,180,158,180v114,0,144,-82,178,-82v20,0,34,7,34,35v0,32,-83,107,-207,107v-170,0,-241,-138,-241,-272v0,-134,79,-272,229,-272v150,0,227,126,227,260v0,19,-6,44,-49,44xm117,-294r300,0v-3,-89,-53,-184,-150,-184v-97,0,-147,95,-150,184","w":519},"f":{"d":"156,-472r0,432v0,30,-13,46,-36,46v-23,0,-36,-16,-36,-46r0,-432r-47,0v-24,0,-31,-18,-31,-30v0,-12,7,-30,31,-30r47,0r0,-137v3,-87,52,-103,132,-103v34,0,49,15,49,33v0,30,-35,33,-71,33v-23,0,-38,15,-38,33r0,141r64,0v24,0,31,18,31,30v0,12,-7,30,-31,30r-64,0","w":241},"g":{"d":"418,-460v-2,-39,1,-78,36,-78v23,0,36,16,36,46r0,467v0,165,-115,241,-232,241v-106,0,-204,-60,-204,-96v0,-21,11,-37,36,-37v29,0,77,67,161,67v85,0,167,-49,167,-169v0,-18,4,-42,-2,-56v-31,54,-84,81,-148,81v-153,0,-229,-122,-229,-272v0,-134,73,-272,227,-272v65,0,118,38,152,78xm117,-266v0,97,39,212,151,212v97,0,151,-87,151,-161r0,-102v0,-75,-54,-161,-151,-161v-112,0,-151,115,-151,212","w":556},"h":{"d":"138,-333r0,293v0,30,-13,46,-36,46v-23,0,-36,-16,-36,-46r0,-686v0,-30,13,-46,36,-46v23,0,36,16,36,46r0,260r2,0v27,-39,71,-72,139,-72v94,0,191,63,191,190r0,308v0,30,-13,46,-36,46v-23,0,-36,-16,-36,-46r0,-310v0,-74,-50,-122,-130,-122v-67,0,-130,48,-130,139","w":536},"i":{"d":"138,-492r0,452v0,30,-13,46,-36,46v-23,0,-36,-16,-36,-46r0,-452v0,-30,13,-46,36,-46v23,0,36,16,36,46xm53,-669v0,-27,22,-49,49,-49v27,0,49,22,49,49v0,27,-22,49,-49,49v-27,0,-49,-22,-49,-49"},"j":{"d":"138,-491r0,661v0,30,-13,46,-36,46v-23,0,-36,-16,-36,-46r0,-661v0,-31,13,-47,36,-47v23,0,36,16,36,47xm53,-669v0,-27,22,-49,49,-49v27,0,49,22,49,49v0,27,-22,49,-49,49v-27,0,-49,-22,-49,-49"},"k":{"d":"138,-254r0,214v0,30,-13,46,-36,46v-23,0,-36,-16,-36,-46r0,-686v0,-30,13,-46,36,-46v23,0,36,16,36,46r0,382r215,-174v18,-15,27,-20,37,-20v36,1,39,53,9,68r-216,167r239,233v19,18,27,30,27,46v0,17,-14,30,-29,30v-22,0,-35,-11,-64,-40","w":444},"l":{"d":"138,-726r0,686v0,30,-13,46,-36,46v-23,0,-36,-16,-36,-46r0,-686v0,-30,13,-46,36,-46v23,0,36,16,36,46"},"m":{"d":"452,-333r0,293v0,30,-13,46,-36,46v-23,0,-36,-16,-36,-46r0,-293v0,-117,-64,-139,-120,-139v-58,0,-122,48,-122,139r0,293v0,30,-13,46,-36,46v-23,0,-36,-16,-36,-46r0,-452v0,-30,13,-46,36,-46v35,0,35,40,38,72v27,-39,71,-72,139,-72v62,0,116,35,140,93v90,-156,347,-111,347,97r0,308v0,30,-13,46,-36,46v-23,0,-36,-16,-36,-46r0,-293v0,-117,-64,-139,-120,-139v-58,0,-122,48,-122,139","w":832},"n":{"d":"138,-333r0,293v0,30,-13,46,-36,46v-23,0,-36,-16,-36,-46r0,-452v0,-30,13,-46,36,-46v35,0,35,40,38,72v27,-39,71,-72,139,-72v94,0,191,63,191,190r0,308v0,30,-13,46,-36,46v-23,0,-36,-16,-36,-46r0,-310v0,-74,-50,-122,-130,-122v-67,0,-130,48,-130,139","w":536},"o":{"d":"117,-266v0,97,39,212,151,212v112,0,151,-115,151,-212v0,-97,-39,-212,-151,-212v-112,0,-151,115,-151,212xm497,-266v0,150,-76,272,-229,272v-153,0,-229,-122,-229,-272v0,-134,73,-272,229,-272v157,0,229,138,229,272","w":536},"p":{"d":"66,170r0,-662v0,-30,13,-46,36,-46v35,0,38,40,36,79r3,0v32,-52,85,-79,147,-79v153,0,229,122,229,272v0,134,-73,272,-227,272v-62,0,-108,-26,-149,-79r-3,0r0,243v0,30,-13,46,-36,46v-23,0,-36,-16,-36,-46xm137,-266v0,97,39,212,151,212v112,0,151,-115,151,-212v0,-97,-39,-212,-151,-212v-112,0,-151,115,-151,212","w":556},"q":{"d":"39,-266v0,-150,76,-272,229,-272v62,0,115,27,147,79r3,0v-2,-39,1,-79,36,-79v23,0,36,16,36,46r0,662v0,30,-13,46,-36,46v-23,0,-36,-16,-36,-46r0,-243r-3,0v-41,53,-87,79,-149,79v-154,0,-227,-138,-227,-272xm419,-266v0,-97,-39,-212,-151,-212v-112,0,-151,115,-151,212v0,97,39,212,151,212v112,0,151,-115,151,-212","w":556},"r":{"d":"138,-299r0,259v0,30,-13,46,-36,46v-23,0,-36,-16,-36,-46r0,-452v0,-30,13,-46,36,-46v44,0,32,59,38,96v26,-59,72,-96,117,-96v34,0,48,19,48,39v0,20,-14,31,-49,39v-40,9,-118,43,-118,161","w":315},"s":{"d":"211,-538v104,0,190,44,188,82v0,16,-6,35,-36,35v-28,0,-65,-57,-137,-57v-50,0,-104,24,-104,75v0,24,14,47,49,63v96,43,241,64,242,192v0,94,-84,154,-196,154v-116,0,-192,-67,-192,-101v0,-11,16,-35,34,-35v34,0,67,76,161,76v69,0,115,-41,115,-91v0,-47,-36,-64,-74,-82v-84,-41,-216,-52,-217,-171v0,-87,86,-140,167,-140","w":444},"t":{"d":"156,-472r0,432v0,30,-13,46,-36,46v-23,0,-36,-16,-36,-46r0,-432r-47,0v-24,0,-31,-18,-31,-30v0,-12,7,-30,31,-30r47,0v6,-58,-22,-164,36,-164v58,0,30,107,36,164r47,0v24,0,31,18,31,30v0,12,-7,30,-31,30r-47,0","w":240},"u":{"d":"66,-175r0,-317v0,-30,13,-46,36,-46v23,0,36,16,36,46r0,299v0,91,49,139,130,139v81,0,130,-48,130,-139r0,-299v0,-30,13,-46,36,-46v23,0,36,16,36,46r0,317v0,115,-88,181,-202,181v-114,0,-202,-66,-202,-181","w":536},"v":{"d":"214,-119r129,-386v6,-43,71,-42,71,0v0,6,-1,13,-4,21r-160,463v-16,38,-61,38,-74,0r-160,-463v-11,-26,1,-53,29,-54v20,0,31,12,38,33r129,386r2,0","w":426},"w":{"d":"206,-110r123,-395v11,-44,69,-43,82,0r123,395r2,0r124,-395v5,-43,74,-42,74,0v0,6,-2,14,-6,27r-152,452v-10,29,-31,32,-40,32v-19,0,-33,-9,-44,-45r-121,-387r-2,0r-125,400v-18,47,-66,43,-80,0r-152,-452v-13,-32,-5,-60,28,-60v22,0,33,12,40,33r124,395r2,0","w":740},"x":{"d":"231,-230r-150,211v-19,36,-68,32,-71,-8v0,-9,2,-16,13,-30r166,-227r-144,-191v-25,-26,-12,-63,19,-63v15,0,26,7,39,25r128,175r128,-175v19,-36,68,-32,71,8v0,9,-2,16,-13,30r-144,191r166,227v25,26,12,63,-19,63v-15,0,-26,-7,-39,-25","w":462},"y":{"d":"179,-14r-163,-470v-11,-26,1,-53,29,-54v20,0,31,12,38,33r129,386r2,0r129,-386v6,-43,71,-42,71,0v0,6,-1,13,-4,21r-230,664v-5,46,-70,45,-72,6v15,-74,49,-133,71,-200","w":426},"z":{"d":"388,-461r-267,395r258,0v23,0,38,15,38,33v0,18,-15,33,-38,33r-309,0v-61,-5,-45,-41,-26,-71r267,-395r-234,0v-23,0,-38,-15,-38,-33v0,-18,15,-33,38,-33r287,0v55,-1,43,42,24,71","w":444},"{":{"d":"29,-357v84,0,64,-159,66,-253v1,-98,47,-108,127,-108v24,0,32,16,32,27v0,18,-24,32,-53,27v-61,9,-40,120,-40,187v0,103,-63,137,-79,148v18,6,79,46,79,146r0,110v0,46,9,77,61,77v24,0,32,16,32,27v4,21,-31,27,-61,27v-59,0,-98,-23,-98,-108v0,-95,18,-253,-66,-253v-13,0,-25,-12,-25,-27v0,-15,12,-27,25,-27","w":258},"|":{"d":"78,250r0,-1000v0,-23,15,-38,33,-38v18,0,33,15,33,38r0,1000v0,23,-15,38,-33,38v-18,0,-33,-15,-33,-38","w":222},"}":{"d":"97,-477r0,-110v0,-46,-9,-77,-61,-77v-24,0,-32,-16,-32,-27v-4,-21,31,-27,61,-27v59,0,98,23,98,108v0,95,-18,253,66,253v13,0,25,12,25,27v0,15,-12,27,-25,27v-84,0,-64,159,-66,253v-1,98,-47,108,-127,108v-24,0,-32,-16,-32,-27v0,-18,24,-32,53,-27v61,-9,40,-120,40,-187v0,-103,63,-137,79,-148v-18,-6,-79,-46,-79,-146","w":258},"~":{"d":"204,-326v75,-1,126,75,196,75v60,0,55,-71,100,-75v16,-2,31,9,31,31v0,50,-60,110,-135,110v-75,1,-125,-75,-196,-75v-60,0,-55,71,-100,75v-16,2,-31,-9,-31,-31v0,-50,60,-110,135,-110","w":600},"\u00a1":{"d":"185,-492v0,24,-22,46,-46,46v-24,0,-46,-22,-46,-46v0,-25,22,-46,46,-46v24,0,46,21,46,46xm175,-284r0,424v0,30,-13,46,-36,46v-23,0,-36,-16,-36,-46r0,-424v0,-30,13,-46,36,-46v23,0,36,16,36,46","w":278},"\u00a2":{"d":"235,-57r0,-421v-89,20,-120,126,-120,211v0,87,31,190,120,210xm253,81v-29,0,-15,-49,-18,-76v-264,-40,-262,-503,0,-543v3,-27,-11,-75,18,-75v29,0,15,48,18,75v84,1,136,27,136,61v0,19,-12,31,-32,31v-26,0,-53,-31,-104,-31r0,423v61,0,84,-28,106,-28v18,0,27,12,27,29v0,32,-76,59,-133,59v-3,27,11,75,-18,75","w":444},"\u00a3":{"d":"171,-66r348,0v23,0,38,15,38,33v0,18,-15,33,-38,33r-407,0v-46,-5,-50,-38,-17,-69v64,-59,126,-140,88,-260v-53,-5,-147,20,-147,-33v0,-47,79,-30,126,-33v-37,-66,-55,-100,-55,-146v0,-105,86,-177,208,-177v144,0,226,114,226,182v0,42,-54,45,-64,10v-23,-79,-74,-126,-163,-126v-69,0,-129,35,-129,120v0,35,13,67,50,137v56,6,160,-22,160,33v0,51,-90,28,-140,33v28,117,4,169,-84,263","w":593},"\u2044":{"d":"-72,-38r260,-665v4,-31,58,-33,59,-2v0,8,-3,16,-9,31r-260,665v-4,31,-58,33,-59,2v0,-8,3,-16,9,-31","w":166},"\u00a5":{"d":"235,-30r0,-160r-141,0v-24,0,-31,-18,-31,-30v0,-12,7,-30,31,-30r141,0r0,-76r-141,0v-24,0,-31,-18,-31,-30v0,-12,7,-30,31,-30r111,0r-152,-254v-18,-30,-22,-41,-22,-50v-1,-32,45,-37,63,-7r174,292r174,-292v13,-32,64,-25,63,7v0,9,-4,20,-22,50r-151,254r110,0v24,0,31,18,31,30v0,12,-7,30,-31,30r-141,0r0,76r141,0v24,0,31,18,31,30v0,12,-7,30,-31,30r-141,0r0,160v0,20,-16,36,-33,36v-17,0,-33,-16,-33,-36","w":536},"\u0192":{"d":"111,-458v1,-39,61,-29,101,-30r20,-118v34,-150,79,-166,186,-166v23,0,38,15,38,33v1,29,-35,33,-70,33v-34,0,-66,18,-80,96r-22,122v39,0,94,-7,94,30v0,40,-64,29,-105,30r-67,378v-29,164,-92,210,-165,210v-34,0,-65,-5,-65,-33v0,-27,30,-33,64,-33v42,0,75,-20,95,-138r66,-384v-38,0,-90,6,-90,-30","w":536},"\u00a7":{"d":"218,-490r163,81v75,38,143,82,140,183v-1,44,-19,107,-113,166v43,29,67,70,67,127v0,96,-99,149,-206,149v-176,0,-211,-112,-211,-157v0,-18,21,-33,40,-33v24,0,35,20,38,45v4,36,44,79,132,79v57,0,129,-20,129,-85v0,-43,-18,-58,-80,-92v-104,-57,-282,-110,-282,-249v0,-97,57,-132,129,-166v-50,-32,-78,-67,-78,-117v0,-116,114,-159,202,-159v94,0,198,46,198,145v0,65,-67,68,-72,3v-3,-42,-52,-82,-130,-82v-69,0,-128,33,-126,88v0,20,17,52,60,74xm182,-176r171,88v44,-21,96,-78,96,-137v0,-52,-23,-83,-70,-107r-152,-78v-50,16,-120,54,-120,122v0,54,19,83,75,112","w":556},"\u00a4":{"d":"23,-142v0,-24,34,-45,48,-62v-69,-80,-68,-224,0,-304v-14,-17,-47,-38,-48,-62v0,-34,45,-41,63,-14r32,32v79,-69,221,-69,300,0v19,-16,37,-46,65,-50v32,5,39,37,14,62r-32,32v69,80,68,224,0,304v14,17,47,38,48,62v0,34,-45,41,-63,14r-32,-32v-79,69,-221,69,-300,0v-19,16,-36,50,-65,50v-18,0,-30,-17,-30,-32xm86,-356v0,104,78,188,182,188v104,0,182,-84,182,-188v0,-104,-78,-188,-182,-188v-104,0,-182,84,-182,188","w":536},"'":{"d":"60,-548r0,-132v0,-23,15,-38,33,-38v18,0,33,15,33,38r0,132v0,23,-15,38,-33,38v-18,0,-33,-15,-33,-38","w":186},"\u201c":{"d":"26,-541v11,-58,47,-103,65,-156v12,-34,75,-20,69,10v-11,58,-47,103,-65,156v-12,34,-75,20,-69,-10xm155,-541v11,-58,47,-103,65,-156v12,-34,75,-20,69,10v-11,58,-47,103,-65,156v-12,34,-75,20,-69,-10","w":315},"\u00ab":{"d":"282,-94v-30,-56,-69,-110,-92,-172v21,-61,64,-116,92,-172v10,-35,63,-36,66,-2v0,9,-1,14,-10,29r-84,145r84,145v19,27,13,55,-20,55v-17,0,-27,-11,-36,-28xm133,-94v-30,-56,-69,-110,-92,-172v21,-61,64,-116,92,-172v10,-35,63,-36,66,-2v0,9,-1,14,-10,29r-84,145r84,145v19,27,13,55,-20,55v-17,0,-27,-11,-36,-28","w":389},"\u2039":{"d":"133,-94v-30,-56,-69,-110,-92,-172v21,-61,64,-116,92,-172v10,-35,63,-36,66,-2v0,9,-1,14,-10,29r-84,145r84,145v19,27,13,55,-20,55v-17,0,-27,-11,-36,-28","w":240},"\u203a":{"d":"107,-438v30,56,69,110,92,172v-21,61,-64,116,-92,172v-10,35,-63,36,-66,2v0,-9,1,-14,10,-29r84,-145r-84,-145v-19,-27,-13,-55,20,-55v17,0,27,11,36,28","w":240},"\ufb01":{"d":"156,-472r0,432v0,30,-13,46,-36,46v-23,0,-36,-16,-36,-46r0,-432r-47,0v-24,0,-31,-18,-31,-30v0,-12,7,-30,31,-30r47,0r0,-137v3,-87,52,-103,132,-103v34,0,49,15,49,33v0,30,-35,33,-71,33v-23,0,-38,15,-38,33r0,141r64,0v24,0,31,18,31,30v0,12,-7,30,-31,30r-64,0xm378,-492r0,452v0,30,-13,46,-36,46v-23,0,-36,-16,-36,-46r0,-452v0,-30,13,-46,36,-46v23,0,36,16,36,46xm342,-620v-27,0,-49,-22,-49,-49v0,-27,22,-49,49,-49v27,0,49,22,49,49v0,27,-22,49,-49,49","w":444},"\ufb02":{"d":"156,-472r0,432v0,30,-13,46,-36,46v-23,0,-36,-16,-36,-46r0,-432r-47,0v-24,0,-31,-18,-31,-30v0,-12,7,-30,31,-30r47,0r0,-137v3,-87,52,-103,132,-103v34,0,49,15,49,33v0,30,-35,33,-71,33v-23,0,-38,15,-38,33r0,141r64,0v24,0,31,18,31,30v0,12,-7,30,-31,30r-64,0xm378,-726r0,686v0,30,-13,46,-36,46v-23,0,-36,-16,-36,-46r0,-686v0,-30,13,-46,36,-46v23,0,36,16,36,46","w":444},"\u2013":{"d":"469,-236r-438,0v-24,0,-31,-18,-31,-30v0,-12,7,-30,31,-30r438,0v24,0,31,18,31,30v0,12,-7,30,-31,30","w":500},"\u2020":{"d":"338,-391r0,561v0,30,-13,46,-33,46v-20,0,-33,-16,-33,-46r0,-561r-199,0v-30,0,-46,-13,-46,-33v0,-20,16,-33,46,-33r199,0r0,-215v0,-30,13,-46,33,-46v20,0,33,16,33,46r0,215r199,0v30,0,46,13,46,33v0,20,-16,33,-46,33r-199,0","w":610},"\u2021":{"d":"272,-87r0,-332r-207,0v-23,0,-38,-15,-38,-33v0,-18,15,-33,38,-33r207,0r0,-199v0,-23,15,-38,33,-38v18,0,33,15,33,38r0,199r207,0v23,0,38,15,38,33v0,18,-15,33,-38,33r-207,0r0,332r207,0v23,0,38,15,38,33v0,18,-15,33,-38,33r-207,0r0,199v0,23,-15,38,-33,38v-18,0,-33,-15,-33,-38r0,-199r-207,0v-23,0,-38,-15,-38,-33v0,-18,15,-33,38,-33r207,0","w":610},"\u00b7":{"d":"74,-319v0,-24,22,-46,46,-46v24,0,46,22,46,46v0,24,-22,46,-46,46v-24,0,-46,-22,-46,-46","w":240},"\u00b6":{"d":"258,178r0,-512v-123,0,-210,-82,-210,-186v0,-130,88,-192,228,-192r183,0v44,0,55,9,55,52r0,838v0,23,-15,38,-33,38v-18,0,-33,-15,-33,-38r0,-830r-124,0r0,830v0,23,-15,38,-33,38v-18,0,-33,-15,-33,-38","w":600},"\u2022":{"d":"72,-356v0,-98,80,-178,178,-178v98,0,178,80,178,178v0,98,-80,178,-178,178v-98,0,-178,-80,-178,-178","w":500},"\u201a":{"d":"26,91v11,-58,47,-103,65,-156v12,-34,75,-20,69,10v-11,58,-47,103,-65,156v-12,34,-75,20,-69,-10","w":186},"\u201e":{"d":"26,91v11,-58,47,-103,65,-156v12,-34,75,-20,69,10v-11,58,-47,103,-65,156v-12,34,-75,20,-69,-10xm155,91v11,-58,47,-103,65,-156v12,-34,75,-20,69,10v-11,58,-47,103,-65,156v-12,34,-75,20,-69,-10","w":315},"\u201d":{"d":"26,-541v11,-58,47,-103,65,-156v12,-34,75,-20,69,10v-11,58,-47,103,-65,156v-12,34,-75,20,-69,-10xm155,-541v11,-58,47,-103,65,-156v12,-34,75,-20,69,10v-11,58,-47,103,-65,156v-12,34,-75,20,-69,-10","w":315},"\u00bb":{"d":"107,-438v30,56,69,110,92,172v-21,61,-64,116,-92,172v-10,35,-63,36,-66,2v0,-9,1,-14,10,-29r84,-145r-84,-145v-19,-27,-13,-55,20,-55v17,0,27,11,36,28xm256,-438v30,56,69,110,92,172v-21,61,-64,116,-92,172v-10,35,-63,36,-66,2v0,-9,1,-14,10,-29r84,-145r-84,-145v-19,-27,-13,-55,20,-55v17,0,27,11,36,28","w":389},"\u2026":{"d":"121,-40v0,-25,21,-46,46,-46v25,0,46,21,46,46v0,25,-21,46,-46,46v-25,0,-46,-21,-46,-46xm454,-40v0,-25,21,-46,46,-46v25,0,46,21,46,46v0,25,-21,46,-46,46v-25,0,-46,-21,-46,-46xm787,-40v0,-25,21,-46,46,-46v25,0,46,21,46,46v0,25,-21,46,-46,46v-25,0,-46,-21,-46,-46","w":1000},"\u2030":{"d":"899,6v-82,0,-154,-69,-154,-169v0,-108,75,-177,154,-177v79,0,154,69,154,177v0,100,-72,169,-154,169xm899,-42v66,0,94,-64,94,-121v0,-74,-35,-129,-94,-129v-59,0,-94,55,-94,129v0,57,28,121,94,121xm194,-372v-82,0,-154,-69,-154,-169v0,-108,75,-177,154,-177v79,0,154,69,154,177v0,100,-72,169,-154,169xm194,-420v66,0,94,-64,94,-121v0,-74,-35,-129,-94,-129v-59,0,-94,55,-94,129v0,57,28,121,94,121xm547,6v-82,0,-154,-69,-154,-169v0,-108,75,-177,154,-177v79,0,154,69,154,177v0,100,-72,169,-154,169xm547,-42v66,0,94,-64,94,-121v0,-74,-35,-129,-94,-129v-59,0,-94,55,-94,129v0,57,28,121,94,121xm214,-38r260,-665v4,-31,58,-33,59,-2v0,8,-3,16,-9,31r-260,665v-4,31,-58,33,-59,2v0,-8,3,-16,9,-31","w":1093},"\u00bf":{"d":"233,-332v60,0,36,114,36,173v0,26,-4,35,-39,42v-85,17,-125,63,-125,125v1,139,209,147,240,33v2,-59,72,-50,72,-3v0,88,-90,148,-191,148v-117,0,-199,-72,-199,-176v0,-122,81,-168,170,-190v5,-55,-20,-152,36,-152xm279,-492v0,25,-21,46,-46,46v-25,0,-46,-21,-46,-46v0,-25,21,-46,46,-46v25,0,46,21,46,46","w":444},"`":{"d":"184,-602v-58,-12,-110,-41,-164,-59v-28,-10,-28,-23,-28,-33v1,-26,23,-40,54,-28r138,53v28,10,28,23,28,33v0,15,-11,34,-28,34"},"\u00b4":{"d":"20,-669v55,-18,105,-46,164,-59v31,8,47,51,0,67v-55,18,-105,46,-164,59v-31,-8,-47,-51,0,-67"},"\u02c6":{"d":"102,-714r127,49v28,11,29,26,29,37v0,25,-33,35,-56,25r-100,-45v-43,16,-74,42,-126,50v-37,-7,-46,-50,-1,-67"},"\u02dc":{"d":"42,-640v-27,0,-31,24,-55,24v-19,0,-29,-10,-29,-27v0,-32,38,-63,80,-63v43,0,83,27,124,27v27,0,31,-25,55,-25v19,0,29,10,29,33v0,26,-38,57,-80,57v-43,0,-83,-26,-124,-26"},"\u00af":{"d":"196,-597r-188,0v-30,0,-46,-13,-46,-36v0,-23,16,-36,46,-36r188,0v30,0,46,13,46,36v0,23,-16,36,-46,36"},"\u02d8":{"d":"-32,-687v0,-25,11,-33,27,-33v41,0,25,57,107,57v82,0,66,-57,107,-57v16,0,27,8,27,33v0,46,-49,90,-134,90v-85,0,-134,-44,-134,-90"},"\u02d9":{"d":"53,-640v0,-27,22,-49,49,-49v27,0,49,22,49,49v0,27,-22,49,-49,49v-27,0,-49,-22,-49,-49"},"\u00a8":{"d":"-36,-640v0,-27,22,-49,49,-49v27,0,49,22,49,49v0,27,-22,49,-49,49v-27,0,-49,-22,-49,-49xm142,-640v0,-27,22,-49,49,-49v27,0,49,22,49,49v0,27,-22,49,-49,49v-27,0,-49,-22,-49,-49"},"\u02da":{"d":"9,-679v0,-51,42,-93,93,-93v51,0,93,42,93,93v0,51,-42,93,-93,93v-51,0,-93,-42,-93,-93xm51,-679v0,28,23,51,51,51v28,0,51,-23,51,-51v0,-28,-23,-51,-51,-51v-28,0,-51,23,-51,51"},"\u00b8":{"d":"80,0r45,0r-26,39v5,4,17,-3,26,-1v38,0,62,27,62,56v0,49,-42,83,-101,83v-46,0,-75,-12,-75,-36v0,-12,6,-24,26,-24v17,0,86,29,90,-13v4,-43,-82,-12,-82,-38v0,-19,25,-49,35,-66"},"\u02dd":{"d":"-80,-669v55,-18,105,-46,164,-59v31,8,47,51,0,67v-55,18,-105,46,-164,59v-31,-8,-47,-51,0,-67xm120,-669v55,-18,105,-46,164,-59v31,8,47,51,0,67v-55,18,-105,46,-164,59v-31,-8,-47,-51,0,-67"},"\u02db":{"d":"77,0r51,0v-38,32,-77,68,-77,96v1,42,53,17,79,17v19,0,25,14,25,24v0,23,-32,40,-87,40v-48,0,-83,-14,-83,-65v0,-50,39,-86,92,-112"},"\u02c7":{"d":"102,-598r-127,-49v-28,-11,-29,-26,-29,-37v0,-25,33,-35,56,-25r100,45v43,-16,74,-42,126,-50v37,7,46,50,1,67"},"\u2014":{"d":"1000,-236r-1000,0v-24,0,-31,-18,-31,-30v0,-12,7,-30,31,-30r1000,0v24,0,31,18,31,30v0,12,-7,30,-31,30","w":1000},"\u00c6":{"d":"453,-322r0,256r218,0v23,0,38,15,38,33v0,18,-15,33,-38,33r-254,0v-58,-3,-30,-103,-36,-160r-233,0r-60,122v-11,20,-26,44,-49,44v-37,-9,-30,-37,-10,-77r310,-623v6,-12,14,-18,26,-18r296,0v23,0,38,15,38,33v0,18,-15,33,-38,33r-207,0r0,258r198,0v23,0,38,15,38,33v0,18,-15,33,-38,33r-199,0xm381,-220r0,-408r-2,0r-202,408r204,0","w":741},"\u00aa":{"d":"322,-690r0,271v0,16,-12,28,-30,28v-31,0,-28,-28,-32,-51v-18,32,-54,51,-93,51v-90,0,-145,-82,-145,-163v0,-82,55,-164,145,-164v41,0,70,17,95,43v-2,-26,5,-42,30,-43v18,0,30,12,30,28xm262,-555v0,-69,-25,-115,-90,-115v-61,0,-84,62,-84,115v0,53,25,116,84,116v65,0,90,-46,90,-116","w":361},"\u0141":{"d":"138,-349r0,283r188,0v23,0,38,15,38,33v0,18,-15,33,-38,33r-224,0v-20,0,-36,-16,-36,-36r0,-271v-20,10,-37,27,-62,32v-38,-5,-31,-46,-6,-61r68,-40r0,-296v0,-30,13,-46,36,-46v23,0,36,16,36,46r0,254v35,-18,65,-44,104,-56v33,3,35,52,4,62","w":370},"\u00d8":{"d":"526,-536r-337,407v34,41,84,69,153,69v167,0,224,-162,224,-296v0,-60,-12,-127,-40,-180xm156,-179r337,-406v-35,-41,-84,-67,-151,-67v-167,0,-224,162,-224,296v0,59,11,124,38,177xm29,-10v9,-42,57,-76,79,-110v-143,-213,-58,-599,234,-598v82,0,148,30,196,79r57,-69v14,-27,57,-26,59,4v-9,39,-57,77,-79,109v145,214,60,601,-233,601v-83,0,-150,-31,-198,-81r-60,73v-13,26,-54,22,-55,-8","w":684},"\u0152":{"d":"342,6v-402,-1,-403,-722,0,-724v97,-1,181,48,224,123v5,-56,-23,-117,49,-117r231,0v23,0,38,15,38,33v0,18,-15,33,-38,33r-207,0r0,258r198,0v23,0,38,15,38,33v0,18,-15,33,-38,33r-199,0r0,256r218,0v23,0,38,15,38,33v0,18,-15,33,-38,33r-254,0v-51,-1,-33,-73,-36,-122r-2,0v-50,82,-126,128,-222,128xm566,-356v0,-133,-57,-296,-224,-296v-167,0,-224,163,-224,296v0,133,57,296,224,296v167,0,224,-163,224,-296","w":926},"\u00ba":{"d":"88,-555v0,53,25,116,86,116v61,0,86,-63,86,-114v0,-55,-25,-117,-86,-117v-61,0,-86,62,-86,115xm174,-391v-202,0,-203,-327,0,-327v201,0,204,327,0,327","w":348},"\u00e6":{"d":"117,-266v0,97,39,212,151,212v112,0,150,-115,150,-212v0,-97,-38,-212,-150,-212v-109,0,-151,115,-151,212xm451,6v-34,5,-31,-49,-35,-81v-32,55,-88,81,-148,81v-153,0,-229,-122,-229,-272v0,-134,73,-272,227,-272v69,0,106,30,152,77v-2,-37,2,-80,33,-77v29,-3,36,37,33,73r8,0v22,-39,85,-73,139,-73v150,0,227,126,227,260v0,19,-6,44,-49,44r-325,0v3,93,66,180,158,180v110,0,140,-82,174,-82v20,0,34,7,34,35v0,32,-83,107,-191,107v-91,0,-142,-33,-173,-74r-2,0v3,36,-4,77,-33,74xm484,-294r296,0v-3,-89,-53,-184,-150,-184v-93,0,-143,95,-146,184","w":889},"\u0131":{"d":"138,-492r0,452v0,30,-13,46,-36,46v-23,0,-36,-16,-36,-46r0,-452v0,-30,13,-46,36,-46v23,0,36,16,36,46"},"\u0142":{"d":"138,-383r0,343v0,30,-13,46,-36,46v-23,0,-36,-16,-36,-46r0,-284v-15,11,-35,36,-56,36v-40,0,-27,-40,-3,-60r59,-49r0,-329v0,-30,13,-46,36,-46v23,0,36,16,36,46r0,268v18,-13,28,-34,57,-34v37,0,30,38,2,61"},"\u00f8":{"d":"139,-149r227,-285v-22,-26,-54,-44,-98,-44v-152,0,-178,201,-129,329xm408,-487v22,-22,37,-64,71,-71v31,4,28,37,9,61r-42,53v108,162,44,450,-178,450v-58,0,-106,-18,-141,-49v-22,21,-37,63,-70,69v-31,-4,-28,-37,-9,-61r41,-51v-105,-159,-47,-454,179,-452v58,0,105,19,140,51xm397,-383r-227,285v23,27,55,44,98,44v152,0,178,-202,129,-329","w":536},"\u0153":{"d":"117,-266v0,97,39,212,151,212v112,0,151,-115,151,-212v0,-97,-39,-212,-151,-212v-112,0,-151,115,-151,212xm268,-538v88,0,150,42,188,112v38,-66,104,-112,175,-112v150,0,227,126,227,260v0,19,-6,44,-49,44r-318,0v3,93,61,180,152,180v109,0,139,-82,173,-82v20,0,34,7,34,35v0,32,-83,107,-191,107v-93,0,-163,-38,-203,-108v-32,58,-90,108,-188,108v-153,0,-229,-122,-229,-272v0,-134,73,-272,229,-272xm491,-294r289,0v-3,-89,-53,-184,-150,-184v-86,0,-137,95,-139,184","w":908},"\u00df":{"d":"138,-558r0,518v0,30,-13,46,-36,46v-23,0,-36,-16,-36,-46r0,-526v0,-136,84,-206,186,-206v191,0,260,255,115,350v102,27,136,121,136,206v0,105,-59,222,-183,222v-38,0,-58,-16,-59,-37v-1,-15,0,-35,46,-35v92,0,118,-79,118,-159v0,-82,-35,-143,-114,-152v-50,-6,-52,-19,-52,-34v0,-14,1,-24,30,-33v47,-14,83,-41,83,-134v0,-58,-34,-128,-120,-128v-88,0,-114,74,-114,148","w":556},"\u00f7":{"d":"515,-220r-430,0v-23,0,-38,-15,-38,-33v0,-18,15,-33,38,-33r430,0v23,0,38,15,38,33v0,18,-15,33,-38,33xm237,-43v0,-35,28,-63,63,-63v35,0,63,28,63,63v0,35,-28,63,-63,63v-35,0,-63,-28,-63,-63xm237,-463v0,-35,28,-63,63,-63v35,0,63,28,63,63v0,35,-28,63,-63,63v-35,0,-63,-28,-63,-63","w":600},"\u00be":{"d":"242,-38r260,-665v4,-31,58,-33,59,-2v0,8,-3,16,-9,31r-260,665v-4,31,-58,33,-59,2v0,-8,3,-16,9,-31xm149,-718v140,0,152,151,67,199v46,17,78,50,78,103v0,77,-49,131,-144,131v-95,0,-134,-59,-134,-91v0,-36,49,-40,63,0v7,17,21,37,72,37v41,0,77,-29,77,-80v0,-41,-28,-61,-69,-64v-24,-2,-30,-12,-30,-22v0,-18,12,-23,35,-29v60,-18,53,-130,-18,-130v-30,0,-51,19,-53,47v-1,20,-14,28,-32,28v-14,0,-28,-10,-28,-28v0,-46,36,-101,116,-101xm701,-101v-5,43,18,107,-30,107v-47,0,-25,-65,-30,-107r-176,0v-42,-3,-31,-34,-15,-59r150,-236v25,-41,101,-48,101,14r0,227v26,-2,47,2,47,27v0,25,-21,29,-47,27xm641,-155r0,-224r-2,0r-140,224r142,0","w":805},"\u00bc":{"d":"192,-38r260,-665v4,-31,58,-33,59,-2v0,8,-3,16,-9,31r-260,665v-4,31,-58,33,-59,2v0,-8,3,-16,9,-31xm126,-658v-34,-1,-85,9,-83,-27v1,-44,74,-27,116,-27v17,0,27,12,27,24r0,373v0,20,-12,30,-30,30v-18,0,-30,-10,-30,-30r0,-343xm701,-101v-5,43,18,107,-30,107v-47,0,-25,-65,-30,-107r-176,0v-42,-3,-31,-34,-15,-59r150,-236v25,-41,101,-48,101,14r0,227v26,-2,47,2,47,27v0,25,-21,29,-47,27xm641,-155r0,-224r-2,0r-140,224r142,0","w":805},"\u00b9":{"d":"100,-658v-34,-1,-85,9,-83,-27v1,-44,74,-27,116,-27v17,0,27,12,27,24r0,373v0,20,-12,30,-30,30v-18,0,-30,-10,-30,-30r0,-343","w":229},"\u00d7":{"d":"471,-37r-171,-171r-171,171v-18,25,-60,13,-59,-17v0,-9,2,-16,15,-29r169,-170r-169,-170v-28,-23,-16,-60,16,-60v10,0,19,5,28,14r171,171r171,-171v18,-25,60,-13,59,17v0,9,-2,16,-15,29r-169,170r169,170v28,23,16,60,-16,60v-10,0,-19,-5,-28,-14","w":600},"\u00ae":{"d":"324,-325r0,150v0,23,-11,41,-30,41v-19,0,-30,-18,-30,-41r0,-368v0,-11,4,-17,19,-17r141,0v97,0,145,39,145,118v0,76,-49,108,-101,115r88,137v18,21,20,53,-17,56v-12,0,-24,-6,-35,-24r-102,-167r-78,0xm324,-512r0,139v84,-4,185,22,185,-72v0,-88,-103,-63,-185,-67xm38,-356v0,-200,162,-362,362,-362v200,0,362,162,362,362v0,200,-162,362,-362,362v-200,0,-362,-162,-362,-362xm104,-356v0,167,135,302,296,302v161,0,296,-135,296,-302v0,-167,-135,-302,-296,-302v-161,0,-296,135,-296,302","w":800},"\u00de":{"d":"138,-150v-6,56,21,155,-36,156v-23,0,-36,-16,-36,-46r0,-632v0,-30,13,-46,36,-46v50,-2,33,79,36,128r144,0v162,0,220,126,220,214v0,118,-74,226,-238,226r-126,0xm138,-524r0,308r132,0v114,0,160,-82,160,-154v0,-72,-46,-154,-160,-154r-132,0","w":519},"\u00a6":{"d":"78,-363r0,-274v0,-23,15,-38,33,-38v18,0,33,15,33,38r0,274v0,23,-15,38,-33,38v-18,0,-33,-15,-33,-38xm78,137r0,-274v0,-23,15,-38,33,-38v18,0,33,15,33,38r0,274v0,23,-15,38,-33,38v-18,0,-33,-15,-33,-38","w":222},"\u00d0":{"d":"138,-646r0,254r141,0v23,0,39,15,39,33v0,18,-16,33,-39,33r-141,0r0,260r140,0v173,0,234,-131,234,-298v0,-136,-60,-282,-230,-282r-144,0xm66,-36r0,-290v-34,3,-67,-5,-67,-33v0,-28,33,-37,67,-33r0,-284v0,-20,16,-36,36,-36r186,0v216,0,302,195,302,361v0,219,-135,351,-308,351r-180,0v-20,0,-36,-16,-36,-36","w":630},"\u00bd":{"d":"192,-38r260,-665v4,-31,58,-33,59,-2v0,8,-3,16,-9,31r-260,665v-4,31,-58,33,-59,2v0,-8,3,-16,9,-31xm126,-658v-34,-1,-85,9,-83,-27v1,-44,74,-27,116,-27v17,0,27,12,27,24r0,373v0,20,-12,30,-30,30v-18,0,-30,-10,-30,-30r0,-343xm538,-54r162,0v15,0,25,12,25,27v0,15,-10,27,-25,27r-213,0v-35,-2,-33,-27,-16,-50r138,-188v27,-36,40,-62,40,-84v0,-32,-30,-51,-66,-51v-48,0,-74,32,-78,78v-3,36,-60,34,-60,0v0,-77,49,-132,138,-132v150,0,156,111,88,200","w":805},"\u2212":{"d":"515,-220r-430,0v-23,0,-38,-15,-38,-33v0,-18,15,-33,38,-33r430,0v23,0,38,15,38,33v0,18,-15,33,-38,33","w":600},"\u00e7":{"d":"292,4v-6,12,-22,26,-21,37v44,-13,86,16,86,53v0,49,-42,83,-101,83v-46,0,-75,-12,-75,-36v0,-12,6,-24,26,-24v17,0,86,29,90,-13v4,-43,-82,-12,-82,-38v0,-17,22,-45,32,-61v-288,-30,-272,-542,30,-543v68,0,132,26,132,56v0,23,-12,40,-40,40v-19,0,-36,-30,-101,-30v-210,0,-190,412,0,412v65,0,88,-28,108,-28v13,0,30,12,30,29v0,39,-52,60,-114,63","w":444},"\u00f0":{"d":"268,6v-152,0,-229,-141,-229,-268v0,-129,77,-270,229,-270v46,0,101,22,131,67r2,-2v-25,-68,-74,-131,-133,-178v-39,17,-78,44,-120,56v-28,-4,-24,-37,0,-49r84,-43v-44,-35,-98,-34,-98,-62v0,-13,11,-29,32,-29v35,0,88,34,127,60v34,-15,73,-40,110,-50v25,1,31,34,8,45r-79,39v113,96,165,229,165,382v0,246,-139,302,-229,302xm117,-262v0,93,41,208,151,208v110,0,151,-115,151,-208v0,-95,-41,-210,-151,-210v-110,0,-151,115,-151,210","w":536},"\u00b1":{"d":"267,-338r0,-130v0,-23,15,-38,33,-38v18,0,33,15,33,38r0,130r182,0v23,0,38,15,38,33v0,18,-15,33,-38,33r-182,0r0,130v0,23,-15,38,-33,38v-18,0,-33,-15,-33,-38r0,-130r-182,0v-23,0,-38,-15,-38,-33v0,-18,15,-33,38,-33r182,0xm515,0r-430,0v-23,0,-38,-15,-38,-33v0,-18,15,-33,38,-33r430,0v23,0,38,15,38,33v0,18,-15,33,-38,33","w":600},"\u00c7":{"d":"366,5v-5,12,-21,25,-20,36v44,-13,86,16,86,53v0,49,-42,83,-101,83v-46,0,-75,-12,-75,-36v0,-12,6,-24,26,-24v17,0,86,29,90,-13v4,-43,-82,-12,-82,-38v0,-17,23,-46,32,-62v-396,-22,-369,-724,28,-722v120,0,216,72,216,107v0,25,-17,38,-32,38v-30,0,-67,-79,-185,-79v-150,0,-231,161,-231,306v0,147,72,286,244,286v125,0,163,-70,189,-70v18,0,30,11,30,36v0,30,-88,97,-215,99","w":593},"\u00fe":{"d":"66,170r0,-896v0,-30,13,-46,36,-46v23,0,36,16,36,46r0,267r3,0v41,-53,92,-79,147,-79v304,2,304,542,0,544v-55,0,-106,-26,-147,-79r-3,0r0,243v0,30,-13,46,-36,46v-23,0,-36,-16,-36,-46xm137,-266v0,97,39,212,151,212v112,0,151,-115,151,-212v0,-97,-39,-212,-151,-212v-112,0,-151,115,-151,212","w":556},"\u00a9":{"d":"257,-353v0,95,56,166,149,166v105,0,100,-102,147,-102v18,0,25,12,25,27v0,38,-56,135,-172,135v-130,0,-215,-98,-215,-224v0,-129,80,-224,209,-224v123,0,184,92,184,127v0,21,-12,31,-30,31v-55,0,-35,-98,-156,-98v-89,0,-141,70,-141,162xm38,-356v0,-200,162,-362,362,-362v200,0,362,162,362,362v0,200,-162,362,-362,362v-200,0,-362,-162,-362,-362xm104,-356v0,167,135,302,296,302v161,0,296,-135,296,-302v0,-167,-135,-302,-296,-302v-161,0,-296,135,-296,302","w":800},"\u00ac":{"d":"487,-145r0,-175r-402,0v-23,0,-38,-15,-38,-33v0,-18,15,-33,38,-33r418,0v38,0,50,16,50,47r0,194v0,23,-15,38,-33,38v-18,0,-33,-15,-33,-38","w":600},"\u00b2":{"d":"127,-345r162,0v15,0,25,12,25,27v0,15,-10,27,-25,27r-213,0v-35,-2,-33,-27,-16,-50r138,-188v27,-36,40,-62,40,-84v0,-32,-30,-51,-66,-51v-48,0,-74,32,-78,78v-3,36,-60,34,-60,0v0,-77,49,-132,138,-132v150,0,156,111,88,200","w":348},"\u00b3":{"d":"168,-718v140,0,152,151,67,199v46,17,78,50,78,103v0,77,-49,131,-144,131v-95,0,-134,-59,-134,-91v0,-36,49,-40,63,0v7,17,21,37,72,37v41,0,77,-29,77,-80v0,-41,-28,-61,-69,-64v-24,-2,-30,-12,-30,-22v0,-18,12,-23,35,-29v60,-18,53,-130,-18,-130v-30,0,-51,19,-53,47v-1,20,-14,28,-32,28v-14,0,-28,-10,-28,-28v0,-46,36,-101,116,-101","w":348},"\u2122":{"d":"194,-338r0,-314r-99,0v-24,0,-31,-18,-31,-30v0,-12,7,-30,31,-30r264,0v24,0,31,18,31,30v0,12,-7,30,-31,30r-99,0r0,314v0,23,-15,38,-33,38v-18,0,-33,-15,-33,-38xm475,-336r0,-320v3,-81,93,-83,122,-9r105,265r102,-265v17,-43,43,-53,68,-53v32,0,54,22,54,62r0,320v0,23,-15,38,-33,38v-18,0,-33,-15,-33,-38r0,-310r-2,0r-123,315v-11,28,-21,33,-34,33v-13,0,-23,-5,-34,-33r-124,-315r-2,0r0,310v0,23,-15,38,-33,38v-18,0,-33,-15,-33,-38","w":990},"\u00b0":{"d":"57,-575v0,-80,63,-143,143,-143v80,0,143,63,143,143v0,80,-63,143,-143,143v-80,0,-143,-63,-143,-143xm105,-575v0,52,43,95,95,95v52,0,95,-43,95,-95v0,-52,-43,-95,-95,-95v-52,0,-95,43,-95,95","w":400},"\u03bc":{"d":"66,170r0,-662v0,-30,13,-46,36,-46v23,0,36,16,36,46r0,299v0,91,49,139,130,139v81,0,130,-48,130,-139r0,-299v0,-30,13,-46,36,-46v23,0,36,16,36,46r0,462v0,20,-16,36,-36,36v-20,0,-36,-16,-36,-36v-74,48,-198,54,-258,-20r-2,0r0,220v0,30,-13,46,-36,46v-23,0,-36,-16,-36,-46","w":536},"\u00c1":{"d":"133,-155r-47,128v-9,18,-15,33,-40,33v-36,-1,-35,-30,-25,-58r229,-614v9,-23,20,-52,56,-52v36,0,47,29,56,52r229,614v12,27,11,57,-25,58v-25,0,-33,-15,-40,-33r-47,-128r-346,0xm455,-221r-148,-403r-2,0r-148,403r298,0xm224,-829v55,-18,105,-46,164,-59v31,8,47,51,0,67v-55,18,-105,46,-164,59v-31,-8,-47,-51,0,-67","w":612},"\u00c2":{"d":"133,-155r-47,128v-9,18,-15,33,-40,33v-36,-1,-35,-30,-25,-58r229,-614v9,-23,20,-52,56,-52v36,0,47,29,56,52r229,614v12,27,11,57,-25,58v-25,0,-33,-15,-40,-33r-47,-128r-346,0xm455,-221r-148,-403r-2,0r-148,403r298,0xm306,-874r127,49v28,11,29,26,29,37v0,25,-33,35,-56,25r-100,-45v-43,16,-74,42,-126,50v-37,-7,-46,-50,-1,-67","w":612},"\u00c4":{"d":"133,-155r-47,128v-9,18,-15,33,-40,33v-36,-1,-35,-30,-25,-58r229,-614v9,-23,20,-52,56,-52v36,0,47,29,56,52r229,614v12,27,11,57,-25,58v-25,0,-33,-15,-40,-33r-47,-128r-346,0xm455,-221r-148,-403r-2,0r-148,403r298,0xm168,-800v0,-27,22,-49,49,-49v27,0,49,22,49,49v0,27,-22,49,-49,49v-27,0,-49,-22,-49,-49xm346,-800v0,-27,22,-49,49,-49v27,0,49,22,49,49v0,27,-22,49,-49,49v-27,0,-49,-22,-49,-49","w":612},"\u00c0":{"d":"133,-155r-47,128v-9,18,-15,33,-40,33v-36,-1,-35,-30,-25,-58r229,-614v9,-23,20,-52,56,-52v36,0,47,29,56,52r229,614v12,27,11,57,-25,58v-25,0,-33,-15,-40,-33r-47,-128r-346,0xm455,-221r-148,-403r-2,0r-148,403r298,0xm388,-762v-58,-12,-110,-41,-164,-59v-28,-10,-28,-23,-28,-33v1,-26,23,-40,54,-28r138,53v28,10,28,23,28,33v0,15,-11,34,-28,34","w":612},"\u00c5":{"d":"133,-155r-47,128v-9,18,-15,33,-40,33v-36,-1,-35,-30,-25,-58r229,-614v9,-23,20,-52,56,-52v36,0,47,29,56,52r229,614v12,27,11,57,-25,58v-25,0,-33,-15,-40,-33r-47,-128r-346,0xm455,-221r-148,-403r-2,0r-148,403r298,0xm213,-829v0,-51,42,-93,93,-93v51,0,93,42,93,93v0,51,-42,93,-93,93v-51,0,-93,-42,-93,-93xm255,-829v0,28,23,51,51,51v28,0,51,-23,51,-51v0,-28,-23,-51,-51,-51v-28,0,-51,23,-51,51","w":612},"\u00c3":{"d":"133,-155r-47,128v-9,18,-15,33,-40,33v-36,-1,-35,-30,-25,-58r229,-614v9,-23,20,-52,56,-52v36,0,47,29,56,52r229,614v12,27,11,57,-25,58v-25,0,-33,-15,-40,-33r-47,-128r-346,0xm455,-221r-148,-403r-2,0r-148,403r298,0xm246,-800v-27,0,-31,24,-55,24v-19,0,-29,-10,-29,-27v0,-32,38,-63,80,-63v43,0,83,27,124,27v27,0,31,-25,55,-25v19,0,29,10,29,33v0,26,-38,57,-80,57v-43,0,-83,-26,-124,-26","w":612},"\u00c9":{"d":"138,-322r0,256r218,0v23,0,38,15,38,33v0,18,-15,33,-38,33r-246,0v-32,0,-44,-13,-44,-38r0,-636v0,-25,12,-38,44,-38r236,0v23,0,38,15,38,33v0,18,-15,33,-38,33r-207,0r0,258r198,0v23,0,38,15,38,33v0,18,-15,33,-38,33r-199,0xm140,-829v55,-18,105,-46,164,-59v31,8,47,51,0,67v-55,18,-105,46,-164,59v-31,-8,-47,-51,0,-67","w":444},"\u00ca":{"d":"138,-322r0,256r218,0v23,0,38,15,38,33v0,18,-15,33,-38,33r-246,0v-32,0,-44,-13,-44,-38r0,-636v0,-25,12,-38,44,-38r236,0v23,0,38,15,38,33v0,18,-15,33,-38,33r-207,0r0,258r198,0v23,0,38,15,38,33v0,18,-15,33,-38,33r-199,0xm222,-874r127,49v28,11,29,26,29,37v0,25,-33,35,-56,25r-100,-45v-43,16,-74,42,-126,50v-37,-7,-46,-50,-1,-67","w":444},"\u00cb":{"d":"138,-322r0,256r218,0v23,0,38,15,38,33v0,18,-15,33,-38,33r-246,0v-32,0,-44,-13,-44,-38r0,-636v0,-25,12,-38,44,-38r236,0v23,0,38,15,38,33v0,18,-15,33,-38,33r-207,0r0,258r198,0v23,0,38,15,38,33v0,18,-15,33,-38,33r-199,0xm84,-800v0,-27,22,-49,49,-49v27,0,49,22,49,49v0,27,-22,49,-49,49v-27,0,-49,-22,-49,-49xm262,-800v0,-27,22,-49,49,-49v27,0,49,22,49,49v0,27,-22,49,-49,49v-27,0,-49,-22,-49,-49","w":444},"\u00c8":{"d":"138,-322r0,256r218,0v23,0,38,15,38,33v0,18,-15,33,-38,33r-246,0v-32,0,-44,-13,-44,-38r0,-636v0,-25,12,-38,44,-38r236,0v23,0,38,15,38,33v0,18,-15,33,-38,33r-207,0r0,258r198,0v23,0,38,15,38,33v0,18,-15,33,-38,33r-199,0xm304,-762v-58,-12,-110,-41,-164,-59v-28,-10,-28,-23,-28,-33v1,-26,23,-40,54,-28r138,53v28,10,28,23,28,33v0,15,-11,34,-28,34","w":444},"\u00cd":{"d":"138,-672r0,632v0,30,-13,46,-36,46v-23,0,-36,-16,-36,-46r0,-632v0,-30,13,-46,36,-46v23,0,36,16,36,46xm20,-829v55,-18,105,-46,164,-59v31,8,47,51,0,67v-55,18,-105,46,-164,59v-31,-8,-47,-51,0,-67"},"\u00ce":{"d":"138,-672r0,632v0,30,-13,46,-36,46v-23,0,-36,-16,-36,-46r0,-632v0,-30,13,-46,36,-46v23,0,36,16,36,46xm102,-874r127,49v28,11,29,26,29,37v0,25,-33,35,-56,25r-100,-45v-43,16,-74,42,-126,50v-37,-7,-46,-50,-1,-67"},"\u00cf":{"d":"138,-672r0,632v0,30,-13,46,-36,46v-23,0,-36,-16,-36,-46r0,-632v0,-30,13,-46,36,-46v23,0,36,16,36,46xm-36,-800v0,-27,22,-49,49,-49v27,0,49,22,49,49v0,27,-22,49,-49,49v-27,0,-49,-22,-49,-49xm142,-800v0,-27,22,-49,49,-49v27,0,49,22,49,49v0,27,-22,49,-49,49v-27,0,-49,-22,-49,-49"},"\u00cc":{"d":"138,-672r0,632v0,30,-13,46,-36,46v-23,0,-36,-16,-36,-46r0,-632v0,-30,13,-46,36,-46v23,0,36,16,36,46xm184,-762v-58,-12,-110,-41,-164,-59v-28,-10,-28,-23,-28,-33v1,-26,23,-40,54,-28r138,53v28,10,28,23,28,33v0,15,-11,34,-28,34"},"\u00d1":{"d":"138,-586r0,546v0,30,-13,46,-36,46v-23,0,-36,-16,-36,-46r0,-636v-1,-55,57,-47,78,-16r382,559r2,0r0,-539v0,-30,13,-46,36,-46v23,0,36,16,36,46r0,634v1,60,-51,50,-73,18r-387,-566r-2,0xm273,-800v-27,0,-31,24,-55,24v-19,0,-29,-10,-29,-27v0,-32,38,-63,80,-63v43,0,83,27,124,27v27,0,31,-25,55,-25v19,0,29,10,29,33v0,26,-38,57,-80,57v-43,0,-83,-26,-124,-26","w":666},"\u00d3":{"d":"40,-356v0,-181,101,-362,302,-362v201,0,302,181,302,362v0,181,-101,362,-302,362v-201,0,-302,-181,-302,-362xm342,-60v167,0,224,-162,224,-296v0,-134,-57,-296,-224,-296v-167,0,-224,162,-224,296v0,134,57,296,224,296xm260,-829v55,-18,105,-46,164,-59v31,8,47,51,0,67v-55,18,-105,46,-164,59v-31,-8,-47,-51,0,-67","w":684},"\u00d4":{"d":"40,-356v0,-181,101,-362,302,-362v201,0,302,181,302,362v0,181,-101,362,-302,362v-201,0,-302,-181,-302,-362xm342,-60v167,0,224,-162,224,-296v0,-134,-57,-296,-224,-296v-167,0,-224,162,-224,296v0,134,57,296,224,296xm342,-874r127,49v28,11,29,26,29,37v0,25,-33,35,-56,25r-100,-45v-43,16,-74,42,-126,50v-37,-7,-46,-50,-1,-67","w":684},"\u00d6":{"d":"40,-356v0,-181,101,-362,302,-362v201,0,302,181,302,362v0,181,-101,362,-302,362v-201,0,-302,-181,-302,-362xm342,-60v167,0,224,-162,224,-296v0,-134,-57,-296,-224,-296v-167,0,-224,162,-224,296v0,134,57,296,224,296xm204,-800v0,-27,22,-49,49,-49v27,0,49,22,49,49v0,27,-22,49,-49,49v-27,0,-49,-22,-49,-49xm382,-800v0,-27,22,-49,49,-49v27,0,49,22,49,49v0,27,-22,49,-49,49v-27,0,-49,-22,-49,-49","w":684},"\u00d2":{"d":"40,-356v0,-181,101,-362,302,-362v201,0,302,181,302,362v0,181,-101,362,-302,362v-201,0,-302,-181,-302,-362xm342,-60v167,0,224,-162,224,-296v0,-134,-57,-296,-224,-296v-167,0,-224,162,-224,296v0,134,57,296,224,296xm424,-762v-58,-12,-110,-41,-164,-59v-28,-10,-28,-23,-28,-33v1,-26,23,-40,54,-28r138,53v28,10,28,23,28,33v0,15,-11,34,-28,34","w":684},"\u00d5":{"d":"40,-356v0,-181,101,-362,302,-362v201,0,302,181,302,362v0,181,-101,362,-302,362v-201,0,-302,-181,-302,-362xm342,-60v167,0,224,-162,224,-296v0,-134,-57,-296,-224,-296v-167,0,-224,162,-224,296v0,134,57,296,224,296xm282,-800v-27,0,-31,24,-55,24v-19,0,-29,-10,-29,-27v0,-32,38,-63,80,-63v43,0,83,27,124,27v27,0,31,-25,55,-25v19,0,29,10,29,33v0,26,-38,57,-80,57v-43,0,-83,-26,-124,-26","w":684},"\u0160":{"d":"54,-114v43,15,69,54,152,54v100,0,164,-80,164,-155v0,-171,-338,-105,-338,-321v0,-115,98,-182,206,-182v78,0,162,44,162,78v0,22,-17,38,-30,38v-37,0,-61,-50,-137,-50v-75,0,-129,52,-129,111v0,157,338,93,338,321v0,129,-89,226,-226,226v-118,0,-196,-46,-196,-85v0,-19,15,-35,34,-35xm231,-758r-127,-49v-28,-11,-29,-26,-29,-37v0,-25,33,-35,56,-25r100,45v43,-16,74,-42,126,-50v37,7,46,50,1,67","w":462},"\u00da":{"d":"66,-242r0,-430v0,-30,13,-46,36,-46v23,0,36,16,36,46r0,421v0,131,95,191,195,191v100,0,195,-60,195,-191r0,-421v0,-30,13,-46,36,-46v23,0,36,16,36,46r0,430v0,164,-129,248,-267,248v-138,0,-267,-84,-267,-248xm251,-829v55,-18,105,-46,164,-59v31,8,47,51,0,67v-55,18,-105,46,-164,59v-31,-8,-47,-51,0,-67","w":666},"\u00db":{"d":"66,-242r0,-430v0,-30,13,-46,36,-46v23,0,36,16,36,46r0,421v0,131,95,191,195,191v100,0,195,-60,195,-191r0,-421v0,-30,13,-46,36,-46v23,0,36,16,36,46r0,430v0,164,-129,248,-267,248v-138,0,-267,-84,-267,-248xm333,-874r127,49v28,11,29,26,29,37v0,25,-33,35,-56,25r-100,-45v-43,16,-74,42,-126,50v-37,-7,-46,-50,-1,-67","w":666},"\u00dc":{"d":"66,-242r0,-430v0,-30,13,-46,36,-46v23,0,36,16,36,46r0,421v0,131,95,191,195,191v100,0,195,-60,195,-191r0,-421v0,-30,13,-46,36,-46v23,0,36,16,36,46r0,430v0,164,-129,248,-267,248v-138,0,-267,-84,-267,-248xm195,-800v0,-27,22,-49,49,-49v27,0,49,22,49,49v0,27,-22,49,-49,49v-27,0,-49,-22,-49,-49xm373,-800v0,-27,22,-49,49,-49v27,0,49,22,49,49v0,27,-22,49,-49,49v-27,0,-49,-22,-49,-49","w":666},"\u00d9":{"d":"66,-242r0,-430v0,-30,13,-46,36,-46v23,0,36,16,36,46r0,421v0,131,95,191,195,191v100,0,195,-60,195,-191r0,-421v0,-30,13,-46,36,-46v23,0,36,16,36,46r0,430v0,164,-129,248,-267,248v-138,0,-267,-84,-267,-248xm415,-762v-58,-12,-110,-41,-164,-59v-28,-10,-28,-23,-28,-33v1,-26,23,-40,54,-28r138,53v28,10,28,23,28,33v0,15,-11,34,-28,34","w":666},"\u00dd":{"d":"241,-407r174,-290v12,-31,67,-26,66,7v0,9,-4,20,-22,50r-182,303r0,297v0,30,-13,46,-36,46v-23,0,-36,-16,-36,-46r0,-297r-182,-303v-18,-30,-22,-41,-22,-50v-2,-33,49,-36,66,-7xm159,-829v55,-18,105,-46,164,-59v31,8,47,51,0,67v-55,18,-105,46,-164,59v-31,-8,-47,-51,0,-67","w":482},"\u0178":{"d":"241,-407r174,-290v12,-31,67,-26,66,7v0,9,-4,20,-22,50r-182,303r0,297v0,30,-13,46,-36,46v-23,0,-36,-16,-36,-46r0,-297r-182,-303v-18,-30,-22,-41,-22,-50v-2,-33,49,-36,66,-7xm103,-800v0,-27,22,-49,49,-49v27,0,49,22,49,49v0,27,-22,49,-49,49v-27,0,-49,-22,-49,-49xm281,-800v0,-27,22,-49,49,-49v27,0,49,22,49,49v0,27,-22,49,-49,49v-27,0,-49,-22,-49,-49","w":482},"\u017d":{"d":"118,-66r372,0v23,0,38,15,38,33v0,18,-15,33,-38,33r-402,0v-79,-8,-68,-46,-31,-102r357,-544r-334,0v-23,0,-38,-15,-38,-33v0,-18,15,-33,38,-33r401,0v45,3,38,36,20,63xm278,-758r-127,-49v-28,-11,-29,-26,-29,-37v0,-25,33,-35,56,-25r100,45v43,-16,74,-42,126,-50v37,7,46,50,1,67","w":556},"\u00e1":{"d":"418,-459v-2,-39,1,-79,36,-79v23,0,36,16,36,46r0,452v0,30,-13,46,-36,46v-35,0,-38,-40,-36,-79r-3,0v-32,52,-85,79,-147,79v-153,0,-229,-122,-229,-272v0,-134,73,-272,227,-272v62,0,108,26,149,79r3,0xm117,-266v0,97,39,212,151,212v112,0,150,-115,150,-212v0,-97,-38,-212,-150,-212v-109,0,-151,115,-151,212xm196,-669v55,-18,105,-46,164,-59v31,8,47,51,0,67v-55,18,-105,46,-164,59v-31,-8,-47,-51,0,-67","w":556},"\u00e2":{"d":"418,-459v-2,-39,1,-79,36,-79v23,0,36,16,36,46r0,452v0,30,-13,46,-36,46v-35,0,-38,-40,-36,-79r-3,0v-32,52,-85,79,-147,79v-153,0,-229,-122,-229,-272v0,-134,73,-272,227,-272v62,0,108,26,149,79r3,0xm117,-266v0,97,39,212,151,212v112,0,150,-115,150,-212v0,-97,-38,-212,-150,-212v-109,0,-151,115,-151,212xm278,-714r127,49v28,11,29,26,29,37v0,25,-33,35,-56,25r-100,-45v-43,16,-74,42,-126,50v-37,-7,-46,-50,-1,-67","w":556},"\u00e4":{"d":"418,-459v-2,-39,1,-79,36,-79v23,0,36,16,36,46r0,452v0,30,-13,46,-36,46v-35,0,-38,-40,-36,-79r-3,0v-32,52,-85,79,-147,79v-153,0,-229,-122,-229,-272v0,-134,73,-272,227,-272v62,0,108,26,149,79r3,0xm117,-266v0,97,39,212,151,212v112,0,150,-115,150,-212v0,-97,-38,-212,-150,-212v-109,0,-151,115,-151,212xm140,-640v0,-27,22,-49,49,-49v27,0,49,22,49,49v0,27,-22,49,-49,49v-27,0,-49,-22,-49,-49xm318,-640v0,-27,22,-49,49,-49v27,0,49,22,49,49v0,27,-22,49,-49,49v-27,0,-49,-22,-49,-49","w":556},"\u00e0":{"d":"418,-459v-2,-39,1,-79,36,-79v23,0,36,16,36,46r0,452v0,30,-13,46,-36,46v-35,0,-38,-40,-36,-79r-3,0v-32,52,-85,79,-147,79v-153,0,-229,-122,-229,-272v0,-134,73,-272,227,-272v62,0,108,26,149,79r3,0xm117,-266v0,97,39,212,151,212v112,0,150,-115,150,-212v0,-97,-38,-212,-150,-212v-109,0,-151,115,-151,212xm360,-602v-58,-12,-110,-41,-164,-59v-28,-10,-28,-23,-28,-33v1,-26,23,-40,54,-28r138,53v28,10,28,23,28,33v0,15,-11,34,-28,34","w":556},"\u00e5":{"d":"418,-459v-2,-39,1,-79,36,-79v23,0,36,16,36,46r0,452v0,30,-13,46,-36,46v-35,0,-38,-40,-36,-79r-3,0v-32,52,-85,79,-147,79v-153,0,-229,-122,-229,-272v0,-134,73,-272,227,-272v62,0,108,26,149,79r3,0xm117,-266v0,97,39,212,151,212v112,0,150,-115,150,-212v0,-97,-38,-212,-150,-212v-109,0,-151,115,-151,212xm185,-679v0,-51,42,-93,93,-93v51,0,93,42,93,93v0,51,-42,93,-93,93v-51,0,-93,-42,-93,-93xm227,-679v0,28,23,51,51,51v28,0,51,-23,51,-51v0,-28,-23,-51,-51,-51v-28,0,-51,23,-51,51","w":556},"\u00e3":{"d":"418,-459v-2,-39,1,-79,36,-79v23,0,36,16,36,46r0,452v0,30,-13,46,-36,46v-35,0,-38,-40,-36,-79r-3,0v-32,52,-85,79,-147,79v-153,0,-229,-122,-229,-272v0,-134,73,-272,227,-272v62,0,108,26,149,79r3,0xm117,-266v0,97,39,212,151,212v112,0,150,-115,150,-212v0,-97,-38,-212,-150,-212v-109,0,-151,115,-151,212xm218,-640v-27,0,-31,24,-55,24v-19,0,-29,-10,-29,-27v0,-32,38,-63,80,-63v43,0,83,27,124,27v27,0,31,-25,55,-25v19,0,29,10,29,33v0,26,-38,57,-80,57v-43,0,-83,-26,-124,-26","w":556},"\u00e9":{"d":"446,-234r-329,0v3,93,66,180,158,180v114,0,144,-82,178,-82v20,0,34,7,34,35v0,32,-83,107,-207,107v-170,0,-241,-138,-241,-272v0,-134,79,-272,229,-272v150,0,227,126,227,260v0,19,-6,44,-49,44xm117,-294r300,0v-3,-89,-53,-184,-150,-184v-97,0,-147,95,-150,184xm178,-669v55,-18,105,-46,164,-59v31,8,47,51,0,67v-55,18,-105,46,-164,59v-31,-8,-47,-51,0,-67","w":519},"\u00ea":{"d":"446,-234r-329,0v3,93,66,180,158,180v114,0,144,-82,178,-82v20,0,34,7,34,35v0,32,-83,107,-207,107v-170,0,-241,-138,-241,-272v0,-134,79,-272,229,-272v150,0,227,126,227,260v0,19,-6,44,-49,44xm117,-294r300,0v-3,-89,-53,-184,-150,-184v-97,0,-147,95,-150,184xm260,-714r127,49v28,11,29,26,29,37v0,25,-33,35,-56,25r-100,-45v-43,16,-74,42,-126,50v-37,-7,-46,-50,-1,-67","w":519},"\u00eb":{"d":"446,-234r-329,0v3,93,66,180,158,180v114,0,144,-82,178,-82v20,0,34,7,34,35v0,32,-83,107,-207,107v-170,0,-241,-138,-241,-272v0,-134,79,-272,229,-272v150,0,227,126,227,260v0,19,-6,44,-49,44xm117,-294r300,0v-3,-89,-53,-184,-150,-184v-97,0,-147,95,-150,184xm122,-640v0,-27,22,-49,49,-49v27,0,49,22,49,49v0,27,-22,49,-49,49v-27,0,-49,-22,-49,-49xm300,-640v0,-27,22,-49,49,-49v27,0,49,22,49,49v0,27,-22,49,-49,49v-27,0,-49,-22,-49,-49","w":519},"\u00e8":{"d":"446,-234r-329,0v3,93,66,180,158,180v114,0,144,-82,178,-82v20,0,34,7,34,35v0,32,-83,107,-207,107v-170,0,-241,-138,-241,-272v0,-134,79,-272,229,-272v150,0,227,126,227,260v0,19,-6,44,-49,44xm117,-294r300,0v-3,-89,-53,-184,-150,-184v-97,0,-147,95,-150,184xm342,-602v-58,-12,-110,-41,-164,-59v-28,-10,-28,-23,-28,-33v1,-26,23,-40,54,-28r138,53v28,10,28,23,28,33v0,15,-11,34,-28,34","w":519},"\u00ed":{"d":"138,-492r0,452v0,30,-13,46,-36,46v-23,0,-36,-16,-36,-46r0,-452v0,-30,13,-46,36,-46v23,0,36,16,36,46xm20,-669v55,-18,105,-46,164,-59v31,8,47,51,0,67v-55,18,-105,46,-164,59v-31,-8,-47,-51,0,-67"},"\u00ee":{"d":"138,-492r0,452v0,30,-13,46,-36,46v-23,0,-36,-16,-36,-46r0,-452v0,-30,13,-46,36,-46v23,0,36,16,36,46xm102,-714r127,49v28,11,29,26,29,37v0,25,-33,35,-56,25r-100,-45v-43,16,-74,42,-126,50v-37,-7,-46,-50,-1,-67"},"\u00ef":{"d":"138,-492r0,452v0,30,-13,46,-36,46v-23,0,-36,-16,-36,-46r0,-452v0,-30,13,-46,36,-46v23,0,36,16,36,46xm-36,-640v0,-27,22,-49,49,-49v27,0,49,22,49,49v0,27,-22,49,-49,49v-27,0,-49,-22,-49,-49xm142,-640v0,-27,22,-49,49,-49v27,0,49,22,49,49v0,27,-22,49,-49,49v-27,0,-49,-22,-49,-49"},"\u00ec":{"d":"138,-492r0,452v0,30,-13,46,-36,46v-23,0,-36,-16,-36,-46r0,-452v0,-30,13,-46,36,-46v23,0,36,16,36,46xm184,-602v-58,-12,-110,-41,-164,-59v-28,-10,-28,-23,-28,-33v1,-26,23,-40,54,-28r138,53v28,10,28,23,28,33v0,15,-11,34,-28,34"},"\u00f1":{"d":"138,-333r0,293v0,30,-13,46,-36,46v-23,0,-36,-16,-36,-46r0,-452v0,-30,13,-46,36,-46v35,0,35,40,38,72v27,-39,71,-72,139,-72v94,0,191,63,191,190r0,308v0,30,-13,46,-36,46v-23,0,-36,-16,-36,-46r0,-310v0,-74,-50,-122,-130,-122v-67,0,-130,48,-130,139xm208,-640v-27,0,-31,24,-55,24v-19,0,-29,-10,-29,-27v0,-32,38,-63,80,-63v43,0,83,27,124,27v27,0,31,-25,55,-25v19,0,29,10,29,33v0,26,-38,57,-80,57v-43,0,-83,-26,-124,-26","w":536},"\u00f3":{"d":"117,-266v0,97,39,212,151,212v112,0,151,-115,151,-212v0,-97,-39,-212,-151,-212v-112,0,-151,115,-151,212xm497,-266v0,150,-76,272,-229,272v-153,0,-229,-122,-229,-272v0,-134,73,-272,229,-272v157,0,229,138,229,272xm186,-669v55,-18,105,-46,164,-59v31,8,47,51,0,67v-55,18,-105,46,-164,59v-31,-8,-47,-51,0,-67","w":536},"\u00f4":{"d":"117,-266v0,97,39,212,151,212v112,0,151,-115,151,-212v0,-97,-39,-212,-151,-212v-112,0,-151,115,-151,212xm497,-266v0,150,-76,272,-229,272v-153,0,-229,-122,-229,-272v0,-134,73,-272,229,-272v157,0,229,138,229,272xm268,-714r127,49v28,11,29,26,29,37v0,25,-33,35,-56,25r-100,-45v-43,16,-74,42,-126,50v-37,-7,-46,-50,-1,-67","w":536},"\u00f6":{"d":"117,-266v0,97,39,212,151,212v112,0,151,-115,151,-212v0,-97,-39,-212,-151,-212v-112,0,-151,115,-151,212xm497,-266v0,150,-76,272,-229,272v-153,0,-229,-122,-229,-272v0,-134,73,-272,229,-272v157,0,229,138,229,272xm130,-640v0,-27,22,-49,49,-49v27,0,49,22,49,49v0,27,-22,49,-49,49v-27,0,-49,-22,-49,-49xm308,-640v0,-27,22,-49,49,-49v27,0,49,22,49,49v0,27,-22,49,-49,49v-27,0,-49,-22,-49,-49","w":536},"\u00f2":{"d":"117,-266v0,97,39,212,151,212v112,0,151,-115,151,-212v0,-97,-39,-212,-151,-212v-112,0,-151,115,-151,212xm497,-266v0,150,-76,272,-229,272v-153,0,-229,-122,-229,-272v0,-134,73,-272,229,-272v157,0,229,138,229,272xm350,-602v-58,-12,-110,-41,-164,-59v-28,-10,-28,-23,-28,-33v1,-26,23,-40,54,-28r138,53v28,10,28,23,28,33v0,15,-11,34,-28,34","w":536},"\u00f5":{"d":"117,-266v0,97,39,212,151,212v112,0,151,-115,151,-212v0,-97,-39,-212,-151,-212v-112,0,-151,115,-151,212xm497,-266v0,150,-76,272,-229,272v-153,0,-229,-122,-229,-272v0,-134,73,-272,229,-272v157,0,229,138,229,272xm208,-640v-27,0,-31,24,-55,24v-19,0,-29,-10,-29,-27v0,-32,38,-63,80,-63v43,0,83,27,124,27v27,0,31,-25,55,-25v19,0,29,10,29,33v0,26,-38,57,-80,57v-43,0,-83,-26,-124,-26","w":536},"\u0161":{"d":"211,-538v104,0,190,44,188,82v0,16,-6,35,-36,35v-28,0,-65,-57,-137,-57v-50,0,-104,24,-104,75v0,24,14,47,49,63v96,43,241,64,242,192v0,94,-84,154,-196,154v-116,0,-192,-67,-192,-101v0,-11,16,-35,34,-35v34,0,67,76,161,76v69,0,115,-41,115,-91v0,-47,-36,-64,-74,-82v-84,-41,-216,-52,-217,-171v0,-87,86,-140,167,-140xm222,-598r-127,-49v-28,-11,-29,-26,-29,-37v0,-25,33,-35,56,-25r100,45v43,-16,74,-42,126,-50v37,7,46,50,1,67","w":444},"\u00fa":{"d":"66,-175r0,-317v0,-30,13,-46,36,-46v23,0,36,16,36,46r0,299v0,91,49,139,130,139v81,0,130,-48,130,-139r0,-299v0,-30,13,-46,36,-46v23,0,36,16,36,46r0,317v0,115,-88,181,-202,181v-114,0,-202,-66,-202,-181xm186,-669v55,-18,105,-46,164,-59v31,8,47,51,0,67v-55,18,-105,46,-164,59v-31,-8,-47,-51,0,-67","w":536},"\u00fb":{"d":"66,-175r0,-317v0,-30,13,-46,36,-46v23,0,36,16,36,46r0,299v0,91,49,139,130,139v81,0,130,-48,130,-139r0,-299v0,-30,13,-46,36,-46v23,0,36,16,36,46r0,317v0,115,-88,181,-202,181v-114,0,-202,-66,-202,-181xm268,-714r127,49v28,11,29,26,29,37v0,25,-33,35,-56,25r-100,-45v-43,16,-74,42,-126,50v-37,-7,-46,-50,-1,-67","w":536},"\u00fc":{"d":"66,-175r0,-317v0,-30,13,-46,36,-46v23,0,36,16,36,46r0,299v0,91,49,139,130,139v81,0,130,-48,130,-139r0,-299v0,-30,13,-46,36,-46v23,0,36,16,36,46r0,317v0,115,-88,181,-202,181v-114,0,-202,-66,-202,-181xm130,-640v0,-27,22,-49,49,-49v27,0,49,22,49,49v0,27,-22,49,-49,49v-27,0,-49,-22,-49,-49xm308,-640v0,-27,22,-49,49,-49v27,0,49,22,49,49v0,27,-22,49,-49,49v-27,0,-49,-22,-49,-49","w":536},"\u00f9":{"d":"66,-175r0,-317v0,-30,13,-46,36,-46v23,0,36,16,36,46r0,299v0,91,49,139,130,139v81,0,130,-48,130,-139r0,-299v0,-30,13,-46,36,-46v23,0,36,16,36,46r0,317v0,115,-88,181,-202,181v-114,0,-202,-66,-202,-181xm350,-602v-58,-12,-110,-41,-164,-59v-28,-10,-28,-23,-28,-33v1,-26,23,-40,54,-28r138,53v28,10,28,23,28,33v0,15,-11,34,-28,34","w":536},"\u00fd":{"d":"179,-14r-163,-470v-11,-26,1,-53,29,-54v20,0,31,12,38,33r129,386r2,0r129,-386v6,-43,71,-42,71,0v0,6,-1,13,-4,21r-230,664v-5,46,-70,45,-72,6v15,-74,49,-133,71,-200xm131,-669v55,-18,105,-46,164,-59v31,8,47,51,0,67v-55,18,-105,46,-164,59v-31,-8,-47,-51,0,-67","w":426},"\u00ff":{"d":"179,-14r-163,-470v-11,-26,1,-53,29,-54v20,0,31,12,38,33r129,386r2,0r129,-386v6,-43,71,-42,71,0v0,6,-1,13,-4,21r-230,664v-5,46,-70,45,-72,6v15,-74,49,-133,71,-200xm75,-640v0,-27,22,-49,49,-49v27,0,49,22,49,49v0,27,-22,49,-49,49v-27,0,-49,-22,-49,-49xm253,-640v0,-27,22,-49,49,-49v27,0,49,22,49,49v0,27,-22,49,-49,49v-27,0,-49,-22,-49,-49","w":426},"\u017e":{"d":"388,-461r-267,395r258,0v23,0,38,15,38,33v0,18,-15,33,-38,33r-309,0v-61,-5,-45,-41,-26,-71r267,-395r-234,0v-23,0,-38,-15,-38,-33v0,-18,15,-33,38,-33r287,0v55,-1,43,42,24,71xm222,-598r-127,-49v-28,-11,-29,-26,-29,-37v0,-25,33,-35,56,-25r100,45v43,-16,74,-42,126,-50v37,7,46,50,1,67","w":444},"\u00a0":{"w":240}}});
