/*!
 * The following copyright notice may not be removed under any circumstances.
 * 
 * Copyright:
 *  The digitally encoded machine readable software for producing the Typefaces
 * licensed to you is copyrighted (c) 1989, 1995 Adobe Systems. All Rights
 * Reserved. This software is the property of Adobe Systems Incorporated and its
 * licensors, and may not be reproduced, used,  displayed, modified, disclosed or
 * transferred without the express  written approval of Adobe.  The digitally
 * encoded machine readable outline data for producing the Typefaces licensed to
 * you is copyrighted (c) 1981 Linotype-Hell AG and/or its subsidiaries. All
 * Rights Reserved. This data is the property of Linotype-Hell AG and/or its
 * subsidiaries and may not be reproduced, used, displayed, modified, disclosed or
 *  transferred without the express written approval of Linotype-Hell AG  and/or
 * its subsidiaries.
 */
Cufon.registerFont({"w":574,"face":{"font-family":"VAG Rounded","font-weight":700,"font-stretch":"normal","units-per-em":"1000","panose-1":"2 0 8 3 0 0 0 0 0 0","ascent":"800","descent":"-200","x-height":"12","cap-height":"6","bbox":"-29 -810 899.171 310","underline-thickness":"50","underline-position":"-100","stemh":"138","stemv":"144","unicode-range":"U+0020-U+007E"},"glyphs":{" ":{"w":268},"!":{"d":"95,-271r0,-385v0,-42,31,-68,72,-68v40,0,72,27,72,68r0,385v0,41,-32,68,-72,68v-41,0,-72,-26,-72,-68xm167,12v-43,0,-78,-35,-78,-78v0,-43,35,-78,78,-78v43,0,78,35,78,78v0,43,-35,78,-78,78","w":334},"\"":{"d":"253,-494r0,-170v0,-36,23,-60,60,-60v37,0,60,24,60,60r0,170v0,36,-23,60,-60,60v-37,0,-60,-24,-60,-60xm71,-494r0,-170v0,-36,23,-60,60,-60v37,0,60,24,60,60r0,170v0,36,-23,60,-60,60v-37,0,-60,-24,-60,-60","w":444},"#":{"d":"148,-299r16,-114r-86,0v-65,0,-64,-96,0,-96r100,0r22,-161v-1,-65,96,-61,96,-8v0,47,-15,113,-22,169r96,0r22,-161v-1,-65,96,-61,96,-8v0,47,-15,113,-22,169r86,0v65,0,64,96,0,96r-100,0r-16,114r86,0v65,0,64,96,0,96r-100,0r-22,161v1,65,-96,61,-96,8v0,-47,15,-113,22,-169r-96,0r-22,161v1,65,-96,61,-96,8v0,-47,15,-113,22,-169r-86,0v-65,0,-64,-96,0,-96r100,0xm261,-413r-16,114r95,0r16,-114r-95,0","w":600},"$":{"d":"291,-283r0,146v42,-10,65,-42,65,-81v0,-33,-27,-52,-65,-65xm237,-462r0,-114v-30,8,-53,29,-53,61v0,26,21,41,53,53xm237,-133r0,-167v-95,-28,-215,-54,-215,-197v0,-128,96,-212,215,-225v2,-34,-10,-78,27,-78v37,0,24,44,27,78v60,2,175,26,175,98v0,39,-26,74,-67,74v-35,0,-63,-22,-108,-27r0,133v97,28,227,63,227,224v0,133,-102,219,-227,229v-2,34,11,79,-27,79v-37,0,-24,-45,-27,-78v-81,-2,-218,-24,-218,-110v0,-39,26,-71,67,-71v43,0,93,32,151,38","w":537},"%":{"d":"185,-503v33,0,52,-27,52,-59v0,-32,-19,-60,-52,-60v-33,0,-52,28,-52,60v0,32,19,59,52,59xm149,-74r331,-624v21,-59,105,-29,105,24v0,8,0,15,-8,30r-336,629v-15,21,-21,33,-45,33v-41,0,-68,-52,-47,-92xm185,-401v-89,0,-154,-74,-154,-161v0,-87,65,-162,154,-162v89,0,154,75,154,162v0,87,-65,161,-154,161xm537,12v-89,0,-154,-74,-154,-161v0,-87,65,-162,154,-162v89,0,154,75,154,162v0,87,-65,161,-154,161xm537,-90v33,0,52,-27,52,-59v0,-32,-19,-60,-52,-60v-33,0,-52,28,-52,60v0,32,19,59,52,59","w":722},"&":{"d":"399,-178r-145,-161v-45,29,-86,64,-86,121v0,63,43,98,104,98v54,0,89,-22,127,-58xm396,-392r105,116v31,-31,65,-91,115,-91v29,0,55,25,55,63v0,34,-50,91,-80,122r68,77v45,38,13,118,-48,117v-23,0,-38,-7,-53,-23r-69,-72v-65,57,-131,95,-220,95v-134,0,-245,-76,-245,-216v0,-99,69,-172,151,-217v-39,-39,-66,-79,-66,-135v0,-114,107,-168,210,-168v90,0,204,51,204,157v0,80,-63,142,-127,175xm385,-552v0,-45,-40,-58,-66,-58v-26,0,-60,20,-60,50v0,30,14,48,53,86v30,-15,73,-42,73,-78","w":704},"(":{"d":"236,-666v-33,115,-71,251,-71,381v0,97,14,204,46,296v5,13,25,69,25,79v0,38,-26,64,-64,64v-24,0,-40,-17,-52,-38v-53,-92,-81,-296,-81,-401v0,-94,31,-357,100,-426v33,-33,98,-2,97,45","w":241},")":{"d":"5,96v33,-115,71,-251,71,-381v0,-97,-14,-204,-46,-296v-5,-13,-25,-69,-25,-79v0,-38,26,-64,64,-64v24,0,40,17,52,38v53,92,81,296,81,401v0,94,-31,357,-100,426v-33,33,-98,2,-97,-45","w":241},"*":{"d":"194,-718v27,0,51,13,51,46v0,16,-6,42,-8,63v28,-20,48,-41,71,-41v30,0,52,29,52,58v0,38,-49,46,-80,62v31,15,80,23,80,61v0,29,-22,59,-52,59v-23,0,-43,-22,-71,-42v2,21,8,47,8,63v0,33,-24,46,-51,46v-27,0,-51,-13,-51,-46v0,-16,6,-42,8,-63v-29,20,-50,42,-72,42v-31,0,-50,-30,-50,-59v0,-38,49,-46,79,-61v-30,-16,-79,-24,-79,-62v0,-29,19,-58,50,-58v22,0,43,21,72,41v-2,-21,-8,-47,-8,-63v0,-33,24,-46,51,-46","w":389},"+":{"d":"240,-313v7,-81,-29,-205,60,-205v89,0,53,124,60,205v81,6,206,-29,205,60v0,36,-23,60,-60,60r-145,0v-7,81,29,205,-60,205v-89,0,-53,-124,-60,-205v-81,-6,-206,29,-205,-60v0,-36,23,-60,60,-60r145,0","w":600},",":{"d":"212,-90v-19,74,-65,127,-97,190v-31,61,-124,33,-125,-32v17,-75,63,-127,95,-190v32,-62,125,-33,127,32","w":268},"-":{"d":"88,-353r213,0v37,3,57,28,57,64v0,34,-20,62,-57,62r-213,0v-37,-3,-57,-28,-57,-62v0,-36,20,-64,57,-64","w":389},".":{"d":"56,-66v0,-43,35,-78,78,-78v43,0,78,35,78,78v0,43,-35,78,-78,78v-43,0,-78,-35,-78,-78","w":268},"\/":{"d":"17,-71r267,-616v9,-22,24,-37,56,-37v44,0,70,37,50,83r-266,616v-13,55,-120,44,-116,-18v0,-3,3,-14,9,-28","w":407},"0":{"d":"287,-124v102,0,109,-161,109,-232v0,-76,-7,-232,-109,-232v-102,0,-109,156,-109,232v0,71,7,232,109,232xm287,12v-202,0,-265,-205,-265,-368v0,-163,63,-368,265,-368v202,0,265,205,265,368v0,163,-63,368,-265,368"},"1":{"d":"152,-72r0,-502r-59,0v-94,0,-87,-138,0,-138r142,0v43,0,67,31,67,71r0,569v0,50,-32,78,-75,78v-43,0,-75,-28,-75,-78","w":370},"2":{"d":"268,-132r183,0v44,0,78,20,78,66v0,46,-34,66,-72,66r-334,0v-44,0,-78,-20,-78,-66v0,-21,13,-39,23,-51v83,-99,173,-189,249,-299v18,-26,35,-57,35,-93v0,-41,-31,-77,-72,-77v-115,0,-60,162,-156,162v-48,0,-73,-34,-73,-73v0,-126,112,-227,235,-227v123,0,222,81,222,208v0,139,-155,277,-240,384"},"3":{"d":"271,-724v227,0,277,235,131,336v72,33,122,100,122,179v0,120,-110,221,-252,221v-148,0,-240,-109,-240,-188v0,-39,41,-67,77,-67v68,0,52,117,165,117v52,0,94,-40,94,-93v0,-140,-170,-37,-170,-155v0,-105,142,-34,142,-145v0,-38,-27,-67,-72,-67v-95,0,-82,98,-150,98v-41,0,-65,-37,-65,-74v0,-78,107,-162,218,-162"},"4":{"d":"327,-157r-241,0v-71,0,-79,-62,-56,-103r224,-406v49,-96,217,-76,217,70r0,307v51,-4,87,20,87,66v0,46,-37,71,-87,66v0,79,13,163,-72,163v-85,0,-72,-84,-72,-163xm327,-289r0,-279r-2,0r-135,279r137,0"},"5":{"d":"250,-574r-15,106v154,-44,282,60,282,203v0,167,-92,277,-265,277v-71,0,-220,-46,-220,-134v0,-37,31,-68,68,-68v40,0,88,64,155,64v70,0,106,-68,106,-131v0,-60,-34,-101,-96,-101v-58,0,-67,33,-118,33v-55,0,-61,-36,-56,-81r25,-211v11,-78,30,-95,78,-95r241,0v46,0,73,27,73,63v0,69,-52,75,-70,75r-188,0"},"6":{"d":"287,12v-154,0,-251,-115,-251,-248v0,-151,153,-363,254,-457v12,-11,38,-31,62,-31v28,0,71,37,71,73v0,14,-9,26,-21,41v-40,49,-105,113,-138,160v16,1,42,-10,65,-10v120,0,209,106,209,224v0,130,-103,248,-251,248xm287,-340v-57,0,-95,45,-95,104v0,56,35,104,95,104v57,0,95,-46,95,-104v0,-53,-32,-104,-95,-104"},"7":{"d":"95,-100r250,-474r-256,0v-101,0,-101,-138,0,-138r362,0v83,12,79,78,49,138r-248,504v-28,56,-39,76,-84,76v-70,0,-100,-56,-73,-106","w":538},"8":{"d":"287,-326v-58,0,-91,44,-91,100v0,51,30,100,91,100v57,0,91,-49,91,-100v0,-63,-36,-100,-91,-100xm287,12v-138,0,-247,-94,-247,-228v0,-80,44,-139,107,-173v-47,-34,-76,-80,-76,-143v0,-117,97,-192,216,-192v116,0,217,74,217,192v0,56,-28,112,-77,143v68,34,107,96,107,173v0,139,-113,228,-247,228xm287,-592v-47,0,-72,33,-72,76v0,45,26,76,72,76v46,0,73,-31,73,-76v0,-43,-26,-76,-73,-76"},"9":{"d":"287,-724v154,0,251,115,251,248v0,151,-153,363,-254,457v-12,11,-38,31,-62,31v-28,0,-71,-37,-71,-73v0,-14,9,-26,21,-41v40,-49,105,-113,138,-160v-16,-1,-42,10,-65,10v-120,0,-209,-106,-209,-224v0,-130,103,-248,251,-248xm287,-372v57,0,95,-45,95,-104v0,-56,-35,-104,-95,-104v-57,0,-95,46,-95,104v0,53,32,104,95,104"},":":{"d":"56,-387v0,-43,35,-78,78,-78v43,0,78,35,78,78v0,43,-35,78,-78,78v-43,0,-78,-35,-78,-78xm56,-66v0,-43,35,-78,78,-78v43,0,78,35,78,78v0,43,-35,78,-78,78v-43,0,-78,-35,-78,-78","w":268},";":{"d":"85,-122v32,-62,125,-33,127,32v-19,74,-65,127,-97,190v-31,61,-124,33,-125,-32v17,-75,63,-127,95,-190xm56,-387v0,-43,35,-78,78,-78v43,0,78,35,78,78v0,43,-35,78,-78,78v-43,0,-78,-35,-78,-78","w":268},"<":{"d":"196,-253r333,139v62,17,35,118,-12,114v-9,0,-21,-1,-50,-14r-395,-182v-21,-9,-37,-26,-37,-57v0,-31,16,-48,37,-57r395,-181v29,-14,41,-15,50,-15v25,0,48,21,48,63v0,21,-8,39,-36,51","w":600},"=":{"d":"95,-425r410,0v37,0,60,24,60,60v0,36,-23,60,-60,60r-410,0v-37,0,-60,-24,-60,-60v0,-36,23,-60,60,-60xm95,-201r410,0v37,0,60,24,60,60v0,36,-23,60,-60,60r-410,0v-37,0,-60,-24,-60,-60v0,-36,23,-60,60,-60","w":600},">":{"d":"71,-114r333,-139r-333,-139v-62,-17,-35,-118,12,-114v9,0,21,1,50,15r395,181v21,9,37,26,37,57v0,31,-16,48,-37,57r-395,182v-29,13,-41,14,-50,14v-25,0,-48,-21,-48,-63v0,-21,8,-39,36,-51","w":600},"?":{"d":"147,-272r0,-100v0,-36,40,-42,81,-53v40,-11,80,-27,80,-85v0,-44,-41,-76,-83,-76v-84,0,-97,99,-161,99v-36,0,-61,-28,-61,-72v0,-105,132,-165,222,-165v129,0,239,80,239,214v0,111,-70,176,-173,202v7,62,-16,104,-72,105v-45,0,-72,-29,-72,-69xm219,12v-43,0,-78,-35,-78,-78v0,-43,35,-78,78,-78v43,0,78,35,78,78v0,43,-35,78,-78,78","w":481},"@":{"d":"359,-252v59,0,100,-52,100,-108v0,-45,-28,-85,-76,-85v-53,0,-94,57,-94,107v0,42,23,86,70,86xm400,-724v187,0,368,136,368,321v0,195,-208,253,-257,253v-54,0,-65,-26,-71,-49v-26,31,-65,49,-105,49v-85,0,-148,-88,-148,-174v0,-114,76,-223,195,-223v51,0,89,22,119,60v-2,-40,11,-59,56,-60v42,-1,50,25,42,60r-40,182v-4,20,-12,54,19,54v29,0,100,-44,100,-152v0,-143,-133,-231,-278,-231v-154,0,-278,124,-278,278v0,154,124,278,278,278v72,0,144,-13,208,-47v21,-11,48,-43,67,-43v16,0,37,6,37,37v0,19,-8,35,-27,54v-76,73,-182,89,-285,89v-203,0,-368,-165,-368,-368v0,-203,165,-368,368,-368","w":800},"A":{"d":"9,-97r201,-544v17,-46,56,-83,107,-83v53,0,90,35,107,83r196,544v25,55,-10,103,-61,103v-84,0,-77,-88,-103,-146r-278,0v-25,57,-20,144,-102,146v-52,1,-85,-53,-67,-103xm316,-568r-95,290r190,0r-93,-290r-2,0","w":630},"B":{"d":"45,-76r0,-561v0,-48,33,-75,79,-75r192,0v104,0,188,70,188,176v0,72,-33,115,-93,149v85,12,152,83,152,170v0,141,-94,217,-232,217r-206,0v-46,0,-80,-29,-80,-76xm195,-580r0,150r78,0v49,0,81,-29,81,-79v-1,-77,-81,-74,-159,-71xm195,-298r0,166r118,0v54,0,94,-31,94,-87v0,-47,-36,-79,-106,-79r-106,0"},"C":{"d":"17,-356v0,-208,140,-368,344,-368v73,0,215,24,215,112v0,36,-25,67,-62,67v-41,0,-69,-35,-153,-35v-124,0,-188,105,-188,227v0,119,65,221,188,221v84,0,118,-42,159,-42v45,0,66,45,66,68v0,96,-151,118,-225,118v-203,0,-344,-161,-344,-368","w":611},"D":{"d":"45,-75r0,-560v0,-46,32,-77,77,-77r166,0v224,0,352,144,352,366v0,210,-136,346,-342,346r-174,0v-33,0,-79,-18,-79,-75xm195,-574r0,436r101,0v129,0,188,-95,188,-215v0,-128,-60,-221,-198,-221r-91,0","w":667},"E":{"d":"45,-75r0,-550v0,-50,25,-87,78,-87r248,0v48,0,71,34,71,69v0,34,-24,69,-71,69r-176,0r0,146r164,0v49,0,73,34,73,69v0,34,-25,69,-73,69r-164,0r0,152r185,0v48,0,71,34,71,69v0,34,-24,69,-71,69r-258,0v-44,0,-77,-30,-77,-75","w":463},"F":{"d":"45,-72r0,-562v0,-41,28,-78,78,-78r256,0v44,0,67,34,67,69v0,34,-22,69,-67,69r-184,0r0,146r155,0v48,0,72,34,72,68v0,35,-24,70,-72,70r-155,0r0,218v0,50,-32,78,-75,78v-43,0,-75,-28,-75,-78","w":444},"G":{"d":"359,-354v0,-102,145,-68,240,-68v63,0,88,32,88,96v0,193,-126,338,-326,338v-203,0,-344,-161,-344,-368v0,-208,140,-368,344,-368v151,0,275,71,275,141v0,43,-27,70,-62,70v-68,0,-82,-73,-213,-73v-125,0,-188,109,-188,230v0,122,61,230,188,230v79,0,170,-44,170,-158r-102,0v-41,0,-70,-29,-70,-70","w":704},"H":{"d":"45,-72r0,-568v0,-50,32,-78,75,-78v43,0,75,28,75,78r0,212r314,0r0,-212v0,-50,32,-78,75,-78v43,0,75,28,75,78r0,568v0,50,-32,78,-75,78v-43,0,-75,-28,-75,-78r0,-218r-314,0r0,218v0,50,-32,78,-75,78v-43,0,-75,-28,-75,-78","w":704},"I":{"d":"45,-72r0,-568v0,-50,32,-78,75,-78v43,0,75,28,75,78r0,568v0,50,-32,78,-75,78v-43,0,-75,-28,-75,-78","w":240},"J":{"d":"368,-640r0,440v0,168,-107,212,-198,212v-69,0,-184,-27,-184,-114v0,-27,23,-61,56,-61v40,0,75,37,120,37v56,0,56,-52,56,-84r0,-430v0,-50,32,-78,75,-78v43,0,75,28,75,78","w":407},"K":{"d":"45,-66r0,-578v0,-41,30,-74,75,-74v43,0,75,28,75,74r0,216r246,-262v32,-47,132,-29,132,44v0,26,-16,47,-49,80r-189,186r231,241v24,24,42,46,42,76v0,47,-37,69,-78,69v-29,0,-48,-17,-76,-47r-259,-280r0,255v0,39,-30,72,-75,72v-43,0,-75,-28,-75,-72","w":611},"L":{"d":"45,-82r0,-558v0,-50,32,-78,75,-78v43,0,75,28,75,78r0,502r178,0v99,2,92,138,0,138r-250,0v-49,0,-78,-32,-78,-82","w":426},"M":{"d":"24,-66r94,-575v6,-36,45,-77,98,-77v50,0,89,36,100,72r118,396r2,0r118,-396v11,-36,50,-72,100,-72v53,0,92,41,98,77r94,575v0,44,-32,72,-72,72v-51,0,-71,-23,-78,-70r-59,-407r-2,0r-120,419v-7,24,-26,58,-80,58v-54,0,-73,-34,-80,-58r-120,-419r-2,0r-59,407v-7,47,-27,70,-78,70v-40,0,-79,-29,-72,-72","w":870},"N":{"d":"39,-72r0,-568v-3,-84,97,-100,138,-45r317,423r2,0r0,-378v0,-50,32,-78,75,-78v43,0,75,28,75,78r0,568v3,84,-96,100,-138,45r-317,-418r-2,0r0,373v0,50,-32,78,-75,78v-43,0,-75,-28,-75,-78","w":685},"O":{"d":"361,-126v127,0,188,-108,188,-230v0,-121,-63,-230,-188,-230v-125,0,-188,109,-188,230v0,122,61,230,188,230xm361,12v-203,0,-344,-161,-344,-368v0,-208,140,-368,344,-368v201,0,344,165,344,368v0,207,-139,368,-344,368","w":722},"P":{"d":"45,-72r0,-562v0,-47,28,-78,78,-78r177,0v147,0,256,96,256,239v0,146,-113,237,-250,237r-111,0r0,164v0,50,-32,78,-75,78v-43,0,-75,-28,-75,-78xm195,-580r0,212r102,0v63,0,103,-46,103,-106v0,-60,-40,-106,-103,-106r-102,0","w":556},"Q":{"d":"661,48v-44,1,-91,-56,-124,-80v-49,28,-108,44,-176,44v-203,0,-344,-161,-344,-368v0,-208,140,-368,344,-368v201,0,344,165,344,368v0,88,-23,168,-67,231v31,33,92,54,92,110v0,35,-35,63,-69,63xm438,-280v39,0,60,35,87,52v61,-148,7,-358,-164,-358v-125,0,-188,109,-188,230v0,144,92,262,252,223v-19,-21,-55,-40,-55,-75v0,-39,27,-72,68,-72","w":722},"R":{"d":"45,-72r0,-562v0,-48,27,-78,77,-78r176,0v154,0,249,69,249,226v0,110,-83,173,-185,189r170,182v46,45,7,120,-55,121v-18,0,-42,-7,-58,-26r-222,-269r-2,0r0,217v0,50,-32,78,-75,78v-43,0,-75,-28,-75,-78xm195,-574r0,177r103,0v55,0,93,-33,93,-89v0,-57,-38,-88,-93,-88r-103,0","w":556},"S":{"d":"270,-724v56,0,196,21,196,100v0,39,-26,74,-67,74v-41,0,-73,-30,-133,-30v-43,0,-82,23,-82,65v0,103,334,37,334,295v0,143,-118,232,-256,232v-77,0,-243,-18,-243,-112v0,-39,26,-71,67,-71v47,0,103,39,168,39v66,0,102,-37,102,-86v0,-118,-334,-47,-334,-279v0,-140,115,-227,248,-227","w":537},"T":{"d":"165,-72r0,-502r-109,0v-94,0,-87,-138,0,-138r368,0v43,0,68,34,68,69v0,34,-20,69,-68,69r-109,0r0,502v0,50,-32,78,-75,78v-43,0,-75,-28,-75,-78","w":480},"U":{"d":"39,-283r0,-357v0,-50,32,-78,75,-78v43,0,75,28,75,78r0,349v0,92,59,165,154,165v91,0,153,-77,153,-165r0,-349v0,-50,32,-78,75,-78v43,0,75,28,75,78r0,357v0,168,-138,295,-303,295v-167,0,-304,-125,-304,-295","w":685},"V":{"d":"222,-52r-219,-557v-24,-55,16,-109,70,-109v34,0,58,21,68,49r155,416r155,-416v13,-27,34,-49,68,-49v53,0,92,53,70,109r-219,557v-13,32,-30,58,-74,58v-44,0,-61,-26,-74,-58","w":592},"W":{"d":"139,-72r-127,-546v-15,-52,10,-100,67,-100v48,0,71,28,80,72r85,425r2,0r130,-438v18,-77,133,-76,156,0r130,438r2,0r85,-425v9,-44,32,-72,80,-72v57,0,79,47,67,100r-127,546v-10,42,-43,78,-99,78v-49,0,-87,-32,-99,-73r-116,-386r-2,0r-116,386v-12,41,-50,73,-99,73v-56,0,-89,-36,-99,-78","w":908},"X":{"d":"21,-115r198,-266r-162,-220v-39,-46,-2,-117,60,-117v25,0,51,17,65,37r124,176r124,-176v33,-59,144,-43,141,36v0,16,-6,31,-16,44r-162,220r198,266v36,44,10,121,-59,121v-27,0,-47,-12,-62,-33r-164,-228r-164,228v-32,57,-138,35,-138,-37v0,-21,9,-40,17,-51","w":612},"Y":{"d":"193,-67r0,-267r-189,-266v-34,-47,-2,-120,58,-118v26,0,49,11,62,30r144,209r144,-209v34,-54,134,-28,134,43v0,16,-5,32,-14,45r-189,266r0,267v0,37,-22,73,-75,73v-53,0,-75,-36,-75,-73","w":536},"Z":{"d":"209,-132r290,0v42,0,72,23,72,66v0,38,-36,66,-72,66r-393,0v-81,3,-104,-75,-64,-130r322,-450r-263,0v-40,0,-70,-23,-70,-64v0,-38,32,-68,70,-68r366,0v91,1,102,82,62,136","w":593},"[":{"d":"44,82r0,-734v0,-44,29,-72,73,-72v69,0,154,-24,153,57v-1,61,-45,59,-100,57r0,650v55,-1,99,-4,100,57v1,81,-84,57,-153,57v-44,0,-73,-28,-73,-72","w":278},"\\":{"d":"123,-687r267,616v26,44,-7,83,-51,83v-32,0,-46,-15,-55,-37r-268,-616v-23,-45,7,-83,51,-83v32,0,47,15,56,37","w":407},"]":{"d":"234,-652r0,734v0,44,-29,72,-73,72v-69,0,-154,24,-153,-57v1,-61,45,-59,100,-57r0,-650v-55,1,-99,4,-100,-57v-1,-81,84,-57,153,-57v44,0,73,28,73,72","w":278},"^":{"d":"300,-568r-125,231v-20,35,-103,30,-102,-18v0,-12,5,-25,13,-40r161,-293v23,-41,83,-41,106,0r161,293v26,37,11,80,-38,80v-24,0,-41,-4,-51,-22","w":600},"_":{"d":"500,125r-500,0v-16,0,-29,-9,-29,-25v0,-16,13,-25,29,-25r500,0v16,0,29,9,29,25v0,16,-13,25,-29,25","w":500},"a":{"d":"533,-444r0,356v0,37,0,94,-69,94v-42,0,-59,-23,-69,-61v-37,44,-82,67,-137,67v-135,0,-238,-115,-238,-277v0,-158,106,-279,238,-279v53,0,105,21,137,66v4,-35,34,-60,69,-60v69,0,69,57,69,94xm164,-265v0,69,36,145,114,145v75,0,111,-76,111,-145v0,-69,-35,-147,-111,-147v-79,0,-114,78,-114,147"},"b":{"d":"41,-74r0,-616v0,-48,30,-80,72,-80v42,0,72,32,72,80r0,196v38,-33,87,-50,137,-50v155,0,232,145,232,285v0,136,-92,271,-237,271v-49,0,-105,-22,-132,-66v-9,38,-32,60,-72,60v-42,0,-72,-32,-72,-80xm185,-270v0,70,34,150,113,150v75,0,112,-78,112,-145v0,-68,-37,-147,-112,-147v-77,0,-113,72,-113,142"},"c":{"d":"454,-453v0,30,-21,69,-55,69v-36,0,-68,-28,-114,-28v-163,0,-159,291,0,292v36,0,90,-30,107,-30v34,0,62,29,62,63v0,74,-124,99,-176,99v-155,0,-258,-127,-258,-277v0,-146,106,-279,258,-279v57,0,176,21,176,91","w":463},"d":{"d":"533,-690r0,616v0,48,-30,80,-72,80v-40,0,-63,-22,-72,-60v-27,44,-83,66,-132,66v-145,0,-237,-135,-237,-271v0,-140,77,-285,232,-285v50,0,99,17,137,50r0,-196v0,-48,30,-80,72,-80v42,0,72,32,72,80xm276,-120v151,0,153,-290,0,-292v-75,0,-112,79,-112,147v0,67,37,145,112,145"},"e":{"d":"464,-218r-307,0v10,71,69,104,136,104v74,0,125,-58,163,-58v31,0,59,31,59,62v0,62,-128,122,-235,122v-162,0,-270,-118,-270,-277v0,-146,106,-279,258,-279v156,0,259,142,259,262v0,43,-19,64,-63,64xm154,-314r229,0v-8,-63,-48,-110,-115,-110v-64,0,-107,49,-114,110","w":537},"f":{"d":"74,-74r0,-332v-56,5,-96,-11,-95,-63v1,-48,40,-70,95,-63r0,-74v0,-106,63,-164,151,-164v51,0,100,15,100,65v0,42,-19,61,-59,61v-24,0,-48,0,-48,53r0,59v63,-2,118,-1,118,63v0,62,-55,66,-118,63r0,332v0,48,-30,80,-72,80v-42,0,-72,-32,-72,-80","w":296},"g":{"d":"533,-458r0,416v0,173,-113,260,-277,260v-59,0,-227,-29,-227,-108v0,-27,30,-63,58,-63v46,0,97,45,180,45v81,0,136,-59,120,-148v-30,44,-79,68,-145,68v-151,0,-222,-133,-222,-276v0,-145,92,-280,237,-280v49,0,105,22,132,66v9,-38,32,-60,72,-60v42,0,72,32,72,80xm389,-262v0,-70,-34,-150,-113,-150v-150,0,-149,293,0,292v77,0,113,-72,113,-142"},"h":{"d":"41,-74r0,-616v0,-48,30,-80,72,-80v42,0,72,32,72,80r0,196v116,-107,330,-36,330,144r0,276v0,48,-30,80,-72,80v-42,0,-72,-32,-72,-80r0,-251v0,-67,-42,-99,-94,-99v-59,0,-92,43,-92,99r0,251v0,48,-30,80,-72,80v-42,0,-72,-32,-72,-80","w":556},"i":{"d":"39,-74r0,-384v0,-48,30,-80,72,-80v42,0,72,32,72,80r0,384v0,48,-30,80,-72,80v-42,0,-72,-32,-72,-80xm111,-754v43,0,81,37,81,79v0,45,-36,83,-81,83v-43,0,-81,-39,-81,-83v0,-41,38,-79,81,-79","w":222},"j":{"d":"39,138r0,-596v0,-48,30,-80,72,-80v42,0,72,32,72,80r0,596v0,48,-30,80,-72,80v-42,0,-72,-32,-72,-80xm111,-754v43,0,81,37,81,79v0,45,-36,83,-81,83v-43,0,-81,-39,-81,-83v0,-41,38,-79,81,-79","w":222},"k":{"d":"41,-74r0,-616v0,-48,30,-80,72,-80v42,0,72,32,72,80r0,336r158,-153v46,-54,123,-31,126,34v0,21,-7,38,-28,57r-128,114r169,198v40,44,8,118,-50,116v-26,0,-46,-16,-69,-44r-176,-217r-2,0r0,175v0,48,-30,80,-72,80v-42,0,-72,-32,-72,-80","w":500},"l":{"d":"39,-74r0,-616v0,-48,30,-80,72,-80v42,0,72,32,72,80r0,616v0,48,-30,80,-72,80v-42,0,-72,-32,-72,-80","w":222},"m":{"d":"41,-74r0,-384v-10,-90,128,-109,138,-26v73,-84,218,-78,283,13v110,-132,349,-78,349,121r0,276v0,48,-30,80,-72,80v-42,0,-72,-32,-72,-80r0,-251v0,-58,-32,-99,-84,-99v-53,0,-85,41,-85,99r0,251v0,48,-30,80,-72,80v-42,0,-72,-32,-72,-80r0,-251v0,-58,-32,-99,-84,-99v-59,0,-85,41,-85,99r0,251v0,48,-30,80,-72,80v-42,0,-72,-32,-72,-80","w":852},"n":{"d":"41,-74r0,-384v-10,-90,128,-108,138,-27v28,-39,71,-59,139,-59v113,0,197,72,197,194r0,276v0,48,-30,80,-72,80v-42,0,-72,-32,-72,-80r0,-251v0,-67,-42,-99,-94,-99v-59,0,-92,43,-92,99r0,251v0,48,-30,80,-72,80v-42,0,-72,-32,-72,-80","w":556},"o":{"d":"278,-544v152,0,258,133,258,279v0,150,-103,277,-258,277v-155,0,-258,-127,-258,-277v0,-146,106,-279,258,-279xm278,-412v-79,0,-114,78,-114,147v0,69,36,145,114,145v78,0,114,-76,114,-145v0,-69,-35,-147,-114,-147","w":556},"p":{"d":"41,138r0,-596v0,-48,30,-80,72,-80v40,0,63,22,72,60v27,-44,83,-66,137,-66v155,0,232,145,232,285v0,136,-92,271,-237,271v-45,0,-94,-17,-132,-50r0,176v0,48,-30,80,-72,80v-42,0,-72,-32,-72,-80xm185,-270v0,70,34,150,113,150v75,0,112,-78,112,-145v0,-68,-37,-147,-112,-147v-77,0,-113,72,-113,142"},"q":{"d":"533,-458r0,596v0,48,-30,80,-72,80v-42,0,-72,-32,-72,-80r0,-176v-38,33,-87,50,-132,50v-145,0,-237,-135,-237,-271v0,-140,77,-285,232,-285v54,0,110,22,137,66v9,-38,32,-60,72,-60v42,0,72,32,72,80xm276,-120v151,0,153,-290,0,-292v-75,0,-112,79,-112,147v0,67,37,145,112,145"},"r":{"d":"39,-74r0,-392v0,-48,38,-72,74,-72v41,0,67,19,72,60v27,-40,56,-60,101,-60v35,0,70,25,70,77v0,47,-43,50,-86,70v-43,20,-87,39,-87,96r0,221v0,48,-30,80,-72,80v-42,0,-72,-32,-72,-80","w":333},"s":{"d":"403,-440v0,33,-25,64,-59,64v-27,0,-82,-42,-129,-42v-26,0,-49,12,-49,40v0,67,250,57,250,221v0,96,-81,169,-205,169v-81,0,-201,-46,-201,-111v0,-22,22,-64,62,-64v56,0,81,49,149,49v44,0,57,-14,57,-41v0,-66,-250,-56,-250,-221v0,-100,81,-168,195,-168v71,0,180,33,180,104","w":426},"t":{"d":"76,-74r0,-332v-56,5,-96,-11,-95,-63v1,-48,40,-70,95,-63r0,-86v0,-48,30,-80,72,-80v42,0,72,32,72,80r0,86v60,-2,110,0,110,63v0,61,-50,66,-110,63r0,332v0,48,-30,80,-72,80v-42,0,-72,-32,-72,-80","w":296},"u":{"d":"41,-198r0,-260v0,-48,30,-80,72,-80v42,0,72,32,72,80r0,257v0,60,45,93,93,93v48,0,93,-33,93,-93r0,-257v0,-48,30,-80,72,-80v42,0,72,32,72,80r0,260v0,128,-85,210,-237,210v-152,0,-237,-82,-237,-210","w":556},"v":{"d":"153,-54r-145,-372v-28,-58,11,-112,66,-112v40,0,57,29,64,51r92,284r2,0r92,-284v7,-22,24,-51,64,-51v55,0,89,52,66,112r-145,372v-14,37,-29,60,-78,60v-49,0,-64,-23,-78,-60","w":462},"w":{"d":"144,-67r-122,-345v-28,-64,-19,-126,57,-126v35,0,58,24,68,57r83,275r2,0r84,-269v11,-39,31,-63,73,-63v42,0,61,24,73,63r84,269r2,0r83,-275v8,-34,33,-57,68,-57v66,0,80,63,58,124r-123,347v-15,42,-40,73,-87,73v-44,0,-70,-25,-83,-67r-74,-232r-2,0r-74,232v-13,42,-39,67,-83,67v-47,0,-72,-31,-87,-73","w":778},"x":{"d":"20,-113r146,-166r-122,-137v-46,-43,-10,-124,52,-122v23,0,38,10,53,28r101,126r101,-126v35,-55,127,-20,127,42v0,18,-10,38,-22,52r-122,137r146,166v40,42,14,119,-51,119v-32,0,-45,-14,-60,-32r-119,-146r-119,146v-28,53,-131,36,-131,-38v0,-16,9,-37,20,-49","w":500},"y":{"d":"164,-42r-159,-397v-24,-47,17,-99,61,-99v35,0,60,19,72,51r99,271r106,-271v18,-70,140,-66,140,11v0,15,-2,26,-7,37r-241,600v-12,30,-34,57,-68,57v-68,-2,-87,-51,-66,-104","w":481},"z":{"d":"24,-88r226,-318r-167,0v-36,0,-65,-23,-65,-63v0,-40,29,-63,65,-63r327,0v13,0,47,6,47,45v0,19,-4,28,-15,43r-227,318r190,0v36,0,65,23,65,63v0,40,-29,63,-65,63r-335,0v-32,0,-59,-16,-59,-49v0,-16,8,-31,13,-39","w":481},"{":{"d":"86,23r0,-194v0,-60,-23,-66,-48,-66v-65,0,-64,-96,0,-96v25,0,48,-6,48,-66r0,-194v-3,-116,77,-131,195,-131v26,0,45,15,45,45v0,40,-29,45,-70,45v-28,0,-44,17,-44,58r0,189v1,94,-77,94,-108,103v35,3,108,10,108,101r0,189v1,52,23,58,69,58v26,0,45,15,45,45v1,55,-56,45,-107,45v-87,0,-133,-40,-133,-131","w":333},"|":{"d":"51,250r0,-1000v0,-36,23,-60,60,-60v37,0,60,24,60,60r0,1000v0,36,-23,60,-60,60v-37,0,-60,-24,-60,-60","w":222},"}":{"d":"247,-593r0,194v0,60,23,66,48,66v65,0,64,96,0,96v-25,0,-48,6,-48,66r0,194v3,116,-77,131,-195,131v-26,0,-45,-15,-45,-45v0,-40,29,-45,70,-45v28,0,44,-17,44,-58r0,-189v-1,-94,77,-94,108,-103v-35,-3,-108,-10,-108,-101r0,-189v-1,-52,-23,-58,-69,-58v-26,0,-45,-15,-45,-45v-1,-55,56,-45,107,-45v87,0,133,40,133,131","w":333},"~":{"d":"405,-279v55,0,69,-61,111,-61v32,0,43,25,43,49v0,61,-55,132,-152,132v-74,0,-161,-68,-212,-68v-55,0,-69,61,-111,61v-32,0,-43,-25,-43,-49v0,-61,55,-132,152,-132v74,0,161,68,212,68","w":600},"'":{"d":"60,-494r0,-170v0,-36,23,-60,60,-60v37,0,60,24,60,60r0,170v0,36,-23,60,-60,60v-37,0,-60,-24,-60,-60","w":240},"`":{"d":"42,-773v59,12,112,41,164,62v53,21,21,113,-25,113v-43,0,-103,-40,-152,-54v-62,-18,-48,-117,13,-121","w":222},"\u00a0":{"w":268}}});
