/*!
 * The following copyright notice may not be removed under any circumstances.
 * 
 * Copyright:
 *  The digitally encoded machine readable software for producing the Typefaces
 * licensed to you is copyrighted (c) 1989, 1995 Adobe Systems. All Rights
 * Reserved. This software is the property of Adobe Systems Incorporated and its
 * licensors, and may not be reproduced, used,  displayed, modified, disclosed or
 * transferred without the express  written approval of Adobe.  The digitally
 * encoded machine readable outline data for producing the Typefaces licensed to
 * you is copyrighted (c) 1981 Linotype-Hell AG and/or its subsidiaries. All
 * Rights Reserved. This data is the property of Linotype-Hell AG and/or its
 * subsidiaries and may not be reproduced, used, displayed, modified, disclosed or
 *  transferred without the express written approval of Linotype-Hell AG  and/or
 * its subsidiaries.
 */
Cufon.registerFont({"w":536,"face":{"font-family":"VAG Rounded","font-weight":200,"font-stretch":"normal","units-per-em":"1000","panose-1":"2 0 3 3 0 0 0 0 0 0","ascent":"800","descent":"-200","x-height":"6","cap-height":"6","bbox":"-29 -793 809.033 293","underline-thickness":"50","underline-position":"-100","stemh":"76","stemv":"88","unicode-range":"U+0020-U+007E"},"glyphs":{" ":{"w":250},"!":{"d":"104,-238r0,-433v0,-29,17,-47,44,-47v27,0,44,18,44,47r0,433v0,29,-17,47,-44,47v-27,0,-44,-18,-44,-47xm97,-45v0,-28,23,-51,51,-51v28,0,51,23,51,51v0,28,-23,51,-51,51v-28,0,-51,-23,-51,-51","w":296},"\"":{"d":"197,-539r0,-136v0,-25,13,-43,41,-43v28,0,41,18,41,43r0,136v0,25,-13,43,-41,43v-28,0,-41,-18,-41,-43xm55,-539r0,-136v0,-25,13,-43,41,-43v28,0,41,18,41,43r0,136v0,25,-13,43,-41,43v-28,0,-41,-18,-41,-43","w":334},"#":{"d":"381,-216r-26,186v-3,23,-12,36,-38,36v-42,0,-34,-36,-29,-76r20,-146r-119,0r-26,186v-3,23,-12,36,-38,36v-42,0,-34,-36,-29,-76r20,-146v-43,-1,-102,10,-102,-33v1,-47,66,-30,111,-33r21,-148v-43,-1,-102,10,-102,-33v1,-46,66,-31,111,-33r26,-186v3,-23,12,-36,38,-36v42,0,34,36,29,76r-20,146r119,0r26,-186v3,-23,12,-36,38,-36v42,0,34,36,29,76r-20,146v43,1,102,-10,102,33v-1,47,-66,30,-111,33r-21,148v43,1,102,-10,102,33v-1,46,-66,31,-111,33xm317,-282r21,-148r-119,0r-21,148r119,0"},"$":{"d":"218,-439r0,-203v-56,7,-96,46,-96,101v0,55,41,81,96,102xm218,-70r0,-277v-91,-31,-190,-63,-190,-188v0,-79,70,-172,190,-183v2,-28,-9,-68,21,-68v30,0,19,40,21,68v80,6,153,41,153,83v0,21,-16,39,-38,39v-35,0,-49,-36,-115,-46r0,219v93,33,200,69,200,204v0,107,-71,205,-200,221v-2,29,10,72,-21,72v-30,0,-19,-40,-21,-68v-102,0,-197,-46,-197,-89v0,-21,12,-42,35,-42v37,0,73,55,162,55xm260,-332r0,257v67,-14,106,-69,106,-140v0,-66,-48,-95,-106,-117","w":481},"%":{"d":"194,-434v64,0,86,-62,86,-115v0,-53,-22,-115,-86,-115v-64,0,-86,62,-86,115v0,53,22,115,86,115xm547,6v-100,0,-152,-80,-152,-169v0,-89,52,-169,152,-169v100,0,152,80,152,169v0,89,-52,169,-152,169xm547,-48v64,0,86,-62,86,-115v0,-53,-22,-115,-86,-115v-64,0,-86,62,-86,115v0,53,22,115,86,115xm194,-380v-100,0,-152,-80,-152,-169v0,-89,52,-169,152,-169v100,0,152,80,152,169v0,89,-52,169,-152,169xm209,-58r266,-638v9,-21,19,-30,35,-30v47,11,40,25,21,72r-266,638v-7,41,-68,36,-70,3v0,-8,3,-18,14,-45","w":741},"&":{"d":"318,-417r159,188v44,-55,76,-132,105,-132v20,0,37,10,37,30v0,27,-21,74,-93,160r87,103v29,24,21,73,-18,74v-15,0,-25,-5,-34,-16r-86,-99v-66,83,-144,115,-220,115v-116,0,-219,-76,-219,-207v0,-121,60,-173,159,-233v-40,-41,-79,-91,-79,-139v0,-105,78,-145,174,-145v84,0,156,53,156,126v0,91,-64,139,-128,175xm204,-575v0,30,31,64,66,103v40,-23,94,-60,94,-105v0,-48,-41,-71,-81,-71v-43,0,-79,24,-79,73xm124,-211v0,74,45,135,139,135v61,0,107,-24,163,-91r-182,-210v-93,53,-120,101,-120,166","w":667},"(":{"d":"123,55v-76,-198,-77,-548,0,-746v9,-24,21,-45,44,-45v52,0,34,44,21,82v-54,141,-53,531,0,672v14,38,31,82,-21,82v-23,0,-35,-21,-44,-45","w":241},")":{"d":"118,-691v76,198,77,548,0,746v-9,24,-21,45,-44,45v-52,0,-34,-44,-21,-82v54,-141,53,-531,0,-672v-14,-38,-31,-82,21,-82v23,0,35,21,44,45","w":241},"*":{"d":"150,-541r-89,-37v-42,-15,-24,-66,12,-66v25,0,58,37,97,65v3,-57,-40,-131,25,-139v65,7,22,83,25,139v39,-28,72,-65,97,-65v36,1,52,49,12,66r-89,37r89,37v42,15,24,66,-12,66v-25,0,-58,-37,-97,-65v-3,57,40,131,-25,139v-65,-7,-22,-83,-25,-139v-39,28,-72,65,-97,65v-36,-1,-52,-49,-12,-66","w":390},"+":{"d":"259,-294r0,-169v0,-25,13,-43,41,-43v28,0,41,18,41,43r0,169r169,0v25,0,43,13,43,41v0,28,-18,41,-43,41r-169,0r0,169v0,25,-13,43,-41,43v-28,0,-41,-18,-41,-43r0,-169r-169,0v-25,0,-43,-13,-43,-41v0,-28,18,-41,43,-41r169,0","w":600},",":{"d":"22,88v0,-55,46,-100,67,-147v9,-20,21,-37,47,-37v38,1,47,39,29,75r-56,110v-10,19,-21,37,-47,37v-21,0,-40,-16,-40,-38","w":250},"-":{"d":"279,-230r-206,0v-21,0,-38,-17,-38,-38v0,-21,17,-38,38,-38r206,0v21,0,38,17,38,38v0,21,-17,38,-38,38","w":352},".":{"d":"74,-45v0,-28,23,-51,51,-51v28,0,51,23,51,51v0,28,-23,51,-51,51v-28,0,-51,-23,-51,-51","w":250},"\/":{"d":"34,-75r273,-613v7,-38,82,-42,80,7v0,8,-4,22,-14,44r-273,613v-7,38,-82,42,-80,-7v0,-8,4,-22,14,-44","w":407},"0":{"d":"33,-356v0,-229,105,-362,235,-362v130,0,235,133,235,362v0,229,-105,362,-235,362v-130,0,-235,-133,-235,-362xm127,-356v0,199,63,286,141,286v78,0,141,-87,141,-286v0,-199,-63,-286,-141,-286v-78,0,-141,87,-141,286"},"1":{"d":"164,-41r0,-595v-52,-3,-129,17,-130,-38v0,-21,17,-38,38,-38r153,0v17,0,27,2,27,24r0,647v0,29,-17,47,-44,47v-27,0,-44,-18,-44,-47","w":352},"2":{"d":"182,-76r270,0v21,0,38,17,38,38v0,21,-17,38,-38,38r-345,0v-60,-8,-58,-37,-29,-76r246,-329v30,-39,52,-83,52,-126v0,-65,-49,-111,-113,-111v-85,0,-130,72,-130,161v0,31,-20,40,-39,40v-28,0,-43,-17,-43,-54v0,-118,80,-223,227,-223v118,0,192,85,192,177v0,41,-3,87,-49,147"},"3":{"d":"476,-210v0,135,-100,216,-227,216v-148,0,-208,-111,-208,-164v0,-31,16,-49,37,-49v26,0,39,15,49,46v17,51,53,91,120,91v79,0,135,-59,135,-132v0,-106,-58,-133,-124,-133v-35,0,-54,-15,-54,-38v0,-20,13,-31,46,-38v71,-16,100,-50,100,-115v0,-68,-40,-116,-101,-116v-70,0,-96,50,-101,104v-3,40,-27,41,-42,41v-25,0,-40,-18,-40,-41v0,-95,69,-180,187,-180v190,0,249,249,101,335v80,24,122,92,122,173"},"4":{"d":"334,-183r-284,0v-59,-5,-38,-47,-16,-82r252,-413v32,-62,136,-56,136,33r0,386v41,-3,83,-1,83,38v0,39,-42,41,-83,38r0,142v0,29,-17,47,-44,47v-27,0,-44,-18,-44,-47r0,-142xm122,-259r212,0r0,-365r-2,0"},"5":{"d":"228,-636r-29,193v29,-15,61,-20,94,-20v111,0,182,105,182,216v0,153,-87,253,-231,253v-118,0,-200,-75,-200,-118v0,-18,10,-38,32,-38v36,0,68,74,169,74v85,0,136,-71,136,-154v0,-84,-37,-151,-123,-151v-65,0,-96,27,-121,27v-47,0,-29,-43,-23,-86r37,-249v3,-18,12,-23,33,-23r247,0v21,0,38,17,38,38v0,21,-17,38,-38,38r-203,0"},"6":{"d":"266,6v-124,0,-214,-103,-214,-245v0,-208,140,-368,248,-459v18,-15,29,-20,41,-20v14,0,36,14,36,41v0,14,-10,25,-35,47v-57,51,-99,99,-153,198v36,-15,66,-29,115,-28v116,0,180,110,180,234v0,129,-92,232,-218,232xm140,-230v0,83,38,154,125,154v87,0,125,-71,125,-154v0,-94,-38,-154,-125,-154v-87,0,-125,72,-125,154"},"7":{"d":"366,-636r-300,0v-21,0,-38,-17,-38,-38v0,-21,17,-38,38,-38r361,0v58,0,47,37,28,81r-266,605v-12,28,-34,32,-53,32v-33,0,-40,-35,-19,-81","w":500},"8":{"d":"86,-555v1,-218,363,-217,364,0v0,76,-29,118,-93,158v83,19,129,95,129,178v0,116,-79,225,-218,225v-139,0,-218,-109,-218,-225v0,-83,46,-159,129,-178v-64,-40,-93,-82,-93,-158xm168,-538v0,61,37,105,100,105v63,0,100,-44,100,-105v0,-60,-37,-104,-100,-104v-63,0,-100,44,-100,104xm144,-215v0,92,58,145,124,145v66,0,124,-53,124,-145v0,-73,-42,-142,-124,-142v-82,0,-124,69,-124,142"},"9":{"d":"270,-718v124,0,214,103,214,245v0,208,-140,368,-248,459v-18,15,-29,20,-41,20v-14,0,-36,-14,-36,-41v0,-14,10,-25,35,-47v57,-51,99,-99,153,-198v-36,15,-66,29,-115,28v-116,0,-180,-110,-180,-234v0,-129,92,-232,218,-232xm396,-482v0,-83,-38,-154,-125,-154v-87,0,-125,71,-125,154v0,94,38,154,125,154v87,0,125,-72,125,-154"},":":{"d":"74,-45v0,-28,23,-51,51,-51v28,0,51,23,51,51v0,28,-23,51,-51,51v-28,0,-51,-23,-51,-51xm74,-381v0,-28,23,-51,51,-51v28,0,51,23,51,51v0,28,-23,51,-51,51v-28,0,-51,-23,-51,-51","w":250},";":{"d":"22,88v0,-55,46,-100,67,-147v9,-20,21,-37,47,-37v38,1,47,39,29,75r-56,110v-10,19,-21,37,-47,37v-21,0,-40,-16,-40,-38xm74,-381v0,-28,23,-51,51,-51v28,0,51,23,51,51v0,28,-23,51,-51,51v-28,0,-51,-23,-51,-51","w":250},"<":{"d":"150,-253r372,184v15,8,32,17,32,38v0,47,-43,39,-82,19r-390,-195v-49,-22,-48,-68,0,-92r390,-195v38,-23,82,-29,82,19v0,21,-17,30,-32,38","w":600},"=":{"d":"510,-316r-420,0v-25,0,-43,-13,-43,-41v0,-28,18,-41,43,-41r420,0v25,0,43,13,43,41v0,28,-18,41,-43,41xm510,-108r-420,0v-25,0,-43,-13,-43,-41v0,-28,18,-41,43,-41r420,0v25,0,43,13,43,41v0,28,-18,41,-43,41","w":600},">":{"d":"78,-69r372,-184r-372,-184v-15,-8,-32,-17,-32,-38v0,-47,43,-39,82,-19r390,195v49,22,48,68,0,92r-390,195v-38,23,-82,29,-82,-19v0,-21,17,-30,32,-38","w":600},"?":{"d":"258,-338v-4,59,19,147,-44,147v-66,0,-44,-99,-44,-160v0,-45,1,-53,70,-67v79,-16,92,-71,92,-108v0,-68,-49,-110,-116,-110v-53,0,-97,18,-116,82v-16,54,-84,37,-82,-13v3,-88,102,-151,195,-151v121,0,213,78,213,184v0,108,-68,175,-168,196xm163,-45v0,-28,23,-51,51,-51v28,0,51,23,51,51v0,28,-23,51,-51,51v-28,0,-51,-23,-51,-51","w":444},"@":{"d":"266,-308v0,53,37,90,82,90v99,0,136,-136,136,-192v0,-49,-25,-72,-75,-72v-96,0,-143,99,-143,174xm606,-530v0,99,-78,189,-78,291v0,17,8,29,28,29v64,0,132,-95,132,-198v0,-155,-131,-244,-274,-244v-173,0,-302,131,-302,296v0,174,134,296,311,296v169,0,209,-110,265,-110v14,0,25,9,25,23v0,55,-165,153,-297,153v-211,0,-380,-158,-380,-362v0,-203,171,-362,378,-362v189,0,350,121,350,298v0,194,-159,278,-248,278v-42,0,-60,-22,-72,-57v-27,30,-71,57,-115,57v-86,0,-151,-71,-151,-157v0,-127,91,-259,226,-259v49,0,91,21,117,75v10,-28,14,-69,53,-69v16,0,32,6,32,22","w":800},"A":{"d":"141,-155r-46,128v-6,42,-85,45,-85,-4v0,-12,9,-35,12,-44r221,-589v11,-31,29,-54,63,-54v34,0,52,23,63,54r221,589v3,9,12,32,12,44v0,23,-19,37,-42,37v-24,0,-36,-14,-43,-33r-46,-128r-330,0xm444,-231r-137,-385r-2,0r-137,385r276,0","w":612},"B":{"d":"146,-636r0,225r100,0v75,0,118,-50,118,-115v0,-64,-37,-110,-115,-110r-103,0xm146,-339r0,263r124,0v86,0,149,-53,149,-132v0,-73,-53,-131,-145,-131r-128,0xm58,-48r0,-616v0,-27,14,-48,47,-48r155,0v126,0,192,89,192,170v0,80,-45,135,-99,158v86,9,154,82,154,176v0,112,-83,208,-233,208r-169,0v-33,0,-47,-21,-47,-48","w":537},"C":{"d":"125,-356v0,136,67,286,218,286v107,0,154,-64,191,-64v21,0,35,16,35,41v0,45,-101,99,-226,99v-206,0,-312,-177,-312,-362v0,-185,106,-362,317,-362v126,0,206,68,206,104v0,23,-14,42,-36,42v-40,0,-60,-70,-170,-70v-158,0,-223,150,-223,286","w":593},"D":{"d":"63,-48r0,-616v0,-27,14,-48,47,-48r173,0v212,0,316,164,316,352v0,213,-113,360,-304,360r-185,0v-33,0,-47,-21,-47,-48xm151,-636r0,560r126,0v166,0,228,-139,228,-284v0,-146,-66,-276,-234,-276r-120,0","w":630},"E":{"d":"146,-315r0,233r212,0v25,0,43,13,43,41v0,28,-18,41,-43,41r-253,0v-33,0,-47,-21,-47,-48r0,-616v0,-27,14,-48,47,-48r253,0v25,0,43,13,43,41v0,28,-18,41,-43,41r-212,0r0,233r193,0v25,0,43,13,43,41v0,28,-18,41,-43,41r-193,0","w":444},"F":{"d":"146,-315r0,274v0,29,-17,47,-44,47v-27,0,-44,-18,-44,-47r0,-623v0,-27,14,-48,47,-48r250,0v25,0,43,13,43,41v0,28,-18,41,-43,41r-209,0r0,233r185,0v25,0,43,13,43,41v0,28,-18,41,-43,41r-185,0","w":407},"G":{"d":"559,-326r-124,0v-25,0,-43,-13,-43,-41v0,-28,18,-41,43,-41r148,0v45,0,64,17,64,72v0,172,-62,342,-304,342v-205,0,-312,-177,-312,-362v0,-185,102,-362,325,-362v146,0,244,76,244,114v0,23,-17,42,-42,42v-44,0,-80,-80,-208,-80v-160,0,-225,150,-225,286v0,136,63,286,229,286v153,0,215,-123,205,-256","w":667},"H":{"d":"146,-319r0,272v0,35,-17,53,-44,53v-27,0,-44,-18,-44,-53r0,-618v0,-35,17,-53,44,-53v27,0,44,18,44,53r0,270r375,0r0,-270v0,-35,17,-53,44,-53v27,0,44,18,44,53r0,618v0,35,-17,53,-44,53v-27,0,-44,-18,-44,-53r0,-272r-375,0","w":667},"I":{"d":"146,-671r0,630v0,29,-17,47,-44,47v-27,0,-44,-18,-44,-47r0,-630v0,-29,17,-47,44,-47v27,0,44,18,44,47","w":204},"J":{"d":"224,-172r0,-499v0,-29,17,-47,44,-47v27,0,44,18,44,47r0,490v0,113,-48,187,-173,187v-47,0,-146,-28,-146,-80v0,-22,14,-37,35,-37v40,0,42,41,118,41v61,0,78,-46,78,-102","w":370},"K":{"d":"146,-339r0,298v0,29,-17,47,-44,47v-27,0,-44,-18,-44,-47r0,-630v0,-29,17,-47,44,-47v27,0,44,18,44,47r0,260r305,-279v24,-34,86,-41,86,10v0,23,-8,31,-18,40r-292,263r319,308v34,26,17,74,-25,75v-13,0,-25,-2,-43,-19","w":574},"L":{"d":"146,-671r0,589r188,0v25,0,43,13,43,41v0,28,-18,41,-43,41r-229,0v-33,0,-47,-21,-47,-48r0,-623v0,-29,17,-47,44,-47v27,0,44,18,44,47","w":389},"M":{"d":"200,-604r-83,572v-4,31,-24,38,-47,38v-43,-1,-43,-42,-36,-85r97,-572v10,-85,113,-89,133,-21r152,521r2,0r152,-521v10,-33,29,-46,64,-46v32,0,60,17,69,67r102,612v0,27,-14,45,-41,45v-23,0,-43,-7,-47,-38r-83,-572r-2,0r-170,574v-16,51,-75,50,-90,0r-170,-574r-2,0","w":834},"N":{"d":"146,-557r0,516v0,29,-17,47,-44,47v-27,0,-44,-18,-44,-47r0,-625v0,-35,12,-52,40,-52v26,0,38,11,62,46r360,517r2,0r0,-516v0,-29,17,-47,44,-47v27,0,44,18,44,47r0,625v0,35,-12,52,-40,52v-26,0,-38,-11,-62,-46r-360,-517r-2,0","w":668},"O":{"d":"125,-356v0,136,58,286,218,286v160,0,218,-150,218,-286v0,-136,-58,-286,-218,-286v-160,0,-218,150,-218,286xm31,-356v0,-185,109,-362,312,-362v203,0,312,177,312,362v0,185,-109,362,-312,362v-203,0,-312,-177,-312,-362","w":686},"P":{"d":"146,-266r0,225v0,29,-17,47,-44,47v-27,0,-44,-18,-44,-47r0,-623v0,-27,14,-48,47,-48r174,0v143,0,231,100,231,224v0,124,-98,222,-228,222r-136,0xm146,-636r0,294r130,0v87,0,146,-65,146,-146v0,-70,-40,-148,-150,-148r-126,0","w":519},"Q":{"d":"485,-127v-24,-29,-67,-50,-77,-91v-1,-37,44,-52,72,-24r49,48v72,-176,31,-448,-186,-448v-160,0,-218,150,-218,286v0,136,58,286,218,286v61,0,107,-21,142,-57xm612,-2r-70,-69v-50,48,-117,77,-199,77v-203,0,-312,-177,-312,-362v0,-185,109,-362,312,-362v289,0,389,366,250,587r74,73v28,22,20,71,-21,72v-17,0,-27,-9,-34,-16","w":685},"R":{"d":"146,-312r0,271v0,29,-17,47,-44,47v-27,0,-44,-18,-44,-47r0,-623v0,-27,14,-48,47,-48r163,0v112,0,218,76,218,192v0,159,-97,206,-232,203r227,249v28,25,20,74,-23,74v-18,0,-30,-9,-40,-20xm146,-636r0,253r120,0v92,0,132,-39,132,-131v0,-66,-52,-122,-134,-122r-118,0","w":519},"S":{"d":"238,-718v88,0,175,37,175,83v0,21,-16,39,-38,39v-39,0,-52,-46,-140,-46v-65,0,-113,41,-113,101v0,157,338,82,338,322v0,118,-86,225,-241,225v-94,0,-198,-36,-198,-86v0,-24,12,-45,37,-45v30,0,72,55,162,55v91,0,146,-66,146,-145v0,-169,-338,-87,-338,-320v0,-83,78,-183,210,-183","w":481},"T":{"d":"178,-41r0,-589r-133,0v-25,0,-43,-13,-43,-41v0,-28,18,-41,43,-41r354,0v25,0,43,13,43,41v0,28,-18,41,-43,41r-133,0r0,589v0,29,-17,47,-44,47v-27,0,-44,-18,-44,-47","w":444},"U":{"d":"58,-282r0,-389v0,-29,17,-47,44,-47v27,0,44,18,44,47r0,423v0,112,76,178,188,178v112,0,188,-66,188,-178r0,-423v0,-29,17,-47,44,-47v27,0,44,18,44,47r0,389v0,240,-154,288,-276,288v-122,0,-276,-48,-276,-288","w":668},"V":{"d":"279,-142r180,-519v11,-31,19,-57,54,-57v39,0,45,37,33,70r-217,606v-10,29,-21,48,-51,48v-30,0,-41,-19,-51,-48r-217,-606v-13,-32,-6,-70,33,-70v35,0,43,26,54,57r180,519r2,0","w":556},"W":{"d":"208,-108r164,-575v12,-49,76,-48,90,0r164,575r2,0r93,-569v1,-55,90,-53,88,-1v0,11,-1,24,-5,45r-108,581v-6,31,-19,58,-63,58v-34,0,-55,-9,-69,-58r-146,-522r-2,0r-146,522v-14,49,-35,58,-69,58v-44,0,-57,-27,-63,-58r-108,-581v-10,-46,-9,-85,35,-85v27,0,43,12,48,41r93,569r2,0","w":834},"X":{"d":"297,-313r-204,291v-18,25,-30,28,-44,28v-39,2,-46,-45,-26,-73r223,-315r-186,-263v-26,-30,-13,-72,25,-73v15,0,28,4,45,28r167,244r167,-244v17,-24,30,-28,45,-28v38,1,48,41,25,73r-186,263r223,315v24,23,13,75,-26,73v-14,0,-26,-3,-44,-28","w":594},"Y":{"d":"206,-41r0,-293r-191,-311v-26,-32,-14,-72,26,-73v16,0,31,6,44,28r165,269r165,-269v13,-22,28,-28,44,-28v40,1,47,38,26,73r-191,311r0,293v0,29,-17,47,-44,47v-27,0,-44,-18,-44,-47","w":500},"Z":{"d":"41,-87r366,-549r-323,0v-25,0,-43,-13,-43,-38v0,-25,18,-38,43,-38r389,0v61,5,52,44,24,87r-367,549r359,0v25,0,43,13,43,38v0,25,-18,38,-43,38r-413,0v-62,-1,-62,-46,-35,-87","w":556},"[":{"d":"158,-642r0,648v38,-4,72,3,72,38v0,47,-60,38,-107,38v-33,0,-47,-21,-47,-48r0,-704v0,-27,14,-48,47,-48v47,1,107,-10,107,38v0,34,-34,42,-72,38","w":241},"\\":{"d":"307,-24r-273,-613v-23,-42,-19,-81,25,-81v23,0,34,14,41,30r273,613v23,42,19,81,-25,81v-23,0,-34,-14,-41,-30","w":407},"]":{"d":"83,6r0,-648v-38,4,-72,-3,-72,-38v0,-47,60,-38,107,-38v33,0,47,21,47,48r0,704v0,27,-14,48,-47,48v-47,-1,-107,10,-107,-38v0,-34,34,-42,72,-38","w":241},"^":{"d":"300,-630r-157,291v-19,34,-27,50,-50,50v-45,0,-37,-46,-20,-76r175,-312v13,-23,26,-41,52,-41v26,0,39,18,52,41r175,312v21,26,26,75,-20,76v-23,0,-31,-16,-50,-50","w":600},"_":{"d":"500,125r-500,0v-16,0,-29,-9,-29,-25v0,-16,13,-25,29,-25r500,0v16,0,29,9,29,25v0,16,-13,25,-29,25","w":500},"a":{"d":"498,-495r0,458v0,31,-24,43,-41,43v-18,0,-41,-12,-41,-43v0,-11,3,-29,-2,-37v-38,54,-88,80,-145,80v-150,0,-234,-131,-234,-272v0,-141,84,-272,234,-272v63,0,103,29,147,71v-6,-40,13,-71,41,-71v17,0,41,12,41,43xm123,-266v0,90,38,196,146,196v108,0,146,-106,146,-196v0,-90,-38,-196,-146,-196v-108,0,-146,106,-146,196","w":556},"b":{"d":"141,-266v0,90,38,196,146,196v108,0,146,-106,146,-196v0,-90,-38,-196,-146,-196v-108,0,-146,106,-146,196xm62,-41r0,-684v0,-29,17,-47,44,-47v27,0,44,18,44,47r0,259r2,0v23,-33,72,-72,142,-72v144,0,227,131,227,272v0,141,-83,272,-227,272v-72,0,-115,-28,-144,-73v4,41,-7,74,-44,73v-27,0,-44,-18,-44,-47","w":556},"c":{"d":"35,-266v0,-141,78,-272,240,-272v90,0,143,31,143,67v0,18,-15,37,-36,37v-34,0,-47,-28,-107,-28v-109,0,-152,106,-152,196v0,90,43,196,152,196v62,0,78,-30,106,-30v20,0,34,13,34,37v0,33,-49,69,-140,69v-162,0,-240,-131,-240,-272","w":444},"d":{"d":"415,-266v0,-90,-38,-196,-146,-196v-108,0,-146,106,-146,196v0,90,38,196,146,196v108,0,146,-106,146,-196xm450,6v-40,0,-44,-37,-46,-73v-25,48,-72,73,-142,73v-144,0,-227,-131,-227,-272v0,-141,83,-272,227,-272v72,0,117,42,144,72r0,-259v0,-29,17,-47,44,-47v27,0,44,18,44,47r0,684v0,29,-17,47,-44,47","w":556},"e":{"d":"445,-232r-331,0v0,91,58,162,157,162v117,0,147,-72,180,-72v16,0,32,14,32,39v0,43,-109,109,-213,109v-170,0,-244,-131,-244,-272v0,-144,90,-272,239,-272v145,0,229,131,229,259v0,31,-11,47,-49,47xm114,-298r292,0v0,-76,-44,-164,-141,-164v-109,0,-148,83,-151,164","w":520},"f":{"d":"174,-456r0,415v0,29,-17,47,-44,47v-27,0,-44,-18,-44,-47r0,-415v-40,2,-80,0,-80,-38v0,-37,39,-41,80,-38r0,-125v2,-87,60,-115,144,-115v23,0,50,14,50,38v0,32,-31,38,-70,38v-27,0,-36,13,-36,35r0,129v44,0,99,-7,99,38v0,44,-55,39,-99,38","w":259},"g":{"d":"494,-495r0,457v0,158,-96,254,-240,254v-91,0,-204,-52,-204,-97v0,-18,9,-41,37,-41v40,0,79,62,174,62v129,0,155,-104,143,-210v-27,46,-75,76,-135,76v-150,0,-234,-131,-234,-272v0,-141,84,-272,234,-272v59,0,110,38,137,67v-6,-42,14,-67,47,-67v17,0,41,12,41,43xm123,-266v0,90,38,196,146,196v108,0,146,-106,146,-196v0,-90,-38,-196,-146,-196v-108,0,-146,106,-146,196","w":556},"h":{"d":"392,-41r0,-290v0,-93,-65,-131,-123,-131v-58,0,-123,38,-123,131r0,290v0,29,-17,47,-44,47v-27,0,-44,-18,-44,-47r0,-684v0,-29,17,-47,44,-47v27,0,44,18,44,47r2,257v39,-50,94,-70,147,-70v82,0,185,52,185,202r0,295v0,29,-17,47,-44,47v-27,0,-44,-18,-44,-47","w":538},"i":{"d":"146,-491r0,450v0,29,-17,47,-44,47v-27,0,-44,-18,-44,-47r0,-450v0,-29,17,-47,44,-47v27,0,44,18,44,47xm48,-664v0,-30,24,-54,54,-54v30,0,54,24,54,54v0,30,-24,54,-54,54v-30,0,-54,-24,-54,-54","w":204},"j":{"d":"146,-491r0,660v0,29,-17,47,-44,47v-27,0,-44,-18,-44,-47r0,-660v0,-29,17,-47,44,-47v27,0,44,18,44,47xm48,-664v0,-30,24,-54,54,-54v30,0,54,24,54,54v0,30,-24,54,-54,54v-30,0,-54,-24,-54,-54","w":204},"k":{"d":"58,-41r0,-684v0,-29,17,-47,44,-47v27,0,44,18,44,47r0,375r192,-161v18,-16,35,-27,50,-27v41,2,48,51,15,77r-200,158r232,229v34,27,26,80,-16,80v-21,0,-30,-6,-51,-27r-222,-232r0,212v0,29,-17,47,-44,47v-27,0,-44,-18,-44,-47","w":463},"l":{"d":"146,-725r0,684v0,29,-17,47,-44,47v-27,0,-44,-18,-44,-47r0,-684v0,-29,17,-47,44,-47v27,0,44,18,44,47","w":204},"m":{"d":"373,-41r0,-298v0,-76,-42,-123,-114,-123v-71,0,-113,47,-113,123r0,298v0,29,-17,47,-44,47v-27,0,-44,-18,-44,-47r0,-450v0,-29,17,-47,44,-47v36,0,44,31,46,65v21,-27,54,-65,134,-65v52,0,106,22,146,90v89,-141,348,-128,348,112r0,295v0,29,-17,47,-44,47v-27,0,-44,-18,-44,-47r0,-298v0,-76,-42,-123,-114,-123v-71,0,-113,47,-113,123r0,298v0,29,-17,47,-44,47v-27,0,-44,-18,-44,-47","w":834},"n":{"d":"58,-41r0,-450v0,-29,17,-47,44,-47v38,0,44,34,46,70v39,-50,94,-70,147,-70v82,0,185,52,185,202r0,295v0,29,-17,47,-44,47v-27,0,-44,-18,-44,-47r0,-290v0,-93,-65,-131,-123,-131v-58,0,-123,38,-123,131r0,290v0,29,-17,47,-44,47v-27,0,-44,-18,-44,-47","w":538},"o":{"d":"35,-266v0,-141,84,-272,234,-272v150,0,234,131,234,272v0,141,-84,272,-234,272v-150,0,-234,-131,-234,-272xm123,-266v0,90,38,196,146,196v108,0,146,-106,146,-196v0,-90,-38,-196,-146,-196v-108,0,-146,106,-146,196","w":538},"p":{"d":"141,-266v0,90,38,196,146,196v108,0,146,-106,146,-196v0,-90,-38,-196,-146,-196v-108,0,-146,106,-146,196xm62,169r0,-660v0,-29,17,-47,44,-47v40,0,44,37,46,73v25,-48,72,-73,142,-73v144,0,227,131,227,272v0,141,-83,272,-227,272v-70,0,-119,-39,-142,-72r-2,0r0,235v0,29,-17,47,-44,47v-27,0,-44,-18,-44,-47","w":556},"q":{"d":"415,-266v0,-90,-38,-196,-146,-196v-108,0,-146,106,-146,196v0,90,38,196,146,196v108,0,146,-106,146,-196xm35,-266v0,-141,83,-272,227,-272v72,0,115,28,144,73v-4,-41,7,-74,44,-73v27,0,44,18,44,47r0,660v0,29,-17,47,-44,47v-27,0,-44,-18,-44,-47r0,-235r-2,0v-23,33,-72,72,-142,72v-144,0,-227,-131,-227,-272","w":556},"r":{"d":"58,-41r0,-450v0,-29,17,-47,44,-47v48,0,42,51,46,92v20,-41,69,-92,120,-92v31,0,49,20,49,45v0,25,-18,41,-55,48v-52,9,-116,48,-116,151r0,253v0,29,-17,47,-44,47v-27,0,-44,-18,-44,-47","w":315},"s":{"d":"46,-388v0,-98,92,-150,181,-150v73,0,177,39,177,94v0,19,-13,36,-40,36v-38,0,-53,-54,-137,-54v-50,0,-93,22,-93,67v0,93,284,83,284,237v0,111,-95,164,-194,164v-112,0,-200,-56,-200,-101v0,-24,17,-40,36,-40v39,0,71,65,167,65v64,0,103,-36,103,-72v0,-104,-284,-98,-284,-246","w":444},"t":{"d":"86,-532v6,-62,-23,-162,44,-162v67,0,38,100,44,162v40,-2,80,0,80,38v0,37,-39,41,-80,38r0,415v0,29,-17,47,-44,47v-27,0,-44,-18,-44,-47r0,-415v-40,2,-80,0,-80,-38v0,-37,39,-41,80,-38","w":260},"u":{"d":"58,-206r0,-285v0,-29,17,-47,44,-47v27,0,44,18,44,47r0,282v0,91,40,139,123,139v83,0,123,-48,123,-139r0,-282v0,-29,17,-47,44,-47v27,0,44,18,44,47r0,285v0,156,-104,212,-211,212v-107,0,-211,-56,-211,-212","w":538},"v":{"d":"167,-32r-153,-429v-20,-36,-5,-77,31,-77v29,0,39,14,46,34r121,368r2,0r121,-368v5,-43,87,-48,86,7v0,10,-3,20,-9,36r-153,429v-9,26,-18,38,-46,38v-28,0,-37,-12,-46,-38","w":426},"w":{"d":"155,-40r-146,-425v-13,-36,-11,-73,35,-73v19,0,37,7,49,45r113,363r2,0r111,-350v12,-38,20,-58,52,-58v32,0,40,20,52,58r111,350r2,0r113,-363v12,-38,30,-45,49,-45v46,0,48,37,35,73r-146,425v-18,63,-81,62,-101,0r-114,-359r-2,0r-114,359v-18,64,-80,61,-101,0","w":742},"x":{"d":"24,-76r157,-206r-138,-181v-28,-29,-15,-75,22,-75v20,0,29,9,38,20r129,172r129,-172v16,-31,78,-24,75,20v0,9,-4,21,-15,35r-138,181r157,206v31,36,21,82,-22,82v-15,0,-30,-7,-39,-20r-147,-204r-147,204v-20,33,-81,22,-79,-20v0,-10,4,-23,18,-42","w":464},"y":{"d":"179,-19r-150,-433v-22,-52,-14,-77,28,-86v22,0,38,14,44,33r122,365r2,0r120,-365v7,-43,81,-44,82,4v0,10,-2,19,-12,49r-222,635v-8,42,-81,44,-83,-4v11,-60,50,-139,69,-198","w":444},"z":{"d":"138,-78v75,7,163,-1,242,2v29,0,44,14,44,38v0,24,-15,38,-44,38r-317,0v-60,-5,-48,-41,-25,-76r254,-380r-218,0v-29,0,-44,-14,-44,-38v0,-24,15,-38,44,-38r296,0v60,5,48,41,25,76","w":444},"{":{"d":"76,-26v0,-92,26,-234,-47,-254v-30,-9,-44,-16,-44,-38v0,-22,14,-30,44,-38v119,-35,-46,-362,149,-362v35,0,82,-3,78,30v2,25,-23,30,-54,30v-26,0,-44,18,-44,48r0,158v1,112,-59,125,-91,135v35,4,91,24,91,133r0,158v1,35,22,48,58,48v28,0,40,10,40,30v0,33,-43,31,-78,30v-69,0,-102,-39,-102,-108","w":241},"|":{"d":"70,250r0,-1000v0,-25,13,-43,41,-43v28,0,41,18,41,43r0,1000v0,25,-13,43,-41,43v-28,0,-41,-18,-41,-43","w":222},"}":{"d":"165,-610v0,92,-26,234,47,254v30,9,44,16,44,38v0,22,-14,30,-44,38v-119,35,46,362,-149,362v-35,0,-82,3,-78,-30v-2,-25,23,-30,54,-30v26,0,44,-18,44,-48r0,-158v-1,-112,59,-125,91,-135v-35,-4,-91,-24,-91,-133r0,-158v-1,-35,-22,-48,-58,-48v-28,0,-40,-10,-40,-30v0,-33,43,-31,78,-30v69,0,102,39,102,108","w":241},"~":{"d":"406,-181v-79,0,-146,-68,-209,-68v-43,0,-49,69,-98,68v-20,-1,-35,-15,-35,-29v0,-57,68,-115,130,-115v79,0,146,68,209,68v43,0,49,-69,98,-68v20,1,35,15,35,29v0,57,-68,115,-130,115","w":600},"'":{"d":"61,-539r0,-136v0,-25,13,-43,41,-43v28,0,41,18,41,43r0,136v0,25,-13,43,-41,43v-28,0,-41,-18,-41,-43","w":204},"`":{"d":"175,-607v-52,0,-102,-39,-149,-56v-28,-10,-35,-25,-35,-37v-1,-29,36,-58,72,-33r115,47v28,11,35,25,35,37v0,15,-12,42,-38,42","w":204},"\u00a0":{"w":250}}});
