/*!
 * The following copyright notice may not be removed under any circumstances.
 * 
 * Copyright:
 *  The digitally encoded machine readable software for producing the Typefaces
 * licensed to you is copyrighted (c) 1989, 1995 Adobe Systems. All Rights
 * Reserved. This software is the property of Adobe Systems Incorporated and its
 * licensors, and may not be reproduced, used,  displayed, modified, disclosed or
 * transferred without the express  written approval of Adobe.  The digitally
 * encoded machine readable outline data for producing the Typefaces licensed to
 * you is copyrighted (c) 1981 Linotype-Hell AG and/or its subsidiaries. All
 * Rights Reserved. This data is the property of Linotype-Hell AG and/or its
 * subsidiaries and may not be reproduced, used, displayed, modified, disclosed or
 *  transferred without the express written approval of Linotype-Hell AG  and/or
 * its subsidiaries.
 */
Cufon.registerFont({"w":574,"face":{"font-family":"VAG Rounded","font-weight":900,"font-stretch":"normal","units-per-em":"1000","panose-1":"2 0 10 3 0 0 0 0 0 0","ascent":"800","descent":"-200","x-height":"16","cap-height":"6","bbox":"-66.9591 -815 912 315","underline-thickness":"50","underline-position":"-100","stemh":"150","stemv":"156","unicode-range":"U+0020-U+007E"},"glyphs":{" ":{"w":278},"!":{"d":"208,-640r0,351v0,47,-28,88,-78,88v-50,0,-78,-41,-78,-88r0,-351v0,-47,28,-88,78,-88v50,0,78,41,78,88xm43,-71v0,-47,40,-87,87,-87v47,0,87,40,87,87v0,48,-40,87,-87,87v-47,0,-87,-39,-87,-87","w":260},"\"":{"d":"271,-479r0,-169v0,-41,26,-70,66,-70v40,0,66,29,66,70r0,169v0,41,-26,70,-66,70v-40,0,-66,-29,-66,-70xm78,-479r0,-169v0,-41,26,-70,66,-70v40,0,66,29,66,70r0,169v0,41,-26,70,-66,70v-40,0,-66,-29,-66,-70","w":481},"#":{"d":"111,-35r22,-165r-38,0v-63,0,-67,-96,0,-96r51,0r16,-119r-38,0v-66,0,-65,-96,0,-96r53,0r21,-155v4,-29,16,-52,56,-52v40,0,48,26,41,76r-18,131r90,0r21,-155v4,-29,16,-52,56,-52v40,0,48,26,41,76r-18,131r38,0v66,0,65,95,0,96r-51,0r-16,119r38,0v67,0,64,95,0,96r-53,0r-21,154v-4,29,-16,52,-56,52v-40,0,-48,-26,-41,-76r18,-130r-90,0r-21,154v-4,29,-16,52,-56,52v-25,0,-48,-16,-45,-41xm338,-296r16,-119r-91,0r-16,119r91,0","w":600},"$":{"d":"315,90v-41,0,-28,-40,-30,-74v-66,-4,-226,-22,-226,-116v0,-42,31,-83,72,-83v35,0,85,43,154,43r0,-155v-168,-49,-223,-111,-223,-203v0,-134,102,-219,223,-230v1,-35,-9,-76,30,-76v41,0,28,41,30,76v63,2,177,22,177,106v0,38,-26,75,-67,75v-37,0,-68,-37,-110,-37r0,141v114,32,226,85,226,223v0,156,-129,230,-226,236v-1,34,9,74,-30,74xm285,-460r0,-124v-31,7,-55,30,-55,66v0,32,26,51,55,58xm345,-279r0,139v34,0,58,-34,58,-68v0,-42,-22,-60,-58,-71","w":630},"%":{"d":"17,-567v0,-87,68,-161,156,-161v88,0,156,75,156,161v0,86,-68,161,-156,161v-91,0,-156,-75,-156,-161xm136,-114r323,-561v17,-30,33,-53,62,-53v34,0,59,26,59,56v0,27,-19,54,-31,74r-323,561v-17,30,-33,53,-62,53v-34,0,-59,-26,-59,-56v0,-27,19,-54,31,-74xm131,-567v0,25,16,47,42,47v26,0,42,-22,42,-47v0,-25,-16,-47,-42,-47v-26,0,-42,22,-42,47xm470,-145v0,25,16,47,42,47v26,0,42,-22,42,-47v0,-25,-16,-47,-42,-47v-26,0,-42,22,-42,47xm356,-145v0,-87,68,-161,156,-161v88,0,156,75,156,161v0,86,-68,161,-156,161v-91,0,-156,-75,-156,-161","w":685},"&":{"d":"405,-373r101,117v31,-31,58,-95,107,-96v34,0,71,33,71,68v1,42,-61,92,-91,125v21,28,65,58,65,95v0,42,-39,70,-78,70v-44,0,-66,-46,-93,-71v-71,59,-140,81,-235,81v-125,0,-232,-81,-232,-212v0,-110,70,-168,161,-214v-37,-42,-67,-79,-67,-138v0,-107,90,-172,203,-172v106,0,210,46,210,171v0,79,-55,139,-122,176xm400,-162r-134,-149v-59,35,-90,66,-90,109v0,53,40,92,96,92v54,0,93,-22,128,-52xm323,-612v-33,0,-65,24,-65,61v0,30,14,52,59,90v61,-28,78,-56,78,-84v0,-43,-31,-67,-72,-67","w":704},"(":{"d":"39,-280v0,-149,29,-280,63,-364v21,-50,38,-84,80,-84v40,0,69,24,69,63v0,26,-74,181,-74,385v0,204,74,359,74,385v0,39,-29,63,-69,63v-42,0,-59,-34,-80,-84v-34,-84,-63,-215,-63,-364","w":259},")":{"d":"220,-280v0,149,-29,280,-63,364v-21,50,-38,84,-80,84v-40,0,-69,-24,-69,-63v0,-26,74,-181,74,-385v0,-204,-74,-359,-74,-385v0,-39,29,-63,69,-63v42,0,59,34,80,84v34,84,63,215,63,364","w":259},"*":{"d":"194,-718v28,0,54,13,54,47v0,16,-7,42,-9,63v29,-20,50,-41,75,-41v31,0,54,29,54,59v0,38,-51,46,-84,62v33,16,84,24,84,62v0,30,-23,59,-54,59v-25,0,-46,-21,-75,-41v2,21,9,47,9,63v0,34,-26,47,-54,47v-28,0,-54,-13,-54,-47v0,-16,7,-42,9,-63v-30,20,-53,41,-76,41v-32,0,-52,-29,-52,-59v0,-38,51,-46,83,-62v-32,-16,-83,-24,-83,-62v0,-30,20,-59,52,-59v23,0,46,21,76,41v-2,-21,-9,-47,-9,-63v0,-34,26,-47,54,-47","w":389},"+":{"d":"234,-349v7,-88,-30,-217,66,-217v96,-1,59,129,66,217v88,6,217,-29,217,66v0,95,-130,60,-217,66v-7,88,30,217,-66,217v-96,1,-59,-129,-66,-217r-147,0v-42,0,-70,-30,-70,-66v-1,-95,130,-60,217,-66","w":600},",":{"d":"-3,35r82,-147v14,-25,35,-46,71,-46v67,0,88,67,61,116r-82,147v-14,25,-35,46,-71,46v-67,0,-88,-67,-61,-116","w":278},"-":{"d":"95,-345r236,0v41,0,66,26,66,66v0,40,-25,66,-66,66r-236,0v-41,0,-66,-26,-66,-66v0,-40,25,-66,66,-66","w":426},".":{"d":"52,-71v0,-47,40,-87,87,-87v47,0,87,40,87,87v0,48,-40,87,-87,87v-47,0,-87,-39,-87,-87","w":278},"\/":{"d":"49,-133r269,-513v21,-40,43,-82,78,-82v84,0,51,85,18,149r-269,513v-21,40,-43,82,-78,82v-84,0,-51,-85,-18,-149","w":463},"0":{"d":"17,-356v0,-187,93,-372,298,-372v205,0,298,185,298,372v0,187,-93,372,-298,372v-205,0,-298,-185,-298,-372xm185,-356v0,89,29,216,130,216v101,0,130,-127,130,-216v0,-89,-29,-216,-130,-216v-101,0,-130,127,-130,216","w":630},"1":{"d":"122,-80r0,-482r-51,0v-100,-1,-100,-150,0,-150v99,0,213,-38,213,81r0,551v0,57,-34,86,-81,86v-47,0,-81,-29,-81,-86","w":333},"2":{"d":"249,-150r170,0v100,1,100,149,0,150r-327,0v-54,0,-92,-29,-92,-71v0,-60,91,-133,123,-169v41,-47,181,-193,181,-265v0,-48,-23,-67,-62,-67v-107,0,-53,151,-155,151v-52,0,-77,-41,-77,-78v0,-122,101,-229,242,-229v124,0,226,85,226,216v0,143,-144,257,-229,362","w":500},"3":{"d":"0,-178v0,-40,40,-74,75,-74v87,0,66,112,178,112v47,0,81,-39,81,-85v0,-61,-49,-77,-101,-78v-33,-1,-69,-23,-69,-76v0,-44,21,-59,85,-74v37,-8,61,-26,61,-66v0,-36,-29,-53,-61,-53v-82,0,-86,85,-160,85v-41,0,-66,-40,-66,-74v0,-101,129,-167,224,-167v119,0,219,72,219,195v0,51,-24,103,-80,145v76,30,116,99,116,181v0,129,-110,223,-250,223v-146,0,-252,-98,-252,-194","w":519},"4":{"d":"339,-82r0,-68r-267,0v-109,-2,-82,-93,-50,-143r238,-368v29,-45,64,-57,115,-57v74,0,120,50,120,122r0,302v66,-4,116,9,116,72v0,63,-50,76,-116,72r0,66v0,59,-30,90,-78,90v-48,0,-78,-31,-78,-88xm339,-294r0,-255r-2,0r-148,255r150,0","w":611},"5":{"d":"224,-562r-11,88v168,-47,285,73,285,227v0,147,-113,263,-264,263v-104,0,-232,-56,-232,-133v0,-48,31,-81,69,-81v56,0,85,58,158,58v57,0,95,-41,95,-117v0,-48,-28,-95,-80,-95v-65,0,-69,36,-122,36v-71,0,-70,-59,-60,-134r25,-195v8,-61,44,-67,86,-67r244,0v100,1,100,149,0,150r-193,0","w":500},"6":{"d":"10,-227v0,-129,71,-245,141,-332v120,-149,146,-169,185,-169v54,0,78,51,78,78v0,53,-78,95,-151,202v14,3,34,-6,65,-6v118,0,200,111,200,223v0,139,-106,247,-259,247v-158,0,-259,-99,-259,-243xm178,-231v0,49,41,91,91,91v50,0,91,-42,91,-91v0,-49,-41,-91,-91,-91v-50,0,-91,42,-91,91","w":538},"7":{"d":"89,-144r199,-418r-216,0v-100,-1,-100,-149,0,-150r328,0v89,7,93,81,61,151r-227,490v-18,40,-35,77,-91,77v-91,0,-84,-86,-54,-150","w":481},"8":{"d":"278,-728v124,0,231,68,231,200v0,70,-42,122,-66,141v66,40,96,106,96,171v0,130,-103,232,-261,232v-245,0,-354,-280,-165,-403v-24,-19,-66,-71,-66,-141v0,-132,107,-200,231,-200xm185,-233v0,52,41,93,93,93v52,0,93,-41,93,-93v0,-52,-41,-93,-93,-93v-52,0,-93,41,-93,93xm209,-515v0,37,32,69,69,69v37,0,69,-32,69,-69v0,-37,-32,-69,-69,-69v-37,0,-69,32,-69,69","w":556},"9":{"d":"528,-485v0,129,-71,245,-141,332v-120,149,-146,169,-185,169v-54,0,-78,-51,-78,-78v0,-53,78,-95,151,-202v-14,-3,-34,6,-65,6v-118,0,-200,-111,-200,-223v0,-139,106,-247,259,-247v158,0,259,99,259,243xm360,-481v0,-49,-41,-91,-91,-91v-50,0,-91,42,-91,91v0,49,41,91,91,91v50,0,91,-42,91,-91","w":538},":":{"d":"52,-71v0,-47,40,-87,87,-87v47,0,87,40,87,87v0,48,-40,87,-87,87v-47,0,-87,-39,-87,-87xm52,-383v0,-47,40,-87,87,-87v47,0,87,40,87,87v0,48,-40,87,-87,87v-47,0,-87,-39,-87,-87","w":278},";":{"d":"-3,35r82,-147v14,-25,35,-46,71,-46v67,0,88,67,61,116r-82,147v-14,25,-35,46,-71,46v-67,0,-88,-67,-61,-116xm52,-383v0,-47,40,-87,87,-87v47,0,87,40,87,87v0,48,-40,87,-87,87v-47,0,-87,-39,-87,-87","w":278},"<":{"d":"467,-39r-407,-187v-47,-18,-47,-93,0,-114r407,-187v55,-28,110,-17,110,46v0,23,-5,45,-47,63r-322,135r322,135v42,18,47,40,47,63v0,63,-54,72,-110,46","w":600},"=":{"d":"87,-467r426,0v42,0,70,24,70,66v0,42,-28,66,-70,66r-426,0v-42,0,-70,-24,-70,-66v0,-42,28,-66,70,-66xm87,-231r426,0v42,0,70,24,70,66v0,42,-28,66,-70,66r-426,0v-42,0,-70,-24,-70,-66v0,-42,28,-66,70,-66","w":600},">":{"d":"70,-148r322,-135r-322,-135v-42,-18,-47,-40,-47,-63v0,-63,54,-72,110,-46r407,187v47,18,47,93,0,114r-407,187v-55,28,-110,17,-110,-46v0,-23,5,-45,47,-63","w":600},"?":{"d":"155,-279r0,-80v0,-54,38,-59,79,-66v47,-9,76,-30,76,-76v0,-31,-27,-65,-73,-65v-89,0,-76,90,-156,90v-40,0,-72,-35,-72,-75v0,-113,129,-177,228,-177v132,0,247,82,247,222v0,128,-73,187,-173,207v6,59,-25,97,-78,98v-46,0,-78,-32,-78,-78xm146,-71v0,-47,40,-87,87,-87v47,0,87,40,87,87v0,48,-40,87,-87,87v-47,0,-87,-39,-87,-87","w":500},"@":{"d":"313,-333v0,46,19,81,67,81v68,0,107,-47,107,-104v0,-45,-26,-78,-76,-78v-57,0,-98,49,-98,101xm611,-497r-41,236v0,11,5,19,19,19v36,0,86,-45,86,-152v0,-160,-109,-244,-261,-244v-152,0,-271,126,-271,283v0,175,120,281,280,281v83,0,149,-22,183,-52v36,-32,91,16,56,52v-30,30,-117,90,-239,90v-213,0,-388,-154,-388,-371v0,-213,171,-373,382,-373v189,0,348,117,348,306v0,224,-191,284,-250,284v-41,0,-55,-21,-61,-50v-24,27,-62,50,-124,50v-62,0,-131,-66,-131,-170v0,-140,91,-240,195,-240v60,0,93,20,122,62v2,-33,28,-59,51,-54v24,0,49,15,44,43","w":800},"A":{"d":"23,-160r156,-421v29,-79,54,-147,135,-147v83,0,108,68,137,147r156,421v21,57,24,76,24,100v0,40,-32,66,-78,66v-79,1,-83,-84,-105,-143r-266,0v-22,60,-27,144,-105,143v-46,0,-78,-26,-78,-66v0,-24,3,-43,24,-100xm400,-287r-81,-261r-2,0r-87,261r170,0","w":630},"B":{"d":"201,-568r0,134v73,2,148,6,148,-67v0,-73,-75,-70,-148,-67xm39,-81r0,-550v0,-52,39,-81,81,-81r191,0v123,0,200,76,200,186v0,73,-51,116,-85,136v87,17,143,86,143,175v0,113,-73,215,-248,215r-201,0v-42,0,-81,-29,-81,-81xm201,-290r0,146v89,-1,200,17,200,-73v0,-90,-111,-72,-200,-73","w":593},"C":{"d":"21,-356v0,-216,139,-372,353,-372v98,0,215,28,215,113v0,39,-28,77,-70,77v-38,0,-78,-34,-141,-34v-131,0,-183,106,-183,216v0,113,58,210,169,210v101,0,117,-33,159,-33v64,0,72,54,72,75v0,89,-135,120,-224,120v-224,0,-350,-168,-350,-372","w":593},"D":{"d":"201,-562r0,412r86,0v126,0,185,-87,185,-211v0,-120,-60,-201,-178,-201r-93,0xm39,-81r0,-550v0,-52,39,-81,81,-81r194,0v212,0,332,168,332,351v0,233,-156,361,-332,361r-194,0v-42,0,-81,-29,-81,-81","w":667},"E":{"d":"39,-81r0,-550v0,-52,39,-81,81,-81r248,0v51,0,81,30,81,75v0,47,-30,75,-81,75r-167,0r0,129r153,0v51,0,81,29,81,75v0,46,-30,75,-81,75r-153,0r0,133r173,0v51,0,81,28,81,75v0,45,-30,75,-81,75r-254,0v-42,0,-81,-29,-81,-81","w":463},"F":{"d":"39,-80r0,-551v0,-52,39,-81,81,-81r248,0v51,0,81,30,81,75v0,47,-30,75,-81,75r-167,0r0,127r146,0v51,0,81,29,81,75v0,46,-30,75,-81,75r-146,0r0,205v0,57,-34,86,-81,86v-47,0,-81,-29,-81,-86","w":444},"G":{"d":"434,-422r175,0v56,0,86,32,86,99v0,191,-126,339,-324,339v-224,0,-350,-168,-350,-372v0,-216,149,-372,350,-372v134,0,276,56,276,156v0,40,-28,68,-73,68v-59,0,-87,-74,-196,-74v-113,0,-183,98,-183,222v0,110,54,222,180,222v85,0,144,-55,152,-138r-93,0v-51,0,-81,-30,-81,-75v0,-47,30,-75,81,-75","w":722},"H":{"d":"201,-290r0,210v0,57,-34,86,-81,86v-47,0,-81,-29,-81,-86r0,-552v0,-57,34,-86,81,-86v47,0,81,29,81,86r0,192r302,0r0,-192v0,-57,34,-86,81,-86v47,0,81,29,81,86r0,552v0,57,-34,86,-81,86v-47,0,-81,-29,-81,-86r0,-210r-302,0","w":704},"I":{"d":"201,-632r0,552v0,57,-34,86,-81,86v-47,0,-81,-29,-81,-86r0,-552v0,-57,34,-86,81,-86v47,0,81,29,81,86","w":240},"J":{"d":"172,16v-81,0,-180,-35,-180,-117v0,-39,23,-77,74,-77v40,0,60,38,101,38v42,0,58,-28,58,-108r0,-384v0,-57,34,-86,81,-86v47,0,81,29,81,86r0,412v0,110,-29,236,-215,236","w":426},"K":{"d":"39,-80r0,-552v0,-57,34,-86,81,-86v47,0,81,29,81,86r0,198r223,-243v32,-36,52,-41,76,-41v36,0,81,35,81,78v0,24,-15,47,-32,65r-193,194r211,229v25,27,45,48,45,78v0,52,-40,80,-85,80v-43,0,-74,-39,-100,-68r-226,-254r0,236v0,57,-34,86,-81,86v-47,0,-81,-29,-81,-86","w":593},"L":{"d":"39,-81r0,-551v0,-57,34,-86,81,-86v47,0,81,29,81,86r0,482r174,0v51,0,81,28,81,75v0,45,-30,75,-81,75r-255,0v-42,0,-81,-29,-81,-81","w":444},"M":{"d":"17,-71v0,-151,64,-385,91,-545v14,-85,66,-102,107,-102v81,0,99,47,140,175r79,245r2,0r79,-245v41,-128,59,-175,140,-175v41,0,92,17,107,102r64,366v13,74,27,155,27,179v0,36,-28,77,-76,77v-73,0,-86,-52,-94,-107r-48,-316r-2,0r-109,350v-16,52,-40,73,-89,73v-49,0,-73,-21,-89,-73r-109,-350r-2,0r-48,316v-8,55,-21,107,-94,107v-48,0,-76,-41,-76,-77","w":870},"N":{"d":"39,-80r0,-552v0,-57,34,-86,81,-86v43,0,58,19,112,87r269,337r2,0r0,-338v0,-57,34,-86,81,-86v47,0,81,29,81,86r0,552v0,57,-34,86,-81,86v-43,0,-59,-19,-112,-87r-269,-337r-2,0r0,338v0,57,-34,86,-81,86v-47,0,-81,-29,-81,-86","w":704},"O":{"d":"371,-728v211,0,350,146,350,372v0,226,-139,372,-350,372v-211,0,-350,-146,-350,-372v0,-226,139,-372,350,-372xm371,-578v-125,0,-176,109,-176,222v0,113,51,222,176,222v125,0,176,-109,176,-222v0,-113,-51,-222,-176,-222","w":742},"P":{"d":"201,-568r0,195r87,0v69,0,107,-47,107,-97v0,-64,-43,-98,-107,-98r-87,0xm39,-80r0,-551v0,-52,39,-81,81,-81r199,0v125,0,244,81,244,242v0,139,-85,241,-239,241r-123,0r0,149v0,57,-34,86,-81,86v-47,0,-81,-29,-81,-86"},"Q":{"d":"681,56v-35,9,-99,-57,-131,-84v-50,29,-111,44,-179,44v-211,0,-350,-146,-350,-372v0,-226,139,-372,350,-372v211,0,350,146,350,372v0,91,-22,169,-64,230v30,27,102,82,91,113v0,40,-29,69,-67,69xm433,-290v26,0,54,16,93,50v52,-141,11,-338,-155,-338v-125,0,-176,109,-176,222v0,129,76,253,225,215v-43,-34,-54,-56,-54,-80v0,-40,29,-69,67,-69","w":742},"R":{"d":"39,-80r0,-551v0,-52,39,-81,81,-81r195,0v144,0,238,88,238,221v0,105,-64,181,-166,200r141,152v22,24,34,43,34,70v0,23,-21,75,-83,75v-42,0,-57,-15,-77,-40r-199,-251r-2,0r0,205v0,57,-34,86,-81,86v-47,0,-81,-29,-81,-86xm201,-562r0,157r107,0v53,0,83,-35,83,-80v0,-48,-37,-77,-83,-77r-107,0"},"S":{"d":"5,-101v0,-44,27,-86,76,-86v40,0,92,41,175,41v63,0,86,-32,86,-67v0,-54,-62,-65,-154,-95v-84,-27,-171,-63,-171,-192v0,-155,121,-228,256,-228v130,0,202,45,202,107v0,44,-29,76,-72,76v-52,0,-69,-27,-138,-27v-44,0,-74,23,-74,58v0,41,40,46,152,83v88,29,173,74,173,209v0,164,-121,238,-272,238v-95,0,-239,-37,-239,-117","w":537},"T":{"d":"151,-80r0,-482r-91,0v-54,0,-84,-30,-84,-75v0,-47,30,-75,84,-75r344,0v54,0,84,28,84,75v0,45,-30,75,-84,75r-91,0r0,482v0,57,-34,86,-81,86v-47,0,-81,-29,-81,-86","w":464},"U":{"d":"196,-632r0,346v0,95,66,146,146,146v80,0,147,-51,147,-146r0,-346v0,-57,34,-86,81,-86v47,0,81,29,81,86r0,346v0,188,-129,302,-309,302v-180,0,-308,-114,-308,-302r0,-346v0,-57,34,-86,81,-86v47,0,81,29,81,86","w":685},"V":{"d":"287,-281r138,-364v15,-37,29,-73,90,-73v74,0,86,77,62,138r-202,500v-16,40,-30,86,-90,86v-60,0,-74,-46,-90,-86r-198,-500v-33,-54,-13,-139,62,-138v61,0,75,36,90,73"},"W":{"d":"120,-115r-108,-441v-5,-21,-16,-56,-16,-83v0,-43,32,-79,81,-79v53,0,75,32,84,72r83,384r2,0r117,-373v20,-62,48,-83,91,-83v43,0,71,21,91,83r117,373r2,0r83,-384v9,-40,31,-72,84,-72v49,0,81,36,81,79v0,27,-11,62,-16,83r-108,441v-19,78,-36,121,-114,121v-62,0,-96,-31,-115,-89r-104,-326r-2,0r-104,326v-19,58,-53,89,-115,89v-78,0,-95,-43,-114,-121","w":908},"X":{"d":"306,-518r91,-126v28,-40,50,-74,94,-74v95,0,99,89,55,147r-142,188r173,232v26,35,35,47,35,78v0,46,-34,79,-79,79v-29,0,-51,-10,-79,-48r-148,-202r-148,202v-28,38,-50,48,-79,48v-45,0,-79,-33,-79,-79v0,-31,9,-43,35,-78r173,-232r-142,-188v-49,-54,-40,-147,55,-147v44,0,66,34,94,74","w":612},"Y":{"d":"188,-80r0,-254r-140,-188v-51,-71,-67,-91,-67,-124v0,-43,38,-72,86,-72v44,0,65,31,82,55r120,171r120,-171v17,-24,38,-55,82,-55v48,0,86,29,86,72v0,33,-15,54,-67,124r-140,188r0,254v0,57,-34,86,-81,86v-47,0,-81,-29,-81,-86","w":538},"Z":{"d":"198,-150r264,0v56,0,86,30,86,75v0,45,-30,75,-86,75r-359,0v-126,4,-135,-92,-84,-160r306,-408r-239,0v-56,0,-86,-30,-86,-72v0,-42,30,-72,86,-72r348,0v86,0,99,53,99,81v0,34,-30,75,-76,136","w":537},"[":{"d":"218,-614r0,668v62,-3,126,-4,125,57v-1,84,-117,57,-194,57v-45,0,-69,-24,-69,-69r0,-758v-5,-97,120,-69,206,-69v33,0,57,23,57,57v1,61,-63,60,-125,57","w":352},"\\":{"d":"318,-66r-269,-513v-20,-38,-38,-73,-38,-95v0,-34,22,-54,56,-54v35,0,57,42,78,82r269,513v20,38,38,73,38,95v0,34,-22,54,-56,54v-35,0,-57,-42,-78,-82","w":463},"]":{"d":"134,54r0,-668v-62,3,-126,4,-125,-57v1,-84,117,-57,194,-57v45,0,69,24,69,69r0,758v5,97,-120,69,-206,69v-33,0,-57,-23,-57,-57v-1,-61,63,-60,125,-57","w":352},"^":{"d":"413,-355r-113,-207r-113,207v-18,33,-38,40,-69,40v-67,0,-59,-42,-38,-80r154,-280v19,-35,40,-43,66,-43v26,0,47,8,66,43r154,280v19,40,29,80,-38,80v-31,0,-51,-7,-69,-40","w":600},"_":{"d":"500,125r-500,0v-16,0,-29,-9,-29,-25v0,-16,13,-25,29,-25r500,0v16,0,29,9,29,25v0,16,-13,25,-29,25","w":500},"a":{"d":"541,-457r0,382v0,45,-32,81,-78,81v-38,0,-62,-26,-73,-50v-35,43,-75,60,-134,60v-136,0,-241,-125,-241,-282v0,-157,105,-282,241,-282v59,0,99,17,134,60v11,-24,35,-50,73,-50v46,0,78,36,78,81xm278,-398v-69,0,-107,60,-107,132v0,72,38,132,107,132v69,0,107,-60,107,-132v0,-72,-38,-132,-107,-132"},"b":{"d":"33,-75r0,-614v0,-45,32,-81,78,-81v46,0,78,36,78,81r0,185v28,-23,62,-44,129,-44v136,0,241,125,241,282v0,157,-105,282,-241,282v-59,0,-99,-17,-134,-60v-11,24,-35,50,-73,50v-46,0,-78,-36,-78,-81xm296,-398v-69,0,-107,60,-107,132v0,72,38,132,107,132v69,0,107,-60,107,-132v0,-72,-38,-132,-107,-132"},"c":{"d":"15,-266v0,-157,105,-282,263,-282v70,0,185,20,185,103v0,42,-28,73,-64,73v-40,0,-51,-26,-112,-26v-79,0,-116,60,-116,132v0,72,38,132,107,132v67,0,98,-27,121,-27v36,0,64,36,64,69v0,78,-123,108,-185,108v-158,0,-263,-125,-263,-282","w":463},"d":{"d":"541,-689r0,614v0,45,-32,81,-78,81v-38,0,-62,-26,-73,-50v-35,43,-75,60,-134,60v-136,0,-241,-125,-241,-282v0,-157,105,-282,241,-282v67,0,101,21,129,44r0,-185v0,-45,32,-81,78,-81v46,0,78,36,78,81xm278,-398v-69,0,-107,60,-107,132v0,72,38,132,107,132v69,0,107,-60,107,-132v0,-72,-38,-132,-107,-132"},"e":{"d":"465,-215r-282,0v0,33,25,87,125,87v77,0,124,-49,160,-49v35,0,65,27,65,67v0,76,-127,126,-245,126v-168,0,-273,-125,-273,-282v0,-150,113,-282,273,-282v154,0,253,129,253,265v0,55,-26,68,-76,68xm183,-322r202,0v0,-35,-40,-94,-101,-94v-61,0,-101,59,-101,94","w":556},"f":{"d":"76,-75r0,-313v-60,3,-100,-15,-100,-72v0,-56,40,-76,100,-72v-13,-138,39,-238,162,-238v48,0,104,13,104,72v0,49,-25,72,-74,72v-38,-8,-37,52,-36,94v69,-4,125,5,125,72v0,66,-56,77,-125,72r0,313v0,45,-32,81,-78,81v-46,0,-78,-36,-78,-81","w":333},"g":{"d":"541,-457r0,405v0,199,-130,274,-283,274v-81,0,-233,-31,-233,-116v0,-35,34,-68,65,-68v45,0,74,46,165,46v95,0,135,-56,128,-138v-34,48,-90,60,-142,60v-151,0,-226,-131,-226,-272v0,-157,105,-282,241,-282v59,0,99,17,134,60v11,-24,35,-50,73,-50v46,0,78,36,78,81xm385,-266v0,-72,-38,-132,-107,-132v-69,0,-107,60,-107,132v0,76,38,134,107,134v69,0,107,-58,107,-134"},"h":{"d":"36,-75r0,-614v0,-45,32,-81,78,-81v46,0,78,36,78,81r0,180v35,-18,72,-40,134,-39v108,0,194,56,194,184r0,289v0,45,-32,81,-78,81v-46,0,-78,-36,-78,-81r0,-247v0,-54,-32,-94,-86,-94v-54,0,-86,40,-86,94r0,247v0,45,-32,81,-78,81v-46,0,-78,-36,-78,-81","w":556},"i":{"d":"33,-75r0,-382v0,-45,32,-81,78,-81v46,0,78,36,78,81r0,382v0,45,-32,81,-78,81v-46,0,-78,-36,-78,-81xm18,-677v0,-52,42,-93,93,-93v51,0,93,41,93,93v0,52,-42,93,-93,93v-51,0,-93,-41,-93,-93","w":222},"j":{"d":"33,141r0,-598v0,-45,32,-81,78,-81v46,0,78,36,78,81r0,598v0,45,-32,81,-78,81v-46,0,-78,-36,-78,-81xm18,-677v0,-52,42,-93,93,-93v51,0,93,41,93,93v0,52,-42,93,-93,93v-51,0,-93,-41,-93,-93","w":222},"k":{"d":"36,-75r0,-614v0,-45,32,-81,78,-81v46,0,78,36,78,81r0,332r127,-127v27,-27,50,-54,88,-54v46,0,76,34,76,72v0,28,-18,46,-55,82r-84,83r131,166v16,20,37,46,37,69v0,30,-23,72,-77,72v-36,0,-52,-11,-85,-53r-156,-204r-2,0r0,176v0,45,-32,81,-78,81v-46,0,-78,-36,-78,-81","w":500},"l":{"d":"33,-75r0,-614v0,-45,32,-81,78,-81v46,0,78,36,78,81r0,614v0,45,-32,81,-78,81v-46,0,-78,-36,-78,-81","w":222},"m":{"d":"36,-75r0,-382v0,-45,32,-81,78,-81v42,0,68,27,78,50v60,-80,207,-83,279,4v37,-28,84,-64,151,-64v108,0,194,56,194,184r0,289v0,45,-32,81,-78,81v-46,0,-78,-36,-78,-81r0,-247v0,-49,-27,-94,-78,-94v-51,0,-78,45,-78,94r0,247v0,45,-32,81,-78,81v-46,0,-78,-36,-78,-81r0,-247v0,-49,-27,-94,-78,-94v-51,0,-78,45,-78,94r0,247v0,45,-32,81,-78,81v-46,0,-78,-36,-78,-81","w":852},"n":{"d":"36,-75r0,-382v0,-45,32,-81,78,-81v42,0,68,27,78,50v25,-39,67,-60,134,-60v108,0,194,56,194,184r0,289v0,45,-32,81,-78,81v-46,0,-78,-36,-78,-81r0,-247v0,-54,-32,-94,-86,-94v-54,0,-86,40,-86,94r0,247v0,45,-32,81,-78,81v-46,0,-78,-36,-78,-81","w":556},"o":{"d":"278,-548v158,0,263,125,263,282v0,157,-105,282,-263,282v-158,0,-263,-125,-263,-282v0,-157,105,-282,263,-282xm278,-398v-69,0,-107,60,-107,132v0,72,38,132,107,132v69,0,107,-60,107,-132v0,-72,-38,-132,-107,-132","w":556},"p":{"d":"33,141r0,-598v0,-45,32,-81,78,-81v38,0,62,26,73,50v35,-43,75,-60,134,-60v136,0,241,125,241,282v0,157,-105,282,-241,282v-67,0,-101,-21,-129,-44r0,169v0,45,-32,81,-78,81v-46,0,-78,-36,-78,-81xm296,-134v69,0,107,-60,107,-132v0,-72,-38,-132,-107,-132v-69,0,-107,60,-107,132v0,72,38,132,107,132"},"q":{"d":"171,-266v0,72,38,132,107,132v69,0,107,-60,107,-132v0,-72,-38,-132,-107,-132v-69,0,-107,60,-107,132xm541,-457r0,598v0,45,-32,81,-78,81v-46,0,-78,-36,-78,-81r0,-169v-28,23,-62,44,-129,44v-136,0,-241,-125,-241,-282v0,-157,105,-282,241,-282v59,0,99,17,134,60v15,-30,36,-50,73,-50v46,0,78,36,78,81"},"r":{"d":"36,-75r0,-382v0,-45,32,-81,78,-81v42,0,68,27,78,50v26,-31,64,-60,108,-60v40,0,80,32,80,81v0,54,-41,67,-98,84v-68,20,-90,38,-90,118r0,190v0,45,-32,81,-78,81v-46,0,-78,-36,-78,-81","w":352},"s":{"d":"9,-92v0,-44,29,-75,64,-75v49,0,83,45,150,45v32,0,44,-15,44,-31v0,-32,-34,-35,-121,-71v-80,-33,-123,-63,-123,-147v0,-89,76,-177,201,-177v63,0,180,30,180,111v0,39,-28,66,-65,66v-31,0,-77,-39,-125,-39v-21,0,-41,10,-41,33v0,61,244,47,244,218v0,110,-93,175,-200,175v-98,0,-208,-39,-208,-108","w":426},"t":{"d":"76,-75r0,-313v-60,3,-100,-15,-100,-72v0,-56,40,-76,100,-72r0,-102v0,-45,32,-81,78,-81v46,0,78,36,78,81r0,102v69,-4,125,5,125,72v0,66,-56,77,-125,72r0,313v0,45,-32,81,-78,81v-46,0,-78,-36,-78,-81","w":333},"u":{"d":"520,-457r0,265v0,144,-112,208,-242,208v-130,0,-242,-64,-242,-208r0,-265v0,-45,32,-81,78,-81v46,0,78,36,78,81r0,243v2,116,172,115,172,0r0,-243v0,-45,32,-81,78,-81v46,0,78,36,78,81","w":556},"v":{"d":"146,-57r-127,-316v-14,-35,-24,-63,-24,-87v0,-42,35,-78,78,-78v31,0,58,10,75,59r83,236r2,0r83,-236v27,-99,151,-63,153,19v0,24,-10,52,-24,87r-127,316v-15,37,-42,63,-86,63v-44,0,-71,-26,-86,-63","w":464},"w":{"d":"128,-71r-109,-305v-34,-70,-40,-162,55,-162v37,0,64,20,74,55r76,253r2,0r70,-219v13,-41,28,-89,84,-89v56,0,71,48,84,89r70,219r2,0r76,-253v10,-35,37,-55,74,-55v95,0,81,90,55,162r-109,305v-18,51,-44,77,-97,77v-56,0,-75,-29,-93,-82r-61,-184r-2,0r-61,184v-18,53,-37,82,-93,82v-53,0,-79,-26,-97,-77","w":760},"x":{"d":"23,-139r133,-141v-37,-46,-141,-126,-141,-177v0,-89,104,-103,152,-43r83,103r83,-103v42,-65,152,-46,152,43v0,51,-105,131,-141,177r133,141v13,15,31,34,31,67v0,48,-37,78,-80,78v-33,0,-51,-19,-69,-40r-109,-127r-109,127v-18,21,-36,40,-69,40v-43,0,-80,-30,-80,-78v0,-33,18,-52,31,-67","w":500},"y":{"d":"88,152v0,-64,56,-144,78,-203r-133,-317v-18,-42,-33,-79,-33,-97v0,-46,37,-73,76,-73v38,0,65,20,80,59r92,238r87,-212v20,-48,42,-85,85,-85v80,0,87,86,61,147r-231,539v-18,41,-31,74,-85,74v-56,0,-77,-44,-77,-70","w":500},"z":{"d":"70,0v-49,6,-75,-28,-75,-55v0,-12,1,-26,24,-58r200,-275v-91,-5,-219,28,-219,-72v0,-50,32,-72,82,-72r300,0v65,-6,90,52,53,101r-214,287v98,8,248,-35,247,72v0,50,-32,72,-82,72r-316,0","w":463},"{":{"d":"98,37r0,-203v0,-60,-23,-66,-48,-66v-65,0,-64,-96,0,-96v25,0,48,-6,48,-66r0,-203v-4,-120,85,-131,207,-131v26,0,45,15,45,45v0,40,-29,45,-70,45v-28,0,-44,17,-44,58r0,198v1,94,-77,94,-108,103v35,3,108,10,108,101r0,198v1,52,23,58,69,58v26,0,45,15,45,45v1,59,-65,45,-119,45v-87,0,-133,-40,-133,-131","w":352},"|":{"d":"51,250r0,-1000v0,-36,20,-65,60,-65v40,0,60,29,60,65r0,1000v0,36,-20,65,-60,65v-40,0,-60,-29,-60,-65","w":222},"}":{"d":"254,-597r0,203v0,60,23,66,48,66v65,0,64,96,0,96v-25,0,-48,6,-48,66r0,203v4,120,-85,131,-207,131v-26,0,-45,-15,-45,-45v0,-40,29,-45,70,-45v28,0,44,-17,44,-58r0,-198v-1,-94,77,-94,108,-103v-35,-3,-108,-10,-108,-101r0,-198v-1,-52,-23,-58,-69,-58v-26,0,-45,-15,-45,-45v-1,-59,65,-45,119,-45v87,0,133,40,133,131","w":352},"~":{"d":"559,-321v0,66,-55,138,-147,138v-79,0,-166,-68,-217,-68v-55,0,-69,60,-111,60v-32,0,-43,-25,-43,-54v0,-66,55,-138,141,-138v85,0,172,68,223,68v55,0,69,-60,111,-60v32,0,43,25,43,54","w":600},"'":{"d":"64,-479r0,-169v0,-41,26,-70,66,-70v40,0,66,29,66,70r0,169v0,41,-26,70,-66,70v-40,0,-66,-29,-66,-70","w":259},"`":{"d":"-3,-791v77,9,125,52,191,74v60,20,41,132,-28,124v-77,-9,-125,-52,-191,-74v-60,-20,-41,-132,28,-124","w":222},"\u00a0":{"w":278}}});
