/*!
 * The following copyright notice may not be removed under any circumstances.
 * 
 * Copyright:
 *  The digitally encoded machine readable software for producing the Typefaces
 * licensed to you is copyrighted (c) 1989, 1995 Adobe Systems. All Rights
 * Reserved. This software is the property of Adobe Systems Incorporated and its
 * licensors, and may not be reproduced, used,  displayed, modified, disclosed or
 * transferred without the express  written approval of Adobe.  The digitally
 * encoded machine readable outline data for producing the Typefaces licensed to
 * you is copyrighted (c) 1981 Linotype-Hell AG and/or its subsidiaries. All
 * Rights Reserved. This data is the property of Linotype-Hell AG and/or its
 * subsidiaries and may not be reproduced, used, displayed, modified, disclosed or
 *  transferred without the express written approval of Linotype-Hell AG  and/or
 * its subsidiaries.
 */
Cufon.registerFont({"w":574,"face":{"font-family":"VAGRounded","font-weight":700,"font-stretch":"normal","units-per-em":"1000","panose-1":"2 0 8 3 0 0 0 0 0 0","ascent":"800","descent":"-200","x-height":"12","cap-height":"6","bbox":"-151.04 -939 1060 310","underline-thickness":"50","underline-position":"-100","stemh":"138","stemv":"144","unicode-range":"U+0020-U+FB02"},"glyphs":{" ":{"w":268},"!":{"d":"95,-271r0,-385v0,-42,31,-68,72,-68v40,0,72,27,72,68r0,385v0,41,-32,68,-72,68v-41,0,-72,-26,-72,-68xm167,12v-43,0,-78,-35,-78,-78v0,-43,35,-78,78,-78v43,0,78,35,78,78v0,43,-35,78,-78,78","w":334},"\"":{"d":"253,-494r0,-170v0,-36,23,-60,60,-60v37,0,60,24,60,60r0,170v0,36,-23,60,-60,60v-37,0,-60,-24,-60,-60xm71,-494r0,-170v0,-36,23,-60,60,-60v37,0,60,24,60,60r0,170v0,36,-23,60,-60,60v-37,0,-60,-24,-60,-60","w":444},"#":{"d":"148,-299r16,-114r-86,0v-65,0,-64,-96,0,-96r100,0r22,-161v-1,-65,96,-61,96,-8v0,47,-15,113,-22,169r96,0r22,-161v-1,-65,96,-61,96,-8v0,47,-15,113,-22,169r86,0v65,0,64,96,0,96r-100,0r-16,114r86,0v65,0,64,96,0,96r-100,0r-22,161v1,65,-96,61,-96,8v0,-47,15,-113,22,-169r-96,0r-22,161v1,65,-96,61,-96,8v0,-47,15,-113,22,-169r-86,0v-65,0,-64,-96,0,-96r100,0xm261,-413r-16,114r95,0r16,-114r-95,0","w":600},"$":{"d":"291,-283r0,146v42,-10,65,-42,65,-81v0,-33,-27,-52,-65,-65xm237,-462r0,-114v-30,8,-53,29,-53,61v0,26,21,41,53,53xm237,-133r0,-167v-95,-28,-215,-54,-215,-197v0,-128,96,-212,215,-225v2,-34,-10,-78,27,-78v37,0,24,44,27,78v60,2,175,26,175,98v0,39,-26,74,-67,74v-35,0,-63,-22,-108,-27r0,133v97,28,227,63,227,224v0,133,-102,219,-227,229v-2,34,11,79,-27,79v-37,0,-24,-45,-27,-78v-81,-2,-218,-24,-218,-110v0,-39,26,-71,67,-71v43,0,93,32,151,38","w":537},"%":{"d":"185,-503v33,0,52,-27,52,-59v0,-32,-19,-60,-52,-60v-33,0,-52,28,-52,60v0,32,19,59,52,59xm149,-74r331,-624v21,-59,105,-29,105,24v0,8,0,15,-8,30r-336,629v-15,21,-21,33,-45,33v-41,0,-68,-52,-47,-92xm185,-401v-89,0,-154,-74,-154,-161v0,-87,65,-162,154,-162v89,0,154,75,154,162v0,87,-65,161,-154,161xm537,12v-89,0,-154,-74,-154,-161v0,-87,65,-162,154,-162v89,0,154,75,154,162v0,87,-65,161,-154,161xm537,-90v33,0,52,-27,52,-59v0,-32,-19,-60,-52,-60v-33,0,-52,28,-52,60v0,32,19,59,52,59","w":722},"&":{"d":"399,-178r-145,-161v-45,29,-86,64,-86,121v0,63,43,98,104,98v54,0,89,-22,127,-58xm396,-392r105,116v31,-31,65,-91,115,-91v29,0,55,25,55,63v0,34,-50,91,-80,122r68,77v45,38,13,118,-48,117v-23,0,-38,-7,-53,-23r-69,-72v-65,57,-131,95,-220,95v-134,0,-245,-76,-245,-216v0,-99,69,-172,151,-217v-39,-39,-66,-79,-66,-135v0,-114,107,-168,210,-168v90,0,204,51,204,157v0,80,-63,142,-127,175xm385,-552v0,-45,-40,-58,-66,-58v-26,0,-60,20,-60,50v0,30,14,48,53,86v30,-15,73,-42,73,-78","w":704},"\u2019":{"d":"231,-658v-19,74,-65,127,-97,190v-31,61,-124,33,-125,-32v17,-75,63,-127,95,-190v32,-62,125,-33,127,32","w":240},"(":{"d":"236,-666v-33,115,-71,251,-71,381v0,97,14,204,46,296v5,13,25,69,25,79v0,38,-26,64,-64,64v-24,0,-40,-17,-52,-38v-53,-92,-81,-296,-81,-401v0,-94,31,-357,100,-426v33,-33,98,-2,97,45","w":241},")":{"d":"5,96v33,-115,71,-251,71,-381v0,-97,-14,-204,-46,-296v-5,-13,-25,-69,-25,-79v0,-38,26,-64,64,-64v24,0,40,17,52,38v53,92,81,296,81,401v0,94,-31,357,-100,426v-33,33,-98,2,-97,-45","w":241},"*":{"d":"194,-718v27,0,51,13,51,46v0,16,-6,42,-8,63v28,-20,48,-41,71,-41v30,0,52,29,52,58v0,38,-49,46,-80,62v31,15,80,23,80,61v0,29,-22,59,-52,59v-23,0,-43,-22,-71,-42v2,21,8,47,8,63v0,33,-24,46,-51,46v-27,0,-51,-13,-51,-46v0,-16,6,-42,8,-63v-29,20,-50,42,-72,42v-31,0,-50,-30,-50,-59v0,-38,49,-46,79,-61v-30,-16,-79,-24,-79,-62v0,-29,19,-58,50,-58v22,0,43,21,72,41v-2,-21,-8,-47,-8,-63v0,-33,24,-46,51,-46","w":389},"+":{"d":"240,-313v7,-81,-29,-205,60,-205v89,0,53,124,60,205v81,6,206,-29,205,60v0,36,-23,60,-60,60r-145,0v-7,81,29,205,-60,205v-89,0,-53,-124,-60,-205v-81,-6,-206,29,-205,-60v0,-36,23,-60,60,-60r145,0","w":600},",":{"d":"212,-90v-19,74,-65,127,-97,190v-31,61,-124,33,-125,-32v17,-75,63,-127,95,-190v32,-62,125,-33,127,32","w":268},"-":{"d":"88,-353r213,0v37,3,57,28,57,64v0,34,-20,62,-57,62r-213,0v-37,-3,-57,-28,-57,-62v0,-36,20,-64,57,-64","w":389},".":{"d":"56,-66v0,-43,35,-78,78,-78v43,0,78,35,78,78v0,43,-35,78,-78,78v-43,0,-78,-35,-78,-78","w":268},"\/":{"d":"17,-71r267,-616v9,-22,24,-37,56,-37v44,0,70,37,50,83r-266,616v-13,55,-120,44,-116,-18v0,-3,3,-14,9,-28","w":407},"0":{"d":"287,-124v102,0,109,-161,109,-232v0,-76,-7,-232,-109,-232v-102,0,-109,156,-109,232v0,71,7,232,109,232xm287,12v-202,0,-265,-205,-265,-368v0,-163,63,-368,265,-368v202,0,265,205,265,368v0,163,-63,368,-265,368"},"1":{"d":"152,-72r0,-502r-59,0v-94,0,-87,-138,0,-138r142,0v43,0,67,31,67,71r0,569v0,50,-32,78,-75,78v-43,0,-75,-28,-75,-78","w":370},"2":{"d":"268,-132r183,0v44,0,78,20,78,66v0,46,-34,66,-72,66r-334,0v-44,0,-78,-20,-78,-66v0,-21,13,-39,23,-51v83,-99,173,-189,249,-299v18,-26,35,-57,35,-93v0,-41,-31,-77,-72,-77v-115,0,-60,162,-156,162v-48,0,-73,-34,-73,-73v0,-126,112,-227,235,-227v123,0,222,81,222,208v0,139,-155,277,-240,384"},"3":{"d":"271,-724v227,0,277,235,131,336v72,33,122,100,122,179v0,120,-110,221,-252,221v-148,0,-240,-109,-240,-188v0,-39,41,-67,77,-67v68,0,52,117,165,117v52,0,94,-40,94,-93v0,-140,-170,-37,-170,-155v0,-105,142,-34,142,-145v0,-38,-27,-67,-72,-67v-95,0,-82,98,-150,98v-41,0,-65,-37,-65,-74v0,-78,107,-162,218,-162"},"4":{"d":"327,-157r-241,0v-71,0,-79,-62,-56,-103r224,-406v49,-96,217,-76,217,70r0,307v51,-4,87,20,87,66v0,46,-37,71,-87,66v0,79,13,163,-72,163v-85,0,-72,-84,-72,-163xm327,-289r0,-279r-2,0r-135,279r137,0"},"5":{"d":"250,-574r-15,106v154,-44,282,60,282,203v0,167,-92,277,-265,277v-71,0,-220,-46,-220,-134v0,-37,31,-68,68,-68v40,0,88,64,155,64v70,0,106,-68,106,-131v0,-60,-34,-101,-96,-101v-58,0,-67,33,-118,33v-55,0,-61,-36,-56,-81r25,-211v11,-78,30,-95,78,-95r241,0v46,0,73,27,73,63v0,69,-52,75,-70,75r-188,0"},"6":{"d":"287,12v-154,0,-251,-115,-251,-248v0,-151,153,-363,254,-457v12,-11,38,-31,62,-31v28,0,71,37,71,73v0,14,-9,26,-21,41v-40,49,-105,113,-138,160v16,1,42,-10,65,-10v120,0,209,106,209,224v0,130,-103,248,-251,248xm287,-340v-57,0,-95,45,-95,104v0,56,35,104,95,104v57,0,95,-46,95,-104v0,-53,-32,-104,-95,-104"},"7":{"d":"95,-100r250,-474r-256,0v-101,0,-101,-138,0,-138r362,0v83,12,79,78,49,138r-248,504v-28,56,-39,76,-84,76v-70,0,-100,-56,-73,-106","w":538},"8":{"d":"287,-326v-58,0,-91,44,-91,100v0,51,30,100,91,100v57,0,91,-49,91,-100v0,-63,-36,-100,-91,-100xm287,12v-138,0,-247,-94,-247,-228v0,-80,44,-139,107,-173v-47,-34,-76,-80,-76,-143v0,-117,97,-192,216,-192v116,0,217,74,217,192v0,56,-28,112,-77,143v68,34,107,96,107,173v0,139,-113,228,-247,228xm287,-592v-47,0,-72,33,-72,76v0,45,26,76,72,76v46,0,73,-31,73,-76v0,-43,-26,-76,-73,-76"},"9":{"d":"287,-724v154,0,251,115,251,248v0,151,-153,363,-254,457v-12,11,-38,31,-62,31v-28,0,-71,-37,-71,-73v0,-14,9,-26,21,-41v40,-49,105,-113,138,-160v-16,-1,-42,10,-65,10v-120,0,-209,-106,-209,-224v0,-130,103,-248,251,-248xm287,-372v57,0,95,-45,95,-104v0,-56,-35,-104,-95,-104v-57,0,-95,46,-95,104v0,53,32,104,95,104"},":":{"d":"56,-387v0,-43,35,-78,78,-78v43,0,78,35,78,78v0,43,-35,78,-78,78v-43,0,-78,-35,-78,-78xm56,-66v0,-43,35,-78,78,-78v43,0,78,35,78,78v0,43,-35,78,-78,78v-43,0,-78,-35,-78,-78","w":268},";":{"d":"85,-122v32,-62,125,-33,127,32v-19,74,-65,127,-97,190v-31,61,-124,33,-125,-32v17,-75,63,-127,95,-190xm56,-387v0,-43,35,-78,78,-78v43,0,78,35,78,78v0,43,-35,78,-78,78v-43,0,-78,-35,-78,-78","w":268},"<":{"d":"196,-253r333,139v62,17,35,118,-12,114v-9,0,-21,-1,-50,-14r-395,-182v-21,-9,-37,-26,-37,-57v0,-31,16,-48,37,-57r395,-181v29,-14,41,-15,50,-15v25,0,48,21,48,63v0,21,-8,39,-36,51","w":600},"=":{"d":"95,-425r410,0v37,0,60,24,60,60v0,36,-23,60,-60,60r-410,0v-37,0,-60,-24,-60,-60v0,-36,23,-60,60,-60xm95,-201r410,0v37,0,60,24,60,60v0,36,-23,60,-60,60r-410,0v-37,0,-60,-24,-60,-60v0,-36,23,-60,60,-60","w":600},">":{"d":"71,-114r333,-139r-333,-139v-62,-17,-35,-118,12,-114v9,0,21,1,50,15r395,181v21,9,37,26,37,57v0,31,-16,48,-37,57r-395,182v-29,13,-41,14,-50,14v-25,0,-48,-21,-48,-63v0,-21,8,-39,36,-51","w":600},"?":{"d":"147,-272r0,-100v0,-36,40,-42,81,-53v40,-11,80,-27,80,-85v0,-44,-41,-76,-83,-76v-84,0,-97,99,-161,99v-36,0,-61,-28,-61,-72v0,-105,132,-165,222,-165v129,0,239,80,239,214v0,111,-70,176,-173,202v7,62,-16,104,-72,105v-45,0,-72,-29,-72,-69xm219,12v-43,0,-78,-35,-78,-78v0,-43,35,-78,78,-78v43,0,78,35,78,78v0,43,-35,78,-78,78","w":481},"@":{"d":"359,-252v59,0,100,-52,100,-108v0,-45,-28,-85,-76,-85v-53,0,-94,57,-94,107v0,42,23,86,70,86xm400,-724v187,0,368,136,368,321v0,195,-208,253,-257,253v-54,0,-65,-26,-71,-49v-26,31,-65,49,-105,49v-85,0,-148,-88,-148,-174v0,-114,76,-223,195,-223v51,0,89,22,119,60v-2,-40,11,-59,56,-60v42,-1,50,25,42,60r-40,182v-4,20,-12,54,19,54v29,0,100,-44,100,-152v0,-143,-133,-231,-278,-231v-154,0,-278,124,-278,278v0,154,124,278,278,278v72,0,144,-13,208,-47v21,-11,48,-43,67,-43v16,0,37,6,37,37v0,19,-8,35,-27,54v-76,73,-182,89,-285,89v-203,0,-368,-165,-368,-368v0,-203,165,-368,368,-368","w":800},"A":{"d":"9,-97r201,-544v17,-46,56,-83,107,-83v53,0,90,35,107,83r196,544v25,55,-10,103,-61,103v-84,0,-77,-88,-103,-146r-278,0v-25,57,-20,144,-102,146v-52,1,-85,-53,-67,-103xm316,-568r-95,290r190,0r-93,-290r-2,0","w":630},"B":{"d":"45,-76r0,-561v0,-48,33,-75,79,-75r192,0v104,0,188,70,188,176v0,72,-33,115,-93,149v85,12,152,83,152,170v0,141,-94,217,-232,217r-206,0v-46,0,-80,-29,-80,-76xm195,-580r0,150r78,0v49,0,81,-29,81,-79v-1,-77,-81,-74,-159,-71xm195,-298r0,166r118,0v54,0,94,-31,94,-87v0,-47,-36,-79,-106,-79r-106,0"},"C":{"d":"17,-356v0,-208,140,-368,344,-368v73,0,215,24,215,112v0,36,-25,67,-62,67v-41,0,-69,-35,-153,-35v-124,0,-188,105,-188,227v0,119,65,221,188,221v84,0,118,-42,159,-42v45,0,66,45,66,68v0,96,-151,118,-225,118v-203,0,-344,-161,-344,-368","w":611},"D":{"d":"45,-75r0,-560v0,-46,32,-77,77,-77r166,0v224,0,352,144,352,366v0,210,-136,346,-342,346r-174,0v-33,0,-79,-18,-79,-75xm195,-574r0,436r101,0v129,0,188,-95,188,-215v0,-128,-60,-221,-198,-221r-91,0","w":667},"E":{"d":"45,-75r0,-550v0,-50,25,-87,78,-87r248,0v48,0,71,34,71,69v0,34,-24,69,-71,69r-176,0r0,146r164,0v49,0,73,34,73,69v0,34,-25,69,-73,69r-164,0r0,152r185,0v48,0,71,34,71,69v0,34,-24,69,-71,69r-258,0v-44,0,-77,-30,-77,-75","w":463},"F":{"d":"45,-72r0,-562v0,-41,28,-78,78,-78r256,0v44,0,67,34,67,69v0,34,-22,69,-67,69r-184,0r0,146r155,0v48,0,72,34,72,68v0,35,-24,70,-72,70r-155,0r0,218v0,50,-32,78,-75,78v-43,0,-75,-28,-75,-78","w":444},"G":{"d":"359,-354v0,-102,145,-68,240,-68v63,0,88,32,88,96v0,193,-126,338,-326,338v-203,0,-344,-161,-344,-368v0,-208,140,-368,344,-368v151,0,275,71,275,141v0,43,-27,70,-62,70v-68,0,-82,-73,-213,-73v-125,0,-188,109,-188,230v0,122,61,230,188,230v79,0,170,-44,170,-158r-102,0v-41,0,-70,-29,-70,-70","w":704},"H":{"d":"45,-72r0,-568v0,-50,32,-78,75,-78v43,0,75,28,75,78r0,212r314,0r0,-212v0,-50,32,-78,75,-78v43,0,75,28,75,78r0,568v0,50,-32,78,-75,78v-43,0,-75,-28,-75,-78r0,-218r-314,0r0,218v0,50,-32,78,-75,78v-43,0,-75,-28,-75,-78","w":704},"I":{"d":"45,-72r0,-568v0,-50,32,-78,75,-78v43,0,75,28,75,78r0,568v0,50,-32,78,-75,78v-43,0,-75,-28,-75,-78","w":240},"J":{"d":"368,-640r0,440v0,168,-107,212,-198,212v-69,0,-184,-27,-184,-114v0,-27,23,-61,56,-61v40,0,75,37,120,37v56,0,56,-52,56,-84r0,-430v0,-50,32,-78,75,-78v43,0,75,28,75,78","w":407},"K":{"d":"45,-66r0,-578v0,-41,30,-74,75,-74v43,0,75,28,75,74r0,216r246,-262v32,-47,132,-29,132,44v0,26,-16,47,-49,80r-189,186r231,241v24,24,42,46,42,76v0,47,-37,69,-78,69v-29,0,-48,-17,-76,-47r-259,-280r0,255v0,39,-30,72,-75,72v-43,0,-75,-28,-75,-72","w":611},"L":{"d":"45,-82r0,-558v0,-50,32,-78,75,-78v43,0,75,28,75,78r0,502r178,0v99,2,92,138,0,138r-250,0v-49,0,-78,-32,-78,-82","w":426},"M":{"d":"24,-66r94,-575v6,-36,45,-77,98,-77v50,0,89,36,100,72r118,396r2,0r118,-396v11,-36,50,-72,100,-72v53,0,92,41,98,77r94,575v0,44,-32,72,-72,72v-51,0,-71,-23,-78,-70r-59,-407r-2,0r-120,419v-7,24,-26,58,-80,58v-54,0,-73,-34,-80,-58r-120,-419r-2,0r-59,407v-7,47,-27,70,-78,70v-40,0,-79,-29,-72,-72","w":870},"N":{"d":"39,-72r0,-568v-3,-84,97,-100,138,-45r317,423r2,0r0,-378v0,-50,32,-78,75,-78v43,0,75,28,75,78r0,568v3,84,-96,100,-138,45r-317,-418r-2,0r0,373v0,50,-32,78,-75,78v-43,0,-75,-28,-75,-78","w":685},"O":{"d":"361,-126v127,0,188,-108,188,-230v0,-121,-63,-230,-188,-230v-125,0,-188,109,-188,230v0,122,61,230,188,230xm361,12v-203,0,-344,-161,-344,-368v0,-208,140,-368,344,-368v201,0,344,165,344,368v0,207,-139,368,-344,368","w":722},"P":{"d":"45,-72r0,-562v0,-47,28,-78,78,-78r177,0v147,0,256,96,256,239v0,146,-113,237,-250,237r-111,0r0,164v0,50,-32,78,-75,78v-43,0,-75,-28,-75,-78xm195,-580r0,212r102,0v63,0,103,-46,103,-106v0,-60,-40,-106,-103,-106r-102,0","w":556},"Q":{"d":"661,48v-44,1,-91,-56,-124,-80v-49,28,-108,44,-176,44v-203,0,-344,-161,-344,-368v0,-208,140,-368,344,-368v201,0,344,165,344,368v0,88,-23,168,-67,231v31,33,92,54,92,110v0,35,-35,63,-69,63xm438,-280v39,0,60,35,87,52v61,-148,7,-358,-164,-358v-125,0,-188,109,-188,230v0,144,92,262,252,223v-19,-21,-55,-40,-55,-75v0,-39,27,-72,68,-72","w":722},"R":{"d":"45,-72r0,-562v0,-48,27,-78,77,-78r176,0v154,0,249,69,249,226v0,110,-83,173,-185,189r170,182v46,45,7,120,-55,121v-18,0,-42,-7,-58,-26r-222,-269r-2,0r0,217v0,50,-32,78,-75,78v-43,0,-75,-28,-75,-78xm195,-574r0,177r103,0v55,0,93,-33,93,-89v0,-57,-38,-88,-93,-88r-103,0","w":556},"S":{"d":"270,-724v56,0,196,21,196,100v0,39,-26,74,-67,74v-41,0,-73,-30,-133,-30v-43,0,-82,23,-82,65v0,103,334,37,334,295v0,143,-118,232,-256,232v-77,0,-243,-18,-243,-112v0,-39,26,-71,67,-71v47,0,103,39,168,39v66,0,102,-37,102,-86v0,-118,-334,-47,-334,-279v0,-140,115,-227,248,-227","w":537},"T":{"d":"165,-72r0,-502r-109,0v-94,0,-87,-138,0,-138r368,0v43,0,68,34,68,69v0,34,-20,69,-68,69r-109,0r0,502v0,50,-32,78,-75,78v-43,0,-75,-28,-75,-78","w":480},"U":{"d":"39,-283r0,-357v0,-50,32,-78,75,-78v43,0,75,28,75,78r0,349v0,92,59,165,154,165v91,0,153,-77,153,-165r0,-349v0,-50,32,-78,75,-78v43,0,75,28,75,78r0,357v0,168,-138,295,-303,295v-167,0,-304,-125,-304,-295","w":685},"V":{"d":"222,-52r-219,-557v-24,-55,16,-109,70,-109v34,0,58,21,68,49r155,416r155,-416v13,-27,34,-49,68,-49v53,0,92,53,70,109r-219,557v-13,32,-30,58,-74,58v-44,0,-61,-26,-74,-58","w":592},"W":{"d":"139,-72r-127,-546v-15,-52,10,-100,67,-100v48,0,71,28,80,72r85,425r2,0r130,-438v18,-77,133,-76,156,0r130,438r2,0r85,-425v9,-44,32,-72,80,-72v57,0,79,47,67,100r-127,546v-10,42,-43,78,-99,78v-49,0,-87,-32,-99,-73r-116,-386r-2,0r-116,386v-12,41,-50,73,-99,73v-56,0,-89,-36,-99,-78","w":908},"X":{"d":"21,-115r198,-266r-162,-220v-39,-46,-2,-117,60,-117v25,0,51,17,65,37r124,176r124,-176v33,-59,144,-43,141,36v0,16,-6,31,-16,44r-162,220r198,266v36,44,10,121,-59,121v-27,0,-47,-12,-62,-33r-164,-228r-164,228v-32,57,-138,35,-138,-37v0,-21,9,-40,17,-51","w":612},"Y":{"d":"193,-67r0,-267r-189,-266v-34,-47,-2,-120,58,-118v26,0,49,11,62,30r144,209r144,-209v34,-54,134,-28,134,43v0,16,-5,32,-14,45r-189,266r0,267v0,37,-22,73,-75,73v-53,0,-75,-36,-75,-73","w":536},"Z":{"d":"209,-132r290,0v42,0,72,23,72,66v0,38,-36,66,-72,66r-393,0v-81,3,-104,-75,-64,-130r322,-450r-263,0v-40,0,-70,-23,-70,-64v0,-38,32,-68,70,-68r366,0v91,1,102,82,62,136","w":593},"[":{"d":"44,82r0,-734v0,-44,29,-72,73,-72v69,0,154,-24,153,57v-1,61,-45,59,-100,57r0,650v55,-1,99,-4,100,57v1,81,-84,57,-153,57v-44,0,-73,-28,-73,-72","w":278},"\\":{"d":"123,-687r267,616v26,44,-7,83,-51,83v-32,0,-46,-15,-55,-37r-268,-616v-23,-45,7,-83,51,-83v32,0,47,15,56,37","w":407},"]":{"d":"234,-652r0,734v0,44,-29,72,-73,72v-69,0,-154,24,-153,-57v1,-61,45,-59,100,-57r0,-650v-55,1,-99,4,-100,-57v-1,-81,84,-57,153,-57v44,0,73,28,73,72","w":278},"^":{"d":"300,-568r-125,231v-20,35,-103,30,-102,-18v0,-12,5,-25,13,-40r161,-293v23,-41,83,-41,106,0r161,293v26,37,11,80,-38,80v-24,0,-41,-4,-51,-22","w":600},"_":{"d":"500,125r-500,0v-16,0,-29,-9,-29,-25v0,-16,13,-25,29,-25r500,0v16,0,29,9,29,25v0,16,-13,25,-29,25","w":500},"\u2018":{"d":"231,-658v-19,74,-65,127,-97,190v-31,61,-124,33,-125,-32v17,-75,63,-127,95,-190v32,-62,125,-33,127,32","w":240},"a":{"d":"533,-444r0,356v0,37,0,94,-69,94v-42,0,-59,-23,-69,-61v-37,44,-82,67,-137,67v-135,0,-238,-115,-238,-277v0,-158,106,-279,238,-279v53,0,105,21,137,66v4,-35,34,-60,69,-60v69,0,69,57,69,94xm164,-265v0,69,36,145,114,145v75,0,111,-76,111,-145v0,-69,-35,-147,-111,-147v-79,0,-114,78,-114,147"},"b":{"d":"41,-74r0,-616v0,-48,30,-80,72,-80v42,0,72,32,72,80r0,196v38,-33,87,-50,137,-50v155,0,232,145,232,285v0,136,-92,271,-237,271v-49,0,-105,-22,-132,-66v-9,38,-32,60,-72,60v-42,0,-72,-32,-72,-80xm185,-270v0,70,34,150,113,150v75,0,112,-78,112,-145v0,-68,-37,-147,-112,-147v-77,0,-113,72,-113,142"},"c":{"d":"454,-453v0,30,-21,69,-55,69v-36,0,-68,-28,-114,-28v-163,0,-159,291,0,292v36,0,90,-30,107,-30v34,0,62,29,62,63v0,74,-124,99,-176,99v-155,0,-258,-127,-258,-277v0,-146,106,-279,258,-279v57,0,176,21,176,91","w":463},"d":{"d":"533,-690r0,616v0,48,-30,80,-72,80v-40,0,-63,-22,-72,-60v-27,44,-83,66,-132,66v-145,0,-237,-135,-237,-271v0,-140,77,-285,232,-285v50,0,99,17,137,50r0,-196v0,-48,30,-80,72,-80v42,0,72,32,72,80xm276,-120v151,0,153,-290,0,-292v-75,0,-112,79,-112,147v0,67,37,145,112,145"},"e":{"d":"464,-218r-307,0v10,71,69,104,136,104v74,0,125,-58,163,-58v31,0,59,31,59,62v0,62,-128,122,-235,122v-162,0,-270,-118,-270,-277v0,-146,106,-279,258,-279v156,0,259,142,259,262v0,43,-19,64,-63,64xm154,-314r229,0v-8,-63,-48,-110,-115,-110v-64,0,-107,49,-114,110","w":537},"f":{"d":"74,-74r0,-332v-56,5,-96,-11,-95,-63v1,-48,40,-70,95,-63r0,-74v0,-106,63,-164,151,-164v51,0,100,15,100,65v0,42,-19,61,-59,61v-24,0,-48,0,-48,53r0,59v63,-2,118,-1,118,63v0,62,-55,66,-118,63r0,332v0,48,-30,80,-72,80v-42,0,-72,-32,-72,-80","w":296},"g":{"d":"533,-458r0,416v0,173,-113,260,-277,260v-59,0,-227,-29,-227,-108v0,-27,30,-63,58,-63v46,0,97,45,180,45v81,0,136,-59,120,-148v-30,44,-79,68,-145,68v-151,0,-222,-133,-222,-276v0,-145,92,-280,237,-280v49,0,105,22,132,66v9,-38,32,-60,72,-60v42,0,72,32,72,80xm389,-262v0,-70,-34,-150,-113,-150v-150,0,-149,293,0,292v77,0,113,-72,113,-142"},"h":{"d":"41,-74r0,-616v0,-48,30,-80,72,-80v42,0,72,32,72,80r0,196v116,-107,330,-36,330,144r0,276v0,48,-30,80,-72,80v-42,0,-72,-32,-72,-80r0,-251v0,-67,-42,-99,-94,-99v-59,0,-92,43,-92,99r0,251v0,48,-30,80,-72,80v-42,0,-72,-32,-72,-80","w":556},"i":{"d":"39,-74r0,-384v0,-48,30,-80,72,-80v42,0,72,32,72,80r0,384v0,48,-30,80,-72,80v-42,0,-72,-32,-72,-80xm111,-754v43,0,81,37,81,79v0,45,-36,83,-81,83v-43,0,-81,-39,-81,-83v0,-41,38,-79,81,-79","w":222},"j":{"d":"39,138r0,-596v0,-48,30,-80,72,-80v42,0,72,32,72,80r0,596v0,48,-30,80,-72,80v-42,0,-72,-32,-72,-80xm111,-754v43,0,81,37,81,79v0,45,-36,83,-81,83v-43,0,-81,-39,-81,-83v0,-41,38,-79,81,-79","w":222},"k":{"d":"41,-74r0,-616v0,-48,30,-80,72,-80v42,0,72,32,72,80r0,336r158,-153v46,-54,123,-31,126,34v0,21,-7,38,-28,57r-128,114r169,198v40,44,8,118,-50,116v-26,0,-46,-16,-69,-44r-176,-217r-2,0r0,175v0,48,-30,80,-72,80v-42,0,-72,-32,-72,-80","w":500},"l":{"d":"39,-74r0,-616v0,-48,30,-80,72,-80v42,0,72,32,72,80r0,616v0,48,-30,80,-72,80v-42,0,-72,-32,-72,-80","w":222},"m":{"d":"41,-74r0,-384v-10,-90,128,-109,138,-26v73,-84,218,-78,283,13v110,-132,349,-78,349,121r0,276v0,48,-30,80,-72,80v-42,0,-72,-32,-72,-80r0,-251v0,-58,-32,-99,-84,-99v-53,0,-85,41,-85,99r0,251v0,48,-30,80,-72,80v-42,0,-72,-32,-72,-80r0,-251v0,-58,-32,-99,-84,-99v-59,0,-85,41,-85,99r0,251v0,48,-30,80,-72,80v-42,0,-72,-32,-72,-80","w":852},"n":{"d":"41,-74r0,-384v-10,-90,128,-108,138,-27v28,-39,71,-59,139,-59v113,0,197,72,197,194r0,276v0,48,-30,80,-72,80v-42,0,-72,-32,-72,-80r0,-251v0,-67,-42,-99,-94,-99v-59,0,-92,43,-92,99r0,251v0,48,-30,80,-72,80v-42,0,-72,-32,-72,-80","w":556},"o":{"d":"278,-544v152,0,258,133,258,279v0,150,-103,277,-258,277v-155,0,-258,-127,-258,-277v0,-146,106,-279,258,-279xm278,-412v-79,0,-114,78,-114,147v0,69,36,145,114,145v78,0,114,-76,114,-145v0,-69,-35,-147,-114,-147","w":556},"p":{"d":"41,138r0,-596v0,-48,30,-80,72,-80v40,0,63,22,72,60v27,-44,83,-66,137,-66v155,0,232,145,232,285v0,136,-92,271,-237,271v-45,0,-94,-17,-132,-50r0,176v0,48,-30,80,-72,80v-42,0,-72,-32,-72,-80xm185,-270v0,70,34,150,113,150v75,0,112,-78,112,-145v0,-68,-37,-147,-112,-147v-77,0,-113,72,-113,142"},"q":{"d":"533,-458r0,596v0,48,-30,80,-72,80v-42,0,-72,-32,-72,-80r0,-176v-38,33,-87,50,-132,50v-145,0,-237,-135,-237,-271v0,-140,77,-285,232,-285v54,0,110,22,137,66v9,-38,32,-60,72,-60v42,0,72,32,72,80xm276,-120v151,0,153,-290,0,-292v-75,0,-112,79,-112,147v0,67,37,145,112,145"},"r":{"d":"39,-74r0,-392v0,-48,38,-72,74,-72v41,0,67,19,72,60v27,-40,56,-60,101,-60v35,0,70,25,70,77v0,47,-43,50,-86,70v-43,20,-87,39,-87,96r0,221v0,48,-30,80,-72,80v-42,0,-72,-32,-72,-80","w":333},"s":{"d":"403,-440v0,33,-25,64,-59,64v-27,0,-82,-42,-129,-42v-26,0,-49,12,-49,40v0,67,250,57,250,221v0,96,-81,169,-205,169v-81,0,-201,-46,-201,-111v0,-22,22,-64,62,-64v56,0,81,49,149,49v44,0,57,-14,57,-41v0,-66,-250,-56,-250,-221v0,-100,81,-168,195,-168v71,0,180,33,180,104","w":426},"t":{"d":"76,-74r0,-332v-56,5,-96,-11,-95,-63v1,-48,40,-70,95,-63r0,-86v0,-48,30,-80,72,-80v42,0,72,32,72,80r0,86v60,-2,110,0,110,63v0,61,-50,66,-110,63r0,332v0,48,-30,80,-72,80v-42,0,-72,-32,-72,-80","w":296},"u":{"d":"41,-198r0,-260v0,-48,30,-80,72,-80v42,0,72,32,72,80r0,257v0,60,45,93,93,93v48,0,93,-33,93,-93r0,-257v0,-48,30,-80,72,-80v42,0,72,32,72,80r0,260v0,128,-85,210,-237,210v-152,0,-237,-82,-237,-210","w":556},"v":{"d":"153,-54r-145,-372v-28,-58,11,-112,66,-112v40,0,57,29,64,51r92,284r2,0r92,-284v7,-22,24,-51,64,-51v55,0,89,52,66,112r-145,372v-14,37,-29,60,-78,60v-49,0,-64,-23,-78,-60","w":462},"w":{"d":"144,-67r-122,-345v-28,-64,-19,-126,57,-126v35,0,58,24,68,57r83,275r2,0r84,-269v11,-39,31,-63,73,-63v42,0,61,24,73,63r84,269r2,0r83,-275v8,-34,33,-57,68,-57v66,0,80,63,58,124r-123,347v-15,42,-40,73,-87,73v-44,0,-70,-25,-83,-67r-74,-232r-2,0r-74,232v-13,42,-39,67,-83,67v-47,0,-72,-31,-87,-73","w":778},"x":{"d":"20,-113r146,-166r-122,-137v-46,-43,-10,-124,52,-122v23,0,38,10,53,28r101,126r101,-126v35,-55,127,-20,127,42v0,18,-10,38,-22,52r-122,137r146,166v40,42,14,119,-51,119v-32,0,-45,-14,-60,-32r-119,-146r-119,146v-28,53,-131,36,-131,-38v0,-16,9,-37,20,-49","w":500},"y":{"d":"164,-42r-159,-397v-24,-47,17,-99,61,-99v35,0,60,19,72,51r99,271r106,-271v18,-70,140,-66,140,11v0,15,-2,26,-7,37r-241,600v-12,30,-34,57,-68,57v-68,-2,-87,-51,-66,-104","w":481},"z":{"d":"24,-88r226,-318r-167,0v-36,0,-65,-23,-65,-63v0,-40,29,-63,65,-63r327,0v13,0,47,6,47,45v0,19,-4,28,-15,43r-227,318r190,0v36,0,65,23,65,63v0,40,-29,63,-65,63r-335,0v-32,0,-59,-16,-59,-49v0,-16,8,-31,13,-39","w":481},"{":{"d":"86,23r0,-194v0,-60,-23,-66,-48,-66v-65,0,-64,-96,0,-96v25,0,48,-6,48,-66r0,-194v-3,-116,77,-131,195,-131v26,0,45,15,45,45v0,40,-29,45,-70,45v-28,0,-44,17,-44,58r0,189v1,94,-77,94,-108,103v35,3,108,10,108,101r0,189v1,52,23,58,69,58v26,0,45,15,45,45v1,55,-56,45,-107,45v-87,0,-133,-40,-133,-131","w":333},"|":{"d":"51,250r0,-1000v0,-36,23,-60,60,-60v37,0,60,24,60,60r0,1000v0,36,-23,60,-60,60v-37,0,-60,-24,-60,-60","w":222},"}":{"d":"247,-593r0,194v0,60,23,66,48,66v65,0,64,96,0,96v-25,0,-48,6,-48,66r0,194v3,116,-77,131,-195,131v-26,0,-45,-15,-45,-45v0,-40,29,-45,70,-45v28,0,44,-17,44,-58r0,-189v-1,-94,77,-94,108,-103v-35,-3,-108,-10,-108,-101r0,-189v-1,-52,-23,-58,-69,-58v-26,0,-45,-15,-45,-45v-1,-55,56,-45,107,-45v87,0,133,40,133,131","w":333},"~":{"d":"405,-279v55,0,69,-61,111,-61v32,0,43,25,43,49v0,61,-55,132,-152,132v-74,0,-161,-68,-212,-68v-55,0,-69,61,-111,61v-32,0,-43,-25,-43,-49v0,-61,55,-132,152,-132v74,0,161,68,212,68","w":600},"\u00a1":{"d":"95,124r0,-385v0,-42,31,-68,72,-68v40,0,72,27,72,68r0,385v0,41,-32,68,-72,68v-41,0,-72,-26,-72,-68xm167,-544v43,0,78,35,78,78v0,43,-35,78,-78,78v-43,0,-78,-35,-78,-78v0,-43,35,-78,78,-78","w":334},"\u00a2":{"d":"238,-132r0,-269v-99,42,-98,226,0,269xm292,-411r0,291v36,-3,84,-30,100,-30v34,0,62,29,62,63v0,70,-103,97,-162,99v-1,31,8,70,-27,70v-36,0,-25,-42,-27,-74v-138,-19,-218,-134,-218,-277v0,-137,86,-251,218,-271v2,-33,-9,-75,27,-75v35,0,25,39,27,71v55,1,162,25,162,91v0,32,-21,71,-55,71v-34,0,-64,-26,-107,-29","w":463},"\u00a3":{"d":"273,-424v91,6,224,-29,224,69v0,43,-30,69,-72,69r-129,0v0,54,-19,104,-51,148r278,0v42,0,72,26,72,69v0,43,-30,69,-72,69r-392,0v-49,0,-78,-30,-78,-78v0,-41,87,-84,87,-208v-67,5,-125,-5,-124,-69v1,-50,38,-74,93,-69v-13,-25,-26,-78,-26,-106v0,-119,116,-194,252,-194v140,0,253,74,253,173v0,46,-33,76,-78,76v-68,0,-65,-105,-169,-105v-50,0,-96,27,-96,77v0,32,15,58,28,79","w":611},"\u2044":{"d":"-130,-74r331,-624v21,-59,105,-29,105,24v0,8,0,15,-8,30r-336,629v-15,21,-21,33,-45,33v-41,0,-68,-52,-47,-92","w":166},"\u00a5":{"d":"287,6v-102,0,-70,-104,-75,-194r-142,0v-25,0,-48,-17,-48,-42v0,-70,122,-34,190,-42r0,-68r-142,0v-25,0,-48,-17,-48,-42v2,-54,74,-41,129,-42r-127,-176v-34,-47,-2,-120,58,-118v22,0,49,11,62,30r143,209r143,-209v37,-54,134,-28,134,43v0,16,-5,32,-14,45r-127,176v55,1,129,-12,129,42v0,70,-122,34,-190,42r0,68r142,0v25,0,48,17,48,42v0,70,-122,34,-190,42v-5,90,27,194,-75,194"},"\u0192":{"d":"221,-423r29,-151v16,-96,67,-150,165,-150v44,0,98,13,98,68v0,48,-36,58,-78,58v-30,0,-40,23,-46,54r-22,121v59,-5,105,9,105,62v0,60,-59,67,-128,64r-63,346v-17,97,-61,169,-170,169v-48,0,-97,-9,-97,-65v0,-61,52,-61,79,-61v33,0,42,-45,45,-62r61,-327v-56,6,-93,-19,-93,-61v0,-59,52,-70,115,-65"},"\u00a7":{"d":"280,-724v86,0,247,36,247,148v0,36,-30,71,-67,71v-60,0,-85,-87,-162,-87v-38,0,-74,28,-74,69v0,56,81,65,166,104v81,37,164,77,164,170v0,86,-38,131,-106,178v26,34,43,62,43,105v0,117,-101,184,-211,184v-118,0,-248,-72,-248,-151v0,-44,37,-75,80,-75v54,0,69,94,150,94v32,0,73,-20,73,-57v0,-57,-79,-76,-157,-107v-79,-31,-158,-75,-158,-181v0,-77,30,-124,89,-172v-30,-33,-47,-59,-47,-105v0,-120,100,-188,218,-188xm221,-209r126,53v29,-17,51,-37,51,-73v0,-75,-123,-87,-184,-118v-24,18,-44,40,-44,71v0,33,18,53,51,67"},"\u00a4":{"d":"560,-159v32,19,2,75,-32,75v-11,0,-22,-4,-29,-12r-57,-59v-63,60,-221,61,-284,0r-57,59v-30,33,-75,-6,-75,-40v0,-11,10,-19,14,-23r58,-58v-60,-63,-62,-218,0,-280v-24,-29,-55,-44,-72,-81v-6,-33,43,-72,75,-40r57,57v66,-57,218,-57,284,0r57,-57v30,-33,75,6,75,40v0,11,-10,19,-14,23r-58,58v62,62,60,217,0,280xm300,-491v-74,0,-128,58,-128,135v0,76,55,133,128,133v73,0,128,-57,128,-133v0,-77,-54,-135,-128,-135","w":600},"'":{"d":"60,-494r0,-170v0,-36,23,-60,60,-60v37,0,60,24,60,60r0,170v0,36,-23,60,-60,60v-37,0,-60,-24,-60,-60","w":240},"\u201c":{"d":"435,-658v-19,74,-65,127,-97,190v-31,61,-124,33,-125,-32v17,-75,63,-127,95,-190v32,-62,125,-33,127,32xm231,-658v-19,74,-65,127,-97,190v-31,61,-124,33,-125,-32v17,-75,63,-127,95,-190v32,-62,125,-33,127,32","w":444},"\u00ab":{"d":"265,-341r97,-137v29,-36,101,-10,101,38v0,13,-2,26,-11,38r-79,121r79,119v29,43,-1,97,-49,97v-20,0,-39,-9,-50,-25r-103,-159v-20,-31,-2,-68,15,-92xm61,-341r97,-137v29,-36,101,-10,101,38v0,13,-2,26,-11,38r-79,121r79,119v29,43,-1,97,-49,97v-20,0,-39,-9,-50,-25r-103,-159v-20,-31,-2,-68,15,-92","w":500},"\u2039":{"d":"169,-281r79,119v29,43,-1,97,-49,97v-20,0,-39,-9,-50,-25r-103,-159v-20,-31,-2,-68,15,-92r97,-137v29,-36,101,-10,101,38v0,13,-2,26,-11,38","w":296},"\u203a":{"d":"48,-158r79,-121r-79,-119v-29,-43,1,-97,49,-97v20,0,39,9,50,25r103,159v20,31,2,68,-15,92r-97,137v-29,36,-101,10,-101,-38v0,-13,2,-26,11,-38","w":296},"\ufb01":{"d":"74,-74r0,-332v-56,5,-96,-11,-95,-63v1,-48,40,-70,95,-63r0,-74v0,-106,63,-164,151,-164v39,0,88,15,88,65v0,42,-19,61,-53,61v-24,0,-42,0,-42,53r0,59v59,-3,105,3,105,63v0,79,-46,60,-105,63r0,332v0,48,-30,80,-72,80v-42,0,-72,-32,-72,-80xm336,-74r0,-384v0,-48,30,-80,72,-80v42,0,72,32,72,80r0,384v0,48,-30,80,-72,80v-42,0,-72,-32,-72,-80xm408,-754v43,0,81,37,81,79v0,45,-36,83,-81,83v-43,0,-81,-39,-81,-83v0,-41,38,-79,81,-79","w":519},"\ufb02":{"d":"74,-74r0,-332v-56,5,-96,-11,-95,-63v1,-48,40,-70,95,-63r0,-74v0,-106,63,-164,151,-164v39,0,88,15,88,65v0,42,-19,61,-53,61v-24,0,-42,0,-42,53r0,59v59,-3,105,3,105,63v0,79,-46,60,-105,63r0,332v0,48,-30,80,-72,80v-42,0,-72,-32,-72,-80xm336,-74r0,-616v0,-48,30,-80,72,-80v42,0,72,32,72,80r0,616v0,48,-30,80,-72,80v-42,0,-72,-32,-72,-80","w":519},"\u2013":{"d":"60,-350r380,0v37,0,60,24,60,60v0,36,-23,60,-60,60r-380,0v-37,0,-60,-24,-60,-60v0,-36,23,-60,60,-60","w":500},"\u2020":{"d":"246,149r0,-525r-164,0v-34,0,-57,-23,-57,-63v0,-40,23,-63,57,-63r164,0r0,-153v0,-44,27,-69,69,-69v42,0,69,25,69,69r0,153r164,0v34,0,57,23,57,63v0,40,-23,63,-57,63r-164,0r0,525v0,44,-27,69,-69,69v-42,0,-69,-25,-69,-69","w":630},"\u2021":{"d":"246,149r0,-155r-164,0v-34,0,-57,-23,-57,-63v0,-40,23,-63,57,-63r164,0r0,-244r-164,0v-34,0,-57,-23,-57,-63v0,-40,23,-63,57,-63r164,0r0,-153v0,-44,27,-69,69,-69v42,0,69,25,69,69r0,153r164,0v34,0,57,23,57,63v0,40,-23,63,-57,63r-164,0r0,244r164,0v34,0,57,23,57,63v0,40,-23,63,-57,63r-164,0r0,155v0,44,-27,69,-69,69v-42,0,-69,-25,-69,-69","w":630},"\u00b7":{"d":"134,-359v43,0,78,36,78,78v0,44,-35,78,-78,78v-43,0,-78,-35,-78,-78v0,-43,35,-78,78,-78","w":268},"\u00b6":{"d":"238,152r0,-515v-145,0,-223,-64,-223,-171v0,-233,282,-178,500,-178v37,0,60,24,60,60r0,804v0,36,-23,60,-60,60v-37,0,-60,-24,-60,-60r0,-774r-97,0r0,774v0,36,-23,60,-60,60v-37,0,-60,-24,-60,-60","w":620},"\u2022":{"d":"72,-356v0,-98,80,-178,178,-178v98,0,178,80,178,178v0,98,-80,178,-178,178v-98,0,-178,-80,-178,-178","w":500},"\u201a":{"d":"231,-90v-19,74,-65,127,-97,190v-31,61,-124,33,-125,-32v17,-75,63,-127,95,-190v32,-62,125,-33,127,32","w":240},"\u201e":{"d":"435,-90v-19,74,-65,127,-97,190v-31,61,-124,33,-125,-32v17,-75,63,-127,95,-190v32,-62,125,-33,127,32xm231,-90v-19,74,-65,127,-97,190v-31,61,-124,33,-125,-32v17,-75,63,-127,95,-190v32,-62,125,-33,127,32","w":444},"\u201d":{"d":"435,-658v-19,74,-65,127,-97,190v-31,61,-124,33,-125,-32v17,-75,63,-127,95,-190v32,-62,125,-33,127,32xm231,-658v-19,74,-65,127,-97,190v-31,61,-124,33,-125,-32v17,-75,63,-127,95,-190v32,-62,125,-33,127,32","w":444},"\u00bb":{"d":"252,-158r79,-123r-79,-117v-29,-43,1,-97,49,-97v20,0,39,9,50,25r103,159v20,31,2,68,-15,92r-97,137v-29,36,-101,10,-101,-38v0,-13,3,-25,11,-38xm48,-158r79,-123r-79,-117v-29,-43,1,-97,49,-97v20,0,39,9,50,25r103,159v20,31,2,68,-15,92r-97,137v-29,36,-101,10,-101,-38v0,-13,3,-25,11,-38","w":500},"\u2026":{"d":"89,-66v0,-43,35,-78,78,-78v43,0,78,35,78,78v0,43,-35,78,-78,78v-43,0,-78,-35,-78,-78xm422,-66v0,-43,35,-78,78,-78v43,0,78,35,78,78v0,43,-35,78,-78,78v-43,0,-78,-35,-78,-78xm755,-66v0,-43,35,-78,78,-78v43,0,78,35,78,78v0,43,-35,78,-78,78v-43,0,-78,-35,-78,-78","w":1000},"\u2030":{"d":"889,12v-89,0,-154,-74,-154,-161v0,-87,65,-162,154,-162v89,0,154,75,154,162v0,87,-65,161,-154,161xm889,-90v33,0,52,-27,52,-59v0,-32,-19,-60,-52,-60v-33,0,-52,28,-52,60v0,32,19,59,52,59xm185,-503v33,0,52,-27,52,-59v0,-32,-19,-60,-52,-60v-33,0,-52,28,-52,60v0,32,19,59,52,59xm149,-74r331,-624v21,-59,105,-29,105,24v0,8,0,15,-8,30r-336,629v-15,21,-21,33,-45,33v-41,0,-68,-52,-47,-92xm185,-401v-89,0,-154,-74,-154,-161v0,-87,65,-162,154,-162v89,0,154,75,154,162v0,87,-65,161,-154,161xm537,12v-89,0,-154,-74,-154,-161v0,-87,65,-162,154,-162v89,0,154,75,154,162v0,87,-65,161,-154,161xm537,-90v33,0,52,-27,52,-59v0,-32,-19,-60,-52,-60v-33,0,-52,28,-52,60v0,32,19,59,52,59","w":1074},"\u00bf":{"d":"334,-260r0,100v0,36,-40,42,-81,53v-40,11,-80,27,-80,85v0,44,41,76,83,76v84,0,97,-99,161,-99v36,0,61,28,61,72v0,105,-132,165,-222,165v-129,0,-239,-80,-239,-214v0,-111,70,-176,173,-202v-7,-62,16,-104,72,-105v45,0,72,29,72,69xm262,-544v43,0,78,35,78,78v0,43,-35,78,-78,78v-43,0,-78,-35,-78,-78v0,-43,35,-78,78,-78","w":481},"`":{"d":"42,-773v59,12,112,41,164,62v53,21,21,113,-25,113v-43,0,-103,-40,-152,-54v-62,-18,-48,-117,13,-121","w":222},"\u00b4":{"d":"-12,-671v-1,-18,17,-37,36,-44v51,-18,100,-47,156,-58v60,4,75,103,13,121v-49,14,-110,54,-152,54v-30,0,-53,-38,-53,-73","w":222},"\u02c6":{"d":"5,-721r106,-43r106,43v69,16,53,125,-15,125v-25,0,-66,-25,-91,-35v-26,10,-66,35,-91,35v-32,0,-61,-32,-61,-64v0,-32,17,-50,46,-61","w":222},"\u02dc":{"d":"-5,-605v-25,0,-50,-27,-50,-52v0,-55,43,-88,95,-88v46,0,88,25,112,25v20,0,51,-29,78,-29v31,0,47,28,47,56v0,50,-51,87,-98,87v-33,0,-90,-25,-113,-25v-25,0,-37,26,-71,26","w":222},"\u00af":{"d":"18,-730r186,0v37,0,65,21,65,60v0,39,-27,60,-65,60r-186,0v-38,0,-65,-21,-65,-60v0,-39,28,-60,65,-60","w":222},"\u02d8":{"d":"-44,-701v0,-28,12,-60,45,-60v62,0,48,68,110,68v54,0,45,-68,110,-68v26,0,45,34,45,60v0,72,-95,104,-155,104v-61,0,-155,-29,-155,-104","w":222},"\u02d9":{"d":"39,-675v0,-40,32,-72,72,-72v40,0,72,32,72,72v0,40,-32,72,-72,72v-40,0,-72,-32,-72,-72","w":222},"\u00a8":{"d":"149,-675v0,-40,32,-72,72,-72v40,0,72,32,72,72v0,40,-32,72,-72,72v-40,0,-72,-32,-72,-72xm-71,-675v0,-40,32,-72,72,-72v40,0,72,32,72,72v0,40,-32,72,-72,72v-40,0,-72,-32,-72,-72","w":222},"\u02da":{"d":"12,-678v0,-55,44,-99,99,-99v55,0,99,44,99,99v0,55,-44,99,-99,99v-55,0,-99,-44,-99,-99xm66,-678v0,25,20,45,45,45v25,0,45,-20,45,-45v0,-25,-20,-45,-45,-45v-25,0,-45,20,-45,45","w":222},"\u00b8":{"d":"44,168v0,-64,103,24,105,-44v2,-53,-67,-6,-68,-51v7,-26,32,-52,46,-73r60,0r-39,51v53,-12,97,17,97,73v0,65,-62,94,-111,94v-29,0,-90,-6,-90,-50","w":222},"\u02dd":{"d":"-151,-671v-1,-18,17,-37,36,-44v51,-18,100,-47,156,-58v60,4,75,103,13,121v-49,14,-110,54,-152,54v-30,0,-53,-38,-53,-73xm127,-671v-1,-18,17,-37,36,-44v51,-18,100,-47,156,-58v60,4,75,103,13,121v-49,14,-110,54,-152,54v-30,0,-53,-38,-53,-73","w":222},"\u02db":{"d":"122,0r69,0v-35,18,-84,68,-84,113v0,44,41,42,74,32v13,0,21,8,21,22v0,30,-48,51,-99,51v-54,0,-92,-32,-92,-84v0,-61,67,-116,111,-134","w":222},"\u02c7":{"d":"111,-592r-106,-43v-69,-15,-53,-125,15,-125v25,0,66,25,91,35v26,-10,66,-35,91,-35v32,0,61,32,61,64v0,32,-17,49,-46,61","w":222},"\u2014":{"d":"0,-350r1000,0v37,0,60,24,60,60v0,36,-23,60,-60,60r-1000,0v-37,0,-60,-24,-60,-60v0,-36,23,-60,60,-60","w":1000},"\u00c6":{"d":"10,-105r310,-573v8,-15,21,-34,70,-34r351,0v48,0,71,34,71,69v0,34,-24,69,-71,69r-176,0r0,146r164,0v49,0,73,34,73,69v0,34,-25,69,-73,69r-164,0r0,152r185,0v48,0,71,34,71,69v0,34,-24,69,-71,69r-258,0v-63,0,-85,-53,-77,-125r-229,0v-32,46,-50,126,-118,131v-59,4,-86,-60,-58,-111xm413,-550r-158,290r160,0r0,-290r-2,0","w":833},"\u00aa":{"d":"346,-670r0,235v0,20,-6,44,-44,44v-33,0,-43,-17,-45,-39v-18,19,-48,39,-82,39v-95,0,-162,-69,-162,-166v0,-132,154,-222,244,-128v2,-21,12,-39,45,-39v38,0,44,27,44,54xm181,-469v94,-2,93,-174,0,-177v-97,3,-97,175,0,177","w":373},"\u0141":{"d":"45,-82r0,-158v-19,12,-43,41,-70,40v-26,0,-44,-20,-44,-52v1,-47,82,-81,114,-112r0,-276v0,-50,32,-78,75,-78v43,0,75,28,75,78r0,162r110,-82v39,-27,86,-15,86,34v0,27,-25,45,-51,64r-145,106r0,218r178,0v99,2,92,138,0,138r-250,0v-49,0,-78,-32,-78,-82","w":426},"\u00d8":{"d":"527,-470r-283,301v27,27,66,43,117,43v167,0,224,-198,166,-344xm14,-58r70,-71v-43,-62,-67,-141,-67,-227v0,-208,140,-368,344,-368v88,0,162,28,216,76r48,-48v12,-14,29,-34,56,-34v33,0,58,40,31,68r-76,78v43,63,69,142,69,228v0,207,-139,368,-344,368v-90,0,-163,-28,-218,-76r-62,63v-24,33,-80,19,-81,-26v0,-12,6,-22,14,-31xm194,-244r283,-300v-28,-26,-66,-42,-116,-42v-164,-3,-224,195,-167,342","w":722},"\u0152":{"d":"693,-574r0,146r166,0v49,0,73,34,73,69v0,34,-25,69,-73,69r-166,0r0,152r187,0v48,0,71,34,71,69v0,34,-24,69,-71,69r-278,0v-48,2,-41,-32,-47,-57v-44,59,-126,69,-194,69v-203,0,-344,-161,-344,-368v0,-208,140,-368,344,-368v69,0,143,22,195,75v6,-48,13,-63,74,-63r241,0v48,0,71,34,71,69v0,34,-24,69,-71,69r-178,0xm173,-356v0,122,61,230,188,230v127,0,188,-108,188,-230v0,-121,-63,-230,-188,-230v-125,0,-188,109,-188,230","w":963},"\u00ba":{"d":"181,-724v99,0,167,79,167,167v0,90,-67,166,-167,166v-101,0,-168,-76,-168,-166v0,-88,69,-167,168,-167xm181,-469v47,0,71,-47,71,-88v0,-41,-20,-89,-71,-89v-97,0,-96,177,0,177","w":361},"\u00e6":{"d":"164,-265v0,69,36,145,114,145v75,0,111,-76,111,-145v0,-69,-35,-147,-111,-147v-79,0,-114,78,-114,147xm834,-218r-307,0v10,71,70,104,137,104v73,0,124,-58,162,-58v31,0,59,31,59,62v0,98,-272,172,-375,80v-17,60,-126,39,-115,-25r-2,0v-34,43,-79,67,-135,67v-135,0,-238,-115,-238,-277v0,-158,106,-279,238,-279v56,0,105,25,141,66v-6,-72,103,-78,111,-20v154,-127,387,31,387,216v0,43,-19,64,-63,64xm525,-314r228,0v-8,-63,-48,-110,-114,-110v-64,0,-107,49,-114,110","w":907},"\u0131":{"d":"39,-74r0,-384v0,-48,30,-80,72,-80v42,0,72,32,72,80r0,384v0,48,-30,80,-72,80v-42,0,-72,-32,-72,-80","w":222},"\u0142":{"d":"183,-532v15,-15,32,-32,55,-32v45,0,47,63,19,91r-74,74r0,325v0,48,-30,80,-72,80v-42,0,-72,-32,-72,-80r0,-186v-14,14,-31,31,-52,30v-45,-1,-53,-58,-22,-89r74,-74r0,-297v0,-48,30,-80,72,-80v42,0,72,32,72,80r0,158","w":222},"\u00f8":{"d":"173,-210r171,-178v-16,-15,-39,-24,-66,-24v-97,3,-132,114,-105,202xm15,-46r53,-55v-118,-172,-5,-443,210,-443v62,0,116,22,159,59v23,-19,41,-58,73,-63v34,-5,54,45,31,68r-52,54v115,174,7,438,-211,438v-62,0,-116,-20,-157,-54v-25,21,-39,58,-75,64v-34,6,-54,-45,-31,-68xm385,-318r-169,176v16,14,37,22,62,22v95,-3,130,-107,107,-198","w":556},"\u0153":{"d":"524,-314r229,0v-8,-63,-48,-110,-114,-110v-64,0,-107,49,-115,110xm834,-218r-307,0v10,71,70,104,137,104v73,0,124,-58,162,-58v31,0,59,31,59,62v0,62,-128,122,-235,122v-84,0,-150,-33,-191,-83v-40,49,-101,83,-181,83v-155,0,-258,-127,-258,-277v0,-146,106,-279,258,-279v80,0,141,36,186,81v35,-44,95,-81,172,-81v139,0,261,122,261,262v0,43,-19,64,-63,64xm164,-265v0,69,36,145,114,145v78,0,114,-76,114,-145v0,-69,-35,-147,-114,-147v-79,0,-114,78,-114,147","w":907},"\u00df":{"d":"39,-74r0,-442v0,-142,80,-254,231,-254v121,0,216,83,216,206v0,53,-20,112,-68,141v210,75,136,435,-95,435v-61,0,-87,-33,-87,-72v0,-49,42,-56,82,-65v42,-9,80,-49,80,-102v0,-167,-168,-71,-168,-184v0,-95,118,-29,118,-153v0,-36,-31,-74,-78,-74v-76,0,-87,61,-87,122r0,442v0,48,-30,80,-72,80v-42,0,-72,-32,-72,-80","w":556},"\u00f7":{"d":"95,-313r410,0v37,0,60,24,60,60v0,36,-23,60,-60,60r-410,0v-37,0,-60,-24,-60,-60v0,-36,23,-60,60,-60xm222,-46v0,-43,35,-78,78,-78v43,0,78,35,78,78v0,43,-35,78,-78,78v-43,0,-78,-35,-78,-78xm222,-460v0,-43,35,-78,78,-78v43,0,78,35,78,78v0,43,-35,78,-78,78v-43,0,-78,-35,-78,-78","w":600},"\u00be":{"d":"238,-74r331,-624v21,-59,105,-29,105,24v0,8,0,15,-8,30r-336,629v-15,21,-21,33,-45,33v-41,0,-68,-52,-47,-92xm131,-514v0,-64,93,-21,92,-87v0,-19,-14,-33,-44,-33v-52,0,-55,51,-100,51v-27,0,-42,-22,-42,-44v0,-58,89,-97,142,-97v70,0,140,41,140,109v0,38,-20,71,-55,92v47,20,80,60,80,108v0,90,-86,130,-165,130v-65,0,-156,-42,-156,-111v0,-23,27,-40,50,-40v44,0,34,61,106,61v35,0,63,-20,63,-46v2,-77,-111,-24,-111,-93xm488,-154r145,-244v31,-57,150,-47,150,42r0,177v33,-2,55,11,55,47v0,37,-22,51,-55,49v2,50,3,89,-51,89v-55,0,-53,-39,-51,-89r-163,0v-43,-1,-46,-45,-30,-71xm681,-179v-2,-49,4,-108,-2,-153r-84,153r86,0","w":861},"\u00bc":{"d":"162,-74r331,-624v21,-59,105,-29,105,24v0,8,0,15,-8,30r-336,629v-15,21,-21,33,-45,33v-41,0,-68,-52,-47,-92xm114,-329r0,-287v-47,5,-78,-6,-78,-52v0,-67,77,-50,137,-50v28,0,43,18,43,42r0,347v0,24,-19,44,-51,44v-30,0,-51,-17,-51,-44xm475,-154r145,-244v31,-57,150,-47,150,42r0,177v33,-2,55,11,55,47v0,37,-22,51,-55,49v2,50,3,89,-51,89v-55,0,-53,-39,-51,-89r-163,0v-43,-1,-46,-45,-30,-71xm668,-179v-2,-49,4,-108,-2,-153r-84,153r86,0","w":861},"\u00b9":{"d":"88,-329r0,-287v-47,5,-78,-6,-78,-52v0,-67,77,-50,137,-50v28,0,43,18,43,42r0,347v0,24,-19,44,-51,44v-30,0,-51,-17,-51,-44","w":240},"\u00d7":{"d":"94,-377v-39,-32,-9,-102,41,-101v16,0,29,7,41,19r124,124r124,-124v35,-41,102,-8,101,44v0,14,-9,28,-19,38r-124,124r124,124v41,35,8,102,-44,101v-14,0,-28,-9,-38,-19r-124,-124r-124,124v-32,39,-102,9,-101,-41v0,-16,7,-29,19,-41r124,-124","w":600},"\u00ae":{"d":"342,-316r0,118v0,28,-10,48,-45,48v-35,0,-45,-16,-45,-48r0,-309v0,-23,8,-42,46,-42v127,1,261,-19,262,117v0,71,-36,107,-100,110v24,46,60,83,77,137v0,22,-14,35,-47,35v-32,0,-42,-24,-55,-48r-63,-118r-30,0xm342,-388v54,-4,128,19,128,-44v0,-64,-73,-41,-128,-45r0,89xm32,-356v0,-203,165,-368,368,-368v203,0,368,165,368,368v0,203,-165,368,-368,368v-203,0,-368,-165,-368,-368xm122,-356v0,154,124,278,278,278v154,0,278,-124,278,-278v0,-154,-124,-278,-278,-278v-154,0,-278,124,-278,278","w":800},"\u00de":{"d":"195,-480r0,212r102,0v63,0,103,-46,103,-106v0,-60,-40,-106,-103,-106r-102,0xm45,-72r0,-568v0,-50,32,-78,75,-78v53,-1,82,41,75,106r105,0v147,0,256,96,256,239v0,146,-113,237,-250,237r-111,0r0,64v0,50,-32,78,-75,78v-43,0,-75,-28,-75,-78","w":556},"\u00a6":{"d":"51,-385r0,-230v0,-36,23,-60,60,-60v37,0,60,24,60,60r0,230v0,36,-23,60,-60,60v-37,0,-60,-24,-60,-60xm51,115r0,-230v0,-36,23,-60,60,-60v37,0,60,24,60,60r0,230v0,36,-23,60,-60,60v-37,0,-60,-24,-60,-60","w":222},"\u00d0":{"d":"45,-75r0,-229v-53,7,-90,-20,-90,-57v0,-38,37,-64,90,-57r0,-217v0,-46,32,-77,77,-77r166,0v224,0,352,144,352,366v0,210,-136,346,-342,346r-174,0v-33,0,-79,-18,-79,-75xm195,-574r0,156r82,0v42,0,63,28,63,57v0,28,-21,57,-63,57r-82,0r0,166r101,0v129,0,188,-95,188,-215v0,-128,-60,-221,-198,-221r-91,0","w":667},"\u00bd":{"d":"162,-74r331,-624v21,-59,105,-29,105,24v0,8,0,15,-8,30r-336,629v-15,21,-21,33,-45,33v-41,0,-68,-52,-47,-92xm784,0r-227,0v-41,6,-59,-44,-32,-70v57,-56,110,-118,161,-180v26,-31,35,-93,-23,-93v-77,0,-37,89,-102,89v-31,0,-47,-21,-47,-56v0,-44,55,-123,153,-123v80,0,144,47,144,123v0,87,-102,167,-132,208r99,0v24,0,47,24,47,53v0,37,-17,49,-41,49xm114,-329r0,-287v-47,5,-78,-6,-78,-52v0,-67,77,-50,137,-50v28,0,43,18,43,42r0,347v0,24,-19,44,-51,44v-30,0,-51,-17,-51,-44","w":861},"\u2212":{"d":"95,-313r410,0v37,0,60,24,60,60v0,36,-23,60,-60,60r-410,0v-37,0,-60,-24,-60,-60v0,-36,23,-60,60,-60","w":600},"\u00e7":{"d":"165,168v0,-64,103,24,105,-44v2,-53,-67,-6,-68,-51v5,-21,28,-46,39,-64v-135,-19,-221,-137,-221,-274v0,-146,106,-279,258,-279v57,0,176,21,176,91v0,30,-21,69,-55,69v-36,0,-68,-28,-114,-28v-163,0,-159,291,0,292v36,0,90,-30,107,-30v34,0,62,29,62,63v0,66,-98,93,-154,97r-31,41v53,-12,97,17,97,73v0,65,-62,94,-111,94v-29,0,-90,-6,-90,-50","w":463},"\u00f0":{"d":"278,12v-155,0,-258,-127,-258,-277v0,-126,101,-256,242,-256v42,0,85,12,113,43r2,-2v-25,-55,-65,-103,-112,-131v-37,17,-95,62,-133,62v-16,0,-35,-11,-35,-36v0,-47,59,-49,89,-71v-27,-11,-70,-27,-70,-58v0,-44,25,-62,78,-62v46,0,92,25,130,47v34,-16,76,-54,116,-54v19,0,35,16,35,38v1,36,-65,52,-92,71v113,106,153,224,153,385v0,174,-103,301,-258,301xm277,-395v-149,1,-150,272,1,275v150,-2,153,-278,-1,-275","w":556},"\u00b1":{"d":"240,-394v-3,-63,-3,-124,60,-124v63,0,63,61,60,124v81,6,206,-29,205,60v0,36,-23,60,-60,60r-145,0v3,63,3,124,-60,124v-63,0,-63,-61,-60,-124v-81,-6,-206,29,-205,-60v0,-36,23,-60,60,-60r145,0xm95,-120r410,0v37,0,60,24,60,60v0,36,-23,60,-60,60r-410,0v-37,0,-60,-24,-60,-60v0,-36,23,-60,60,-60","w":600},"\u00c7":{"d":"239,168v0,-64,103,24,105,-44v2,-53,-67,-6,-68,-51v5,-21,28,-46,39,-64v-178,-22,-298,-174,-298,-365v0,-208,140,-368,344,-368v73,0,215,24,215,112v0,36,-25,67,-62,67v-41,0,-69,-35,-153,-35v-124,0,-188,105,-188,227v0,119,65,221,188,221v84,0,118,-42,159,-42v45,0,66,45,66,68v0,92,-138,116,-213,117r-30,40v53,-12,97,17,97,73v0,65,-62,94,-111,94v-29,0,-90,-6,-90,-50","w":611},"\u00fe":{"d":"41,138r0,-828v0,-48,30,-80,72,-80v42,0,72,32,72,80r0,212r2,0v25,-44,81,-66,130,-66v145,0,237,135,237,271v0,134,-83,285,-232,285v-50,0,-99,-17,-137,-50r0,176v0,48,-30,80,-72,80v-42,0,-72,-32,-72,-80xm298,-412v-151,0,-153,290,0,292v75,0,112,-79,112,-147v0,-67,-37,-145,-112,-145"},"\u00a9":{"d":"536,-389v-37,0,-42,-23,-54,-45v-9,-17,-25,-38,-79,-38v-60,0,-91,45,-91,116v0,71,31,116,91,116v54,0,70,-21,79,-38v12,-22,17,-45,54,-45v34,0,40,18,40,54v0,44,-68,119,-173,119v-123,0,-199,-89,-199,-206v0,-117,76,-206,199,-206v105,0,173,75,173,119v0,36,-6,54,-40,54xm32,-356v0,-203,165,-368,368,-368v203,0,368,165,368,368v0,203,-165,368,-368,368v-203,0,-368,-165,-368,-368xm122,-356v0,154,124,278,278,278v154,0,278,-124,278,-278v0,-154,-124,-278,-278,-278v-154,0,-278,124,-278,278","w":800},"\u00ac":{"d":"95,-425r410,0v37,0,60,24,60,60r0,227v0,36,-23,60,-60,60v-37,0,-60,-24,-60,-60r0,-167r-350,0v-37,0,-60,-24,-60,-60v0,-36,23,-60,60,-60","w":600},"\u00b2":{"d":"198,-393v63,8,146,-28,146,51v0,39,-17,51,-44,51r-224,0v-41,6,-59,-43,-32,-69v57,-56,110,-118,161,-180v26,-32,35,-94,-23,-94v-77,0,-37,90,-102,90v-31,0,-47,-21,-47,-56v0,-44,55,-124,153,-124v80,0,144,48,144,124v0,87,-102,167,-132,207","w":373},"\u00b3":{"d":"134,-514v0,-64,93,-21,92,-87v0,-19,-14,-33,-44,-33v-52,0,-55,51,-100,51v-27,0,-42,-22,-42,-44v0,-58,89,-97,142,-97v70,0,140,41,140,109v0,38,-20,71,-55,92v47,20,80,60,80,108v0,90,-86,130,-165,130v-65,0,-156,-42,-156,-111v0,-23,27,-40,50,-40v44,0,34,61,106,61v35,0,63,-20,63,-46v2,-77,-111,-24,-111,-93","w":373},"\u2122":{"d":"166,-360r0,-262v-55,-3,-125,16,-124,-45v0,-30,19,-45,45,-45r278,0v26,0,45,15,45,45v1,61,-69,42,-124,45r0,262v0,36,-23,60,-60,60v-37,0,-60,-24,-60,-60xm468,-360r0,-296v0,-34,21,-62,85,-62v37,0,67,5,89,62r71,182r71,-182v25,-56,52,-62,89,-62v64,0,85,28,85,62r0,296v0,36,-11,60,-54,60v-43,0,-54,-24,-54,-60r0,-208r-2,0r-72,208v-12,34,-22,60,-63,60v-41,0,-51,-25,-63,-60r-72,-208r-2,0r0,208v0,36,-11,60,-54,60v-43,0,-54,-24,-54,-60","w":1000},"\u00b0":{"d":"117,-563v0,45,38,83,83,83v45,0,83,-38,83,-83v0,-45,-38,-83,-83,-83v-45,0,-83,38,-83,83xm39,-563v0,-89,72,-161,161,-161v89,0,161,72,161,161v0,89,-72,161,-161,161v-89,0,-161,-72,-161,-161","w":400},"\u03bc":{"d":"41,138r0,-596v0,-48,30,-80,72,-80v42,0,72,32,72,80r0,257v0,60,45,93,93,93v48,0,93,-33,93,-93r0,-257v0,-48,30,-80,72,-80v42,0,72,32,72,80r0,384v0,48,-30,80,-72,80v-45,0,-69,-32,-74,-69v-40,98,-128,92,-182,25r-2,0r0,176v0,48,-30,80,-72,80v-42,0,-72,-32,-72,-80","w":556},"\u00c1":{"d":"9,-97r201,-544v17,-46,56,-83,107,-83v53,0,90,35,107,83r196,544v25,55,-10,103,-61,103v-84,0,-77,-88,-103,-146r-278,0v-25,57,-20,144,-102,146v-52,1,-85,-53,-67,-103xm316,-568r-95,290r190,0r-93,-290r-2,0xm192,-833v-1,-18,17,-37,36,-44v51,-18,100,-47,156,-58v60,4,75,103,13,121v-49,14,-110,54,-152,54v-30,0,-53,-38,-53,-73","w":630},"\u00c2":{"d":"9,-97r201,-544v17,-46,56,-83,107,-83v53,0,90,35,107,83r196,544v25,55,-10,103,-61,103v-84,0,-77,-88,-103,-146r-278,0v-25,57,-20,144,-102,146v-52,1,-85,-53,-67,-103xm316,-568r-95,290r190,0r-93,-290r-2,0xm209,-883r106,-43r106,43v69,16,53,125,-15,125v-25,0,-66,-25,-91,-35v-26,10,-66,35,-91,35v-32,0,-61,-32,-61,-64v0,-32,17,-50,46,-61","w":630},"\u00c4":{"d":"9,-97r201,-544v17,-46,56,-83,107,-83v53,0,90,35,107,83r196,544v25,55,-10,103,-61,103v-84,0,-77,-88,-103,-146r-278,0v-25,57,-20,144,-102,146v-52,1,-85,-53,-67,-103xm316,-568r-95,290r190,0r-93,-290r-2,0xm353,-837v0,-40,32,-72,72,-72v40,0,72,32,72,72v0,40,-32,72,-72,72v-40,0,-72,-32,-72,-72xm133,-837v0,-40,32,-72,72,-72v40,0,72,32,72,72v0,40,-32,72,-72,72v-40,0,-72,-32,-72,-72","w":630},"\u00c0":{"d":"9,-97r201,-544v17,-46,56,-83,107,-83v53,0,90,35,107,83r196,544v25,55,-10,103,-61,103v-84,0,-77,-88,-103,-146r-278,0v-25,57,-20,144,-102,146v-52,1,-85,-53,-67,-103xm316,-568r-95,290r190,0r-93,-290r-2,0xm246,-935v59,12,112,41,164,62v53,21,21,113,-25,113v-43,0,-103,-40,-152,-54v-62,-18,-48,-117,13,-121","w":630},"\u00c5":{"d":"9,-97r201,-544v17,-46,56,-83,107,-83v53,0,90,35,107,83r196,544v25,55,-10,103,-61,103v-84,0,-77,-88,-103,-146r-278,0v-25,57,-20,144,-102,146v-52,1,-85,-53,-67,-103xm316,-568r-95,290r190,0r-93,-290r-2,0xm216,-840v0,-55,44,-99,99,-99v55,0,99,44,99,99v0,55,-44,99,-99,99v-55,0,-99,-44,-99,-99xm270,-840v0,25,20,45,45,45v25,0,45,-20,45,-45v0,-25,-20,-45,-45,-45v-25,0,-45,20,-45,45","w":630},"\u00c3":{"d":"9,-97r201,-544v17,-46,56,-83,107,-83v53,0,90,35,107,83r196,544v25,55,-10,103,-61,103v-84,0,-77,-88,-103,-146r-278,0v-25,57,-20,144,-102,146v-52,1,-85,-53,-67,-103xm316,-568r-95,290r190,0r-93,-290r-2,0xm199,-767v-25,0,-50,-27,-50,-52v0,-55,43,-88,95,-88v46,0,88,25,112,25v20,0,51,-29,78,-29v31,0,47,28,47,56v0,50,-51,87,-98,87v-33,0,-90,-25,-113,-25v-25,0,-37,26,-71,26","w":630},"\u00c9":{"d":"45,-75r0,-550v0,-50,25,-87,78,-87r248,0v48,0,71,34,71,69v0,34,-24,69,-71,69r-176,0r0,146r164,0v49,0,73,34,73,69v0,34,-25,69,-73,69r-164,0r0,152r185,0v48,0,71,34,71,69v0,34,-24,69,-71,69r-258,0v-44,0,-77,-30,-77,-75xm109,-833v-1,-18,17,-37,36,-44v51,-18,100,-47,156,-58v60,4,75,103,13,121v-49,14,-110,54,-152,54v-30,0,-53,-38,-53,-73","w":463},"\u00ca":{"d":"45,-75r0,-550v0,-50,25,-87,78,-87r248,0v48,0,71,34,71,69v0,34,-24,69,-71,69r-176,0r0,146r164,0v49,0,73,34,73,69v0,34,-25,69,-73,69r-164,0r0,152r185,0v48,0,71,34,71,69v0,34,-24,69,-71,69r-258,0v-44,0,-77,-30,-77,-75xm126,-883r106,-43r106,43v69,16,53,125,-15,125v-25,0,-66,-25,-91,-35v-26,10,-66,35,-91,35v-32,0,-61,-32,-61,-64v0,-32,17,-50,46,-61","w":463},"\u00cb":{"d":"45,-75r0,-550v0,-50,25,-87,78,-87r248,0v48,0,71,34,71,69v0,34,-24,69,-71,69r-176,0r0,146r164,0v49,0,73,34,73,69v0,34,-25,69,-73,69r-164,0r0,152r185,0v48,0,71,34,71,69v0,34,-24,69,-71,69r-258,0v-44,0,-77,-30,-77,-75xm270,-837v0,-40,32,-72,72,-72v40,0,72,32,72,72v0,40,-32,72,-72,72v-40,0,-72,-32,-72,-72xm50,-837v0,-40,32,-72,72,-72v40,0,72,32,72,72v0,40,-32,72,-72,72v-40,0,-72,-32,-72,-72","w":463},"\u00c8":{"d":"45,-75r0,-550v0,-50,25,-87,78,-87r248,0v48,0,71,34,71,69v0,34,-24,69,-71,69r-176,0r0,146r164,0v49,0,73,34,73,69v0,34,-25,69,-73,69r-164,0r0,152r185,0v48,0,71,34,71,69v0,34,-24,69,-71,69r-258,0v-44,0,-77,-30,-77,-75xm163,-935v59,12,112,41,164,62v53,21,21,113,-25,113v-43,0,-103,-40,-152,-54v-62,-18,-48,-117,13,-121","w":463},"\u00cd":{"d":"45,-72r0,-568v0,-50,32,-78,75,-78v43,0,75,28,75,78r0,568v0,50,-32,78,-75,78v-43,0,-75,-28,-75,-78xm-3,-833v-1,-18,17,-37,36,-44v51,-18,100,-47,156,-58v60,4,75,103,13,121v-49,14,-110,54,-152,54v-30,0,-53,-38,-53,-73","w":240},"\u00ce":{"d":"45,-72r0,-568v0,-50,32,-78,75,-78v43,0,75,28,75,78r0,568v0,50,-32,78,-75,78v-43,0,-75,-28,-75,-78xm14,-883r106,-43r106,43v69,16,53,125,-15,125v-25,0,-66,-25,-91,-35v-26,10,-66,35,-91,35v-32,0,-61,-32,-61,-64v0,-32,17,-50,46,-61","w":240},"\u00cf":{"d":"45,-72r0,-568v0,-50,32,-78,75,-78v43,0,75,28,75,78r0,568v0,50,-32,78,-75,78v-43,0,-75,-28,-75,-78xm158,-837v0,-40,32,-72,72,-72v40,0,72,32,72,72v0,40,-32,72,-72,72v-40,0,-72,-32,-72,-72xm-62,-837v0,-40,32,-72,72,-72v40,0,72,32,72,72v0,40,-32,72,-72,72v-40,0,-72,-32,-72,-72","w":240},"\u00cc":{"d":"45,-72r0,-568v0,-50,32,-78,75,-78v43,0,75,28,75,78r0,568v0,50,-32,78,-75,78v-43,0,-75,-28,-75,-78xm51,-935v59,12,112,41,164,62v53,21,21,113,-25,113v-43,0,-103,-40,-152,-54v-62,-18,-48,-117,13,-121","w":240},"\u00d1":{"d":"39,-72r0,-568v-3,-84,97,-100,138,-45r317,423r2,0r0,-378v0,-50,32,-78,75,-78v43,0,75,28,75,78r0,568v3,84,-96,100,-138,45r-317,-418r-2,0r0,373v0,50,-32,78,-75,78v-43,0,-75,-28,-75,-78xm227,-767v-25,0,-50,-27,-50,-52v0,-55,43,-88,95,-88v46,0,88,25,112,25v20,0,51,-29,78,-29v31,0,47,28,47,56v0,50,-51,87,-98,87v-33,0,-90,-25,-113,-25v-25,0,-37,26,-71,26","w":685},"\u00d3":{"d":"361,-126v127,0,188,-108,188,-230v0,-121,-63,-230,-188,-230v-125,0,-188,109,-188,230v0,122,61,230,188,230xm361,12v-203,0,-344,-161,-344,-368v0,-208,140,-368,344,-368v201,0,344,165,344,368v0,207,-139,368,-344,368xm238,-833v-1,-18,17,-37,36,-44v51,-18,100,-47,156,-58v60,4,75,103,13,121v-49,14,-110,54,-152,54v-30,0,-53,-38,-53,-73","w":722},"\u00d4":{"d":"361,-126v127,0,188,-108,188,-230v0,-121,-63,-230,-188,-230v-125,0,-188,109,-188,230v0,122,61,230,188,230xm361,12v-203,0,-344,-161,-344,-368v0,-208,140,-368,344,-368v201,0,344,165,344,368v0,207,-139,368,-344,368xm255,-883r106,-43r106,43v69,16,53,125,-15,125v-25,0,-66,-25,-91,-35v-26,10,-66,35,-91,35v-32,0,-61,-32,-61,-64v0,-32,17,-50,46,-61","w":722},"\u00d6":{"d":"361,-126v127,0,188,-108,188,-230v0,-121,-63,-230,-188,-230v-125,0,-188,109,-188,230v0,122,61,230,188,230xm361,12v-203,0,-344,-161,-344,-368v0,-208,140,-368,344,-368v201,0,344,165,344,368v0,207,-139,368,-344,368xm399,-837v0,-40,32,-72,72,-72v40,0,72,32,72,72v0,40,-32,72,-72,72v-40,0,-72,-32,-72,-72xm179,-837v0,-40,32,-72,72,-72v40,0,72,32,72,72v0,40,-32,72,-72,72v-40,0,-72,-32,-72,-72","w":722},"\u00d2":{"d":"361,-126v127,0,188,-108,188,-230v0,-121,-63,-230,-188,-230v-125,0,-188,109,-188,230v0,122,61,230,188,230xm361,12v-203,0,-344,-161,-344,-368v0,-208,140,-368,344,-368v201,0,344,165,344,368v0,207,-139,368,-344,368xm292,-935v59,12,112,41,164,62v53,21,21,113,-25,113v-43,0,-103,-40,-152,-54v-62,-18,-48,-117,13,-121","w":722},"\u00d5":{"d":"361,-126v127,0,188,-108,188,-230v0,-121,-63,-230,-188,-230v-125,0,-188,109,-188,230v0,122,61,230,188,230xm361,12v-203,0,-344,-161,-344,-368v0,-208,140,-368,344,-368v201,0,344,165,344,368v0,207,-139,368,-344,368xm245,-767v-25,0,-50,-27,-50,-52v0,-55,43,-88,95,-88v46,0,88,25,112,25v20,0,51,-29,78,-29v31,0,47,28,47,56v0,50,-51,87,-98,87v-33,0,-90,-25,-113,-25v-25,0,-37,26,-71,26","w":722},"\u0160":{"d":"270,-724v56,0,196,21,196,100v0,39,-26,74,-67,74v-41,0,-73,-30,-133,-30v-43,0,-82,23,-82,65v0,103,334,37,334,295v0,143,-118,232,-256,232v-77,0,-243,-18,-243,-112v0,-39,26,-71,67,-71v47,0,103,39,168,39v66,0,102,-37,102,-86v0,-118,-334,-47,-334,-279v0,-140,115,-227,248,-227xm269,-754r-106,-43v-69,-15,-53,-125,15,-125v25,0,66,25,91,35v26,-10,66,-35,91,-35v32,0,61,32,61,64v0,32,-17,49,-46,61","w":537},"\u00da":{"d":"39,-283r0,-357v0,-50,32,-78,75,-78v43,0,75,28,75,78r0,349v0,92,59,165,154,165v91,0,153,-77,153,-165r0,-349v0,-50,32,-78,75,-78v43,0,75,28,75,78r0,357v0,168,-138,295,-303,295v-167,0,-304,-125,-304,-295xm220,-833v-1,-18,17,-37,36,-44v51,-18,100,-47,156,-58v60,4,75,103,13,121v-49,14,-110,54,-152,54v-30,0,-53,-38,-53,-73","w":685},"\u00db":{"d":"39,-283r0,-357v0,-50,32,-78,75,-78v43,0,75,28,75,78r0,349v0,92,59,165,154,165v91,0,153,-77,153,-165r0,-349v0,-50,32,-78,75,-78v43,0,75,28,75,78r0,357v0,168,-138,295,-303,295v-167,0,-304,-125,-304,-295xm237,-883r106,-43r106,43v69,16,53,125,-15,125v-25,0,-66,-25,-91,-35v-26,10,-66,35,-91,35v-32,0,-61,-32,-61,-64v0,-32,17,-50,46,-61","w":685},"\u00dc":{"d":"39,-283r0,-357v0,-50,32,-78,75,-78v43,0,75,28,75,78r0,349v0,92,59,165,154,165v91,0,153,-77,153,-165r0,-349v0,-50,32,-78,75,-78v43,0,75,28,75,78r0,357v0,168,-138,295,-303,295v-167,0,-304,-125,-304,-295xm381,-837v0,-40,32,-72,72,-72v40,0,72,32,72,72v0,40,-32,72,-72,72v-40,0,-72,-32,-72,-72xm161,-837v0,-40,32,-72,72,-72v40,0,72,32,72,72v0,40,-32,72,-72,72v-40,0,-72,-32,-72,-72","w":685},"\u00d9":{"d":"39,-283r0,-357v0,-50,32,-78,75,-78v43,0,75,28,75,78r0,349v0,92,59,165,154,165v91,0,153,-77,153,-165r0,-349v0,-50,32,-78,75,-78v43,0,75,28,75,78r0,357v0,168,-138,295,-303,295v-167,0,-304,-125,-304,-295xm274,-935v59,12,112,41,164,62v53,21,21,113,-25,113v-43,0,-103,-40,-152,-54v-62,-18,-48,-117,13,-121","w":685},"\u00dd":{"d":"193,-67r0,-267r-189,-266v-34,-47,-2,-120,58,-118v26,0,49,11,62,30r144,209r144,-209v34,-54,134,-28,134,43v0,16,-5,32,-14,45r-189,266r0,267v0,37,-22,73,-75,73v-53,0,-75,-36,-75,-73xm145,-833v-1,-18,17,-37,36,-44v51,-18,100,-47,156,-58v60,4,75,103,13,121v-49,14,-110,54,-152,54v-30,0,-53,-38,-53,-73","w":536},"\u0178":{"d":"193,-67r0,-267r-189,-266v-34,-47,-2,-120,58,-118v26,0,49,11,62,30r144,209r144,-209v34,-54,134,-28,134,43v0,16,-5,32,-14,45r-189,266r0,267v0,37,-22,73,-75,73v-53,0,-75,-36,-75,-73xm306,-837v0,-40,32,-72,72,-72v40,0,72,32,72,72v0,40,-32,72,-72,72v-40,0,-72,-32,-72,-72xm86,-837v0,-40,32,-72,72,-72v40,0,72,32,72,72v0,40,-32,72,-72,72v-40,0,-72,-32,-72,-72","w":536},"\u017d":{"d":"209,-132r290,0v42,0,72,23,72,66v0,38,-36,66,-72,66r-393,0v-81,3,-104,-75,-64,-130r322,-450r-263,0v-40,0,-70,-23,-70,-64v0,-38,32,-68,70,-68r366,0v91,1,102,82,62,136xm297,-754r-106,-43v-69,-15,-53,-125,15,-125v25,0,66,25,91,35v26,-10,66,-35,91,-35v32,0,61,32,61,64v0,32,-17,49,-46,61","w":593},"\u00e1":{"d":"533,-444r0,356v0,37,0,94,-69,94v-42,0,-59,-23,-69,-61v-37,44,-82,67,-137,67v-135,0,-238,-115,-238,-277v0,-158,106,-279,238,-279v53,0,105,21,137,66v4,-35,34,-60,69,-60v69,0,69,57,69,94xm164,-265v0,69,36,145,114,145v75,0,111,-76,111,-145v0,-69,-35,-147,-111,-147v-79,0,-114,78,-114,147xm164,-671v-1,-18,17,-37,36,-44v51,-18,100,-47,156,-58v60,4,75,103,13,121v-49,14,-110,54,-152,54v-30,0,-53,-38,-53,-73"},"\u00e2":{"d":"533,-444r0,356v0,37,0,94,-69,94v-42,0,-59,-23,-69,-61v-37,44,-82,67,-137,67v-135,0,-238,-115,-238,-277v0,-158,106,-279,238,-279v53,0,105,21,137,66v4,-35,34,-60,69,-60v69,0,69,57,69,94xm164,-265v0,69,36,145,114,145v75,0,111,-76,111,-145v0,-69,-35,-147,-111,-147v-79,0,-114,78,-114,147xm181,-721r106,-43r106,43v69,16,53,125,-15,125v-25,0,-66,-25,-91,-35v-26,10,-66,35,-91,35v-32,0,-61,-32,-61,-64v0,-32,17,-50,46,-61"},"\u00e4":{"d":"533,-444r0,356v0,37,0,94,-69,94v-42,0,-59,-23,-69,-61v-37,44,-82,67,-137,67v-135,0,-238,-115,-238,-277v0,-158,106,-279,238,-279v53,0,105,21,137,66v4,-35,34,-60,69,-60v69,0,69,57,69,94xm164,-265v0,69,36,145,114,145v75,0,111,-76,111,-145v0,-69,-35,-147,-111,-147v-79,0,-114,78,-114,147xm325,-675v0,-40,32,-72,72,-72v40,0,72,32,72,72v0,40,-32,72,-72,72v-40,0,-72,-32,-72,-72xm105,-675v0,-40,32,-72,72,-72v40,0,72,32,72,72v0,40,-32,72,-72,72v-40,0,-72,-32,-72,-72"},"\u00e0":{"d":"533,-444r0,356v0,37,0,94,-69,94v-42,0,-59,-23,-69,-61v-37,44,-82,67,-137,67v-135,0,-238,-115,-238,-277v0,-158,106,-279,238,-279v53,0,105,21,137,66v4,-35,34,-60,69,-60v69,0,69,57,69,94xm164,-265v0,69,36,145,114,145v75,0,111,-76,111,-145v0,-69,-35,-147,-111,-147v-79,0,-114,78,-114,147xm218,-773v59,12,112,41,164,62v53,21,21,113,-25,113v-43,0,-103,-40,-152,-54v-62,-18,-48,-117,13,-121"},"\u00e5":{"d":"533,-444r0,356v0,37,0,94,-69,94v-42,0,-59,-23,-69,-61v-37,44,-82,67,-137,67v-135,0,-238,-115,-238,-277v0,-158,106,-279,238,-279v53,0,105,21,137,66v4,-35,34,-60,69,-60v69,0,69,57,69,94xm164,-265v0,69,36,145,114,145v75,0,111,-76,111,-145v0,-69,-35,-147,-111,-147v-79,0,-114,78,-114,147xm188,-678v0,-55,44,-99,99,-99v55,0,99,44,99,99v0,55,-44,99,-99,99v-55,0,-99,-44,-99,-99xm242,-678v0,25,20,45,45,45v25,0,45,-20,45,-45v0,-25,-20,-45,-45,-45v-25,0,-45,20,-45,45"},"\u00e3":{"d":"533,-444r0,356v0,37,0,94,-69,94v-42,0,-59,-23,-69,-61v-37,44,-82,67,-137,67v-135,0,-238,-115,-238,-277v0,-158,106,-279,238,-279v53,0,105,21,137,66v4,-35,34,-60,69,-60v69,0,69,57,69,94xm164,-265v0,69,36,145,114,145v75,0,111,-76,111,-145v0,-69,-35,-147,-111,-147v-79,0,-114,78,-114,147xm171,-605v-25,0,-50,-27,-50,-52v0,-55,43,-88,95,-88v46,0,88,25,112,25v20,0,51,-29,78,-29v31,0,47,28,47,56v0,50,-51,87,-98,87v-33,0,-90,-25,-113,-25v-25,0,-37,26,-71,26"},"\u00e9":{"d":"464,-218r-307,0v10,71,69,104,136,104v74,0,125,-58,163,-58v31,0,59,31,59,62v0,62,-128,122,-235,122v-162,0,-270,-118,-270,-277v0,-146,106,-279,258,-279v156,0,259,142,259,262v0,43,-19,64,-63,64xm154,-314r229,0v-8,-63,-48,-110,-115,-110v-64,0,-107,49,-114,110xm146,-671v-1,-18,17,-37,36,-44v51,-18,100,-47,156,-58v60,4,75,103,13,121v-49,14,-110,54,-152,54v-30,0,-53,-38,-53,-73","w":537},"\u00ea":{"d":"464,-218r-307,0v10,71,69,104,136,104v74,0,125,-58,163,-58v31,0,59,31,59,62v0,62,-128,122,-235,122v-162,0,-270,-118,-270,-277v0,-146,106,-279,258,-279v156,0,259,142,259,262v0,43,-19,64,-63,64xm154,-314r229,0v-8,-63,-48,-110,-115,-110v-64,0,-107,49,-114,110xm163,-721r106,-43r106,43v69,16,53,125,-15,125v-25,0,-66,-25,-91,-35v-26,10,-66,35,-91,35v-32,0,-61,-32,-61,-64v0,-32,17,-50,46,-61","w":537},"\u00eb":{"d":"464,-218r-307,0v10,71,69,104,136,104v74,0,125,-58,163,-58v31,0,59,31,59,62v0,62,-128,122,-235,122v-162,0,-270,-118,-270,-277v0,-146,106,-279,258,-279v156,0,259,142,259,262v0,43,-19,64,-63,64xm154,-314r229,0v-8,-63,-48,-110,-115,-110v-64,0,-107,49,-114,110xm307,-675v0,-40,32,-72,72,-72v40,0,72,32,72,72v0,40,-32,72,-72,72v-40,0,-72,-32,-72,-72xm87,-675v0,-40,32,-72,72,-72v40,0,72,32,72,72v0,40,-32,72,-72,72v-40,0,-72,-32,-72,-72","w":537},"\u00e8":{"d":"464,-218r-307,0v10,71,69,104,136,104v74,0,125,-58,163,-58v31,0,59,31,59,62v0,62,-128,122,-235,122v-162,0,-270,-118,-270,-277v0,-146,106,-279,258,-279v156,0,259,142,259,262v0,43,-19,64,-63,64xm154,-314r229,0v-8,-63,-48,-110,-115,-110v-64,0,-107,49,-114,110xm200,-773v59,12,112,41,164,62v53,21,21,113,-25,113v-43,0,-103,-40,-152,-54v-62,-18,-48,-117,13,-121","w":537},"\u00ed":{"d":"39,-74r0,-384v0,-48,30,-80,72,-80v42,0,72,32,72,80r0,384v0,48,-30,80,-72,80v-42,0,-72,-32,-72,-80xm-12,-671v-1,-18,17,-37,36,-44v51,-18,100,-47,156,-58v60,4,75,103,13,121v-49,14,-110,54,-152,54v-30,0,-53,-38,-53,-73","w":222},"\u00ee":{"d":"39,-74r0,-384v0,-48,30,-80,72,-80v42,0,72,32,72,80r0,384v0,48,-30,80,-72,80v-42,0,-72,-32,-72,-80xm5,-721r106,-43r106,43v69,16,53,125,-15,125v-25,0,-66,-25,-91,-35v-26,10,-66,35,-91,35v-32,0,-61,-32,-61,-64v0,-32,17,-50,46,-61","w":222},"\u00ef":{"d":"39,-74r0,-384v0,-48,30,-80,72,-80v42,0,72,32,72,80r0,384v0,48,-30,80,-72,80v-42,0,-72,-32,-72,-80xm149,-675v0,-40,32,-72,72,-72v40,0,72,32,72,72v0,40,-32,72,-72,72v-40,0,-72,-32,-72,-72xm-71,-675v0,-40,32,-72,72,-72v40,0,72,32,72,72v0,40,-32,72,-72,72v-40,0,-72,-32,-72,-72","w":222},"\u00ec":{"d":"39,-74r0,-384v0,-48,30,-80,72,-80v42,0,72,32,72,80r0,384v0,48,-30,80,-72,80v-42,0,-72,-32,-72,-80xm42,-773v59,12,112,41,164,62v53,21,21,113,-25,113v-43,0,-103,-40,-152,-54v-62,-18,-48,-117,13,-121","w":222},"\u00f1":{"d":"41,-74r0,-384v-10,-90,128,-108,138,-27v28,-39,71,-59,139,-59v113,0,197,72,197,194r0,276v0,48,-30,80,-72,80v-42,0,-72,-32,-72,-80r0,-251v0,-67,-42,-99,-94,-99v-59,0,-92,43,-92,99r0,251v0,48,-30,80,-72,80v-42,0,-72,-32,-72,-80xm162,-605v-25,0,-50,-27,-50,-52v0,-55,43,-88,95,-88v46,0,88,25,112,25v20,0,51,-29,78,-29v31,0,47,28,47,56v0,50,-51,87,-98,87v-33,0,-90,-25,-113,-25v-25,0,-37,26,-71,26","w":556},"\u00f3":{"d":"278,-544v152,0,258,133,258,279v0,150,-103,277,-258,277v-155,0,-258,-127,-258,-277v0,-146,106,-279,258,-279xm278,-412v-79,0,-114,78,-114,147v0,69,36,145,114,145v78,0,114,-76,114,-145v0,-69,-35,-147,-114,-147xm155,-671v-1,-18,17,-37,36,-44v51,-18,100,-47,156,-58v60,4,75,103,13,121v-49,14,-110,54,-152,54v-30,0,-53,-38,-53,-73","w":556},"\u00f4":{"d":"278,-544v152,0,258,133,258,279v0,150,-103,277,-258,277v-155,0,-258,-127,-258,-277v0,-146,106,-279,258,-279xm278,-412v-79,0,-114,78,-114,147v0,69,36,145,114,145v78,0,114,-76,114,-145v0,-69,-35,-147,-114,-147xm172,-721r106,-43r106,43v69,16,53,125,-15,125v-25,0,-66,-25,-91,-35v-26,10,-66,35,-91,35v-32,0,-61,-32,-61,-64v0,-32,17,-50,46,-61","w":556},"\u00f6":{"d":"278,-544v152,0,258,133,258,279v0,150,-103,277,-258,277v-155,0,-258,-127,-258,-277v0,-146,106,-279,258,-279xm278,-412v-79,0,-114,78,-114,147v0,69,36,145,114,145v78,0,114,-76,114,-145v0,-69,-35,-147,-114,-147xm316,-675v0,-40,32,-72,72,-72v40,0,72,32,72,72v0,40,-32,72,-72,72v-40,0,-72,-32,-72,-72xm96,-675v0,-40,32,-72,72,-72v40,0,72,32,72,72v0,40,-32,72,-72,72v-40,0,-72,-32,-72,-72","w":556},"\u00f2":{"d":"278,-544v152,0,258,133,258,279v0,150,-103,277,-258,277v-155,0,-258,-127,-258,-277v0,-146,106,-279,258,-279xm278,-412v-79,0,-114,78,-114,147v0,69,36,145,114,145v78,0,114,-76,114,-145v0,-69,-35,-147,-114,-147xm209,-773v59,12,112,41,164,62v53,21,21,113,-25,113v-43,0,-103,-40,-152,-54v-62,-18,-48,-117,13,-121","w":556},"\u00f5":{"d":"278,-544v152,0,258,133,258,279v0,150,-103,277,-258,277v-155,0,-258,-127,-258,-277v0,-146,106,-279,258,-279xm278,-412v-79,0,-114,78,-114,147v0,69,36,145,114,145v78,0,114,-76,114,-145v0,-69,-35,-147,-114,-147xm162,-605v-25,0,-50,-27,-50,-52v0,-55,43,-88,95,-88v46,0,88,25,112,25v20,0,51,-29,78,-29v31,0,47,28,47,56v0,50,-51,87,-98,87v-33,0,-90,-25,-113,-25v-25,0,-37,26,-71,26","w":556},"\u0161":{"d":"403,-440v0,33,-25,64,-59,64v-27,0,-82,-42,-129,-42v-26,0,-49,12,-49,40v0,67,250,57,250,221v0,96,-81,169,-205,169v-81,0,-201,-46,-201,-111v0,-22,22,-64,62,-64v56,0,81,49,149,49v44,0,57,-14,57,-41v0,-66,-250,-56,-250,-221v0,-100,81,-168,195,-168v71,0,180,33,180,104xm213,-592r-106,-43v-69,-15,-53,-125,15,-125v25,0,66,25,91,35v26,-10,66,-35,91,-35v32,0,61,32,61,64v0,32,-17,49,-46,61","w":426},"\u00fa":{"d":"41,-198r0,-260v0,-48,30,-80,72,-80v42,0,72,32,72,80r0,257v0,60,45,93,93,93v48,0,93,-33,93,-93r0,-257v0,-48,30,-80,72,-80v42,0,72,32,72,80r0,260v0,128,-85,210,-237,210v-152,0,-237,-82,-237,-210xm155,-671v-1,-18,17,-37,36,-44v51,-18,100,-47,156,-58v60,4,75,103,13,121v-49,14,-110,54,-152,54v-30,0,-53,-38,-53,-73","w":556},"\u00fb":{"d":"41,-198r0,-260v0,-48,30,-80,72,-80v42,0,72,32,72,80r0,257v0,60,45,93,93,93v48,0,93,-33,93,-93r0,-257v0,-48,30,-80,72,-80v42,0,72,32,72,80r0,260v0,128,-85,210,-237,210v-152,0,-237,-82,-237,-210xm172,-721r106,-43r106,43v69,16,53,125,-15,125v-25,0,-66,-25,-91,-35v-26,10,-66,35,-91,35v-32,0,-61,-32,-61,-64v0,-32,17,-50,46,-61","w":556},"\u00fc":{"d":"41,-198r0,-260v0,-48,30,-80,72,-80v42,0,72,32,72,80r0,257v0,60,45,93,93,93v48,0,93,-33,93,-93r0,-257v0,-48,30,-80,72,-80v42,0,72,32,72,80r0,260v0,128,-85,210,-237,210v-152,0,-237,-82,-237,-210xm316,-675v0,-40,32,-72,72,-72v40,0,72,32,72,72v0,40,-32,72,-72,72v-40,0,-72,-32,-72,-72xm96,-675v0,-40,32,-72,72,-72v40,0,72,32,72,72v0,40,-32,72,-72,72v-40,0,-72,-32,-72,-72","w":556},"\u00f9":{"d":"41,-198r0,-260v0,-48,30,-80,72,-80v42,0,72,32,72,80r0,257v0,60,45,93,93,93v48,0,93,-33,93,-93r0,-257v0,-48,30,-80,72,-80v42,0,72,32,72,80r0,260v0,128,-85,210,-237,210v-152,0,-237,-82,-237,-210xm209,-773v59,12,112,41,164,62v53,21,21,113,-25,113v-43,0,-103,-40,-152,-54v-62,-18,-48,-117,13,-121","w":556},"\u00fd":{"d":"164,-42r-159,-397v-24,-47,17,-99,61,-99v35,0,60,19,72,51r99,271r106,-271v18,-70,140,-66,140,11v0,15,-2,26,-7,37r-241,600v-12,30,-34,57,-68,57v-68,-2,-87,-51,-66,-104xm118,-671v-1,-18,17,-37,36,-44v51,-18,100,-47,156,-58v60,4,75,103,13,121v-49,14,-110,54,-152,54v-30,0,-53,-38,-53,-73","w":481},"\u00ff":{"d":"164,-42r-159,-397v-24,-47,17,-99,61,-99v35,0,60,19,72,51r99,271r106,-271v18,-70,140,-66,140,11v0,15,-2,26,-7,37r-241,600v-12,30,-34,57,-68,57v-68,-2,-87,-51,-66,-104xm279,-675v0,-40,32,-72,72,-72v40,0,72,32,72,72v0,40,-32,72,-72,72v-40,0,-72,-32,-72,-72xm59,-675v0,-40,32,-72,72,-72v40,0,72,32,72,72v0,40,-32,72,-72,72v-40,0,-72,-32,-72,-72","w":481},"\u017e":{"d":"24,-88r226,-318r-167,0v-36,0,-65,-23,-65,-63v0,-40,29,-63,65,-63r327,0v13,0,47,6,47,45v0,19,-4,28,-15,43r-227,318r190,0v36,0,65,23,65,63v0,40,-29,63,-65,63r-335,0v-32,0,-59,-16,-59,-49v0,-16,8,-31,13,-39xm241,-592r-106,-43v-69,-15,-53,-125,15,-125v25,0,66,25,91,35v26,-10,66,-35,91,-35v32,0,61,32,61,64v0,32,-17,49,-46,61","w":481},"\u00a0":{"w":268}}});
